digraph Tree {
node [shape=box, style="filled, rounded", color="black", fontname=helvetica] ;
edge [fontname=helvetica] ;
0 [label="node #0\natomic_pauling_electronegativity_wad <= 1.5398\ngini = 0.492\nsamples = 100.0%\nvalue = [0.5634, 0.4366]", fillcolor="#f9e3d2"] ;
1 [label="node #1\natomic_ionization_potential_wa <= 9.1679\ngini = 0.2955\nsamples = 34.9%\nvalue = [0.1802, 0.8198]", fillcolor="#65b3eb"] ;
0 -> 1 [labeldistance=2.5, labelangle=45, headlabel="True"] ;
2 [label="node #2\natomic_pauling_electronegativity_wa <= 2.0345\ngini = 0.1977\nsamples = 30.8%\nvalue = [0.1112, 0.8888]", fillcolor="#52a9e8"] ;
1 -> 2 ;
3 [label="node #3\natomic_volume_wad <= 35.222\ngini = 0.1382\nsamples = 26.3%\nvalue = [0.0747, 0.9253]", fillcolor="#49a5e7"] ;
2 -> 3 ;
4 [label="node #4\natomic_volume_wa <= 15.2088\ngini = 0.1258\nsamples = 25.9%\nvalue = [0.0674, 0.9326]", fillcolor="#47a4e7"] ;
3 -> 4 ;
5 [label="node #5\nrel_stoich_wa <= 0.958\ngini = 0.0816\nsamples = 17.9%\nvalue = [0.0426, 0.9574]", fillcolor="#42a1e6"] ;
4 -> 5 ;
6 [label="node #6\natomic_r_covalent_wa <= 0.9297\ngini = 0.0745\nsamples = 17.8%\nvalue = [0.0387, 0.9613]", fillcolor="#41a1e6"] ;
5 -> 6 ;
7 [label="node #7\nrel_stoich_wa <= 0.838\ngini = 0.4994\nsamples = 0.0%\nvalue = [0.5172, 0.4828]", fillcolor="#fdf7f2"] ;
6 -> 7 ;
8 [label="node #8\natomic_r_covalent_wa <= 0.8446\ngini = 0.2076\nsamples = 0.0%\nvalue = [0.8824, 0.1176]", fillcolor="#e89253"] ;
7 -> 8 ;
9 [label="node #9\ngini = 0.0\nsamples = 0.0%\nvalue = [0.0, 1.0]", fillcolor="#399de5"] ;
8 -> 9 ;
10 [label="node #10\ngini = 0.0\nsamples = 0.0%\nvalue = [1.0, 0.0]", fillcolor="#e58139"] ;
8 -> 10 ;
11 [label="node #11\ngini = 0.0\nsamples = 0.0%\nvalue = [0.0, 1.0]", fillcolor="#399de5"] ;
7 -> 11 ;
12 [label="node #12\natomic_r_covalent_wa <= 1.2352\ngini = 0.0728\nsamples = 17.7%\nvalue = [0.0378, 0.9622]", fillcolor="#41a1e6"] ;
6 -> 12 ;
13 [label="node #13\natomic_volume_wa <= 10.3265\ngini = 0.1644\nsamples = 1.4%\nvalue = [0.0904, 0.9096]", fillcolor="#4da7e8"] ;
12 -> 13 ;
14 [label="node #14\natomic_pauling_electronegativity_wad <= 1.5299\ngini = 0.0959\nsamples = 1.3%\nvalue = [0.0505, 0.9495]", fillcolor="#44a2e6"] ;
13 -> 14 ;
15 [label="node #15\ngini = 0.0926\nsamples = 1.3%\nvalue = [0.0487, 0.9513]", fillcolor="#43a2e6"] ;
14 -> 15 ;
16 [label="node #16\ngini = 0.0\nsamples = 0.0%\nvalue = [1.0, 0.0]", fillcolor="#e58139"] ;
14 -> 16 ;
17 [label="node #17\nrel_stoich_wad <= 0.3727\ngini = 0.4709\nsamples = 0.2%\nvalue = [0.3793, 0.6207]", fillcolor="#b2d9f5"] ;
13 -> 17 ;
18 [label="node #18\ngini = 0.4444\nsamples = 0.1%\nvalue = [0.6667, 0.3333]", fillcolor="#f2c09c"] ;
17 -> 18 ;
19 [label="node #19\ngini = 0.2907\nsamples = 0.1%\nvalue = [0.1765, 0.8235]", fillcolor="#63b2eb"] ;
17 -> 19 ;
20 [label="node #20\nrel_stoich_wa <= 0.3505\ngini = 0.0644\nsamples = 16.3%\nvalue = [0.0333, 0.9667]", fillcolor="#40a0e6"] ;
12 -> 20 ;
21 [label="node #21\natomic_number_wa <= 11.3333\ngini = 0.1157\nsamples = 2.6%\nvalue = [0.0616, 0.9384]", fillcolor="#46a3e7"] ;
20 -> 21 ;
22 [label="node #22\ngini = 0.0\nsamples = 0.0%\nvalue = [1.0, 0.0]", fillcolor="#e58139"] ;
21 -> 22 ;
23 [label="node #23\ngini = 0.112\nsamples = 2.6%\nvalue = [0.0595, 0.9405]", fillcolor="#46a3e7"] ;
21 -> 23 ;
24 [label="node #24\natomic_r_covalent_wa <= 1.3427\ngini = 0.0542\nsamples = 13.7%\nvalue = [0.0279, 0.9721]", fillcolor="#3fa0e6"] ;
20 -> 24 ;
25 [label="node #25\ngini = 0.0914\nsamples = 3.4%\nvalue = [0.048, 0.952]", fillcolor="#43a2e6"] ;
24 -> 25 ;
26 [label="node #26\ngini = 0.0414\nsamples = 10.3%\nvalue = [0.0211, 0.9789]", fillcolor="#3d9fe6"] ;
24 -> 26 ;
27 [label="node #27\natomic_number_wa <= 17.5\ngini = 0.497\nsamples = 0.2%\nvalue = [0.461, 0.539]", fillcolor="#e2f1fb"] ;
5 -> 27 ;
28 [label="node #28\natomic_number_wa <= 12.01\ngini = 0.1588\nsamples = 0.1%\nvalue = [0.913, 0.087]", fillcolor="#e78d4c"] ;
27 -> 28 ;
29 [label="node #29\natomic_volume_wad <= 1.78\ngini = 0.375\nsamples = 0.0%\nvalue = [0.25, 0.75]", fillcolor="#7bbeee"] ;
28 -> 29 ;
30 [label="node #30\ngini = 0.0\nsamples = 0.0%\nvalue = [0.0, 1.0]", fillcolor="#399de5"] ;
29 -> 30 ;
31 [label="node #31\ngini = 0.0\nsamples = 0.0%\nvalue = [1.0, 0.0]", fillcolor="#e58139"] ;
29 -> 31 ;
32 [label="node #32\ngini = 0.0\nsamples = 0.1%\nvalue = [1.0, 0.0]", fillcolor="#e58139"] ;
28 -> 32 ;
33 [label="node #33\natomic_pauling_electronegativity_wa <= 1.97\ngini = 0.054\nsamples = 0.1%\nvalue = [0.0278, 0.9722]", fillcolor="#3fa0e6"] ;
27 -> 33 ;
34 [label="node #34\ngini = 0.0\nsamples = 0.1%\nvalue = [0.0, 1.0]", fillcolor="#399de5"] ;
33 -> 34 ;
35 [label="node #35\ngini = 0.5\nsamples = 0.0%\nvalue = [0.5, 0.5]", fillcolor="#ffffff"] ;
33 -> 35 ;
36 [label="node #36\natomic_ionization_potential_wa <= 7.6067\ngini = 0.2151\nsamples = 8.0%\nvalue = [0.1226, 0.8774]", fillcolor="#55abe9"] ;
4 -> 36 ;
37 [label="node #37\natomic_pauling_electronegativity_wad <= 0.956\ngini = 0.1332\nsamples = 6.2%\nvalue = [0.0718, 0.9282]", fillcolor="#48a5e7"] ;
36 -> 37 ;
38 [label="node #38\natomic_r_covalent_wa <= 1.3587\ngini = 0.0522\nsamples = 3.7%\nvalue = [0.0268, 0.9732]", fillcolor="#3ea0e6"] ;
37 -> 38 ;
39 [label="node #39\natomic_ionization_potential_wad <= 4.1314\ngini = 0.4922\nsamples = 0.0%\nvalue = [0.4375, 0.5625]", fillcolor="#d3e9f9"] ;
38 -> 39 ;
40 [label="node #40\ngini = 0.0\nsamples = 0.0%\nvalue = [0.0, 1.0]", fillcolor="#399de5"] ;
39 -> 40 ;
41 [label="node #41\ngini = 0.0\nsamples = 0.0%\nvalue = [1.0, 0.0]", fillcolor="#e58139"] ;
39 -> 41 ;
42 [label="node #42\natomic_pauling_electronegativity_wa <= 1.8259\ngini = 0.0482\nsamples = 3.7%\nvalue = [0.0247, 0.9753]", fillcolor="#3e9fe6"] ;
38 -> 42 ;
43 [label="node #43\natomic_pauling_electronegativity_wad <= 0.7129\ngini = 0.0419\nsamples = 3.5%\nvalue = [0.0214, 0.9786]", fillcolor="#3d9fe6"] ;
42 -> 43 ;
44 [label="node #44\ngini = 0.0225\nsamples = 2.3%\nvalue = [0.0114, 0.9886]", fillcolor="#3b9ee5"] ;
43 -> 44 ;
45 [label="node #45\ngini = 0.0798\nsamples = 1.2%\nvalue = [0.0416, 0.9584]", fillcolor="#42a1e6"] ;
43 -> 45 ;
46 [label="node #46\nrel_stoich_wa <= 0.4657\ngini = 0.1932\nsamples = 0.1%\nvalue = [0.1083, 0.8917]", fillcolor="#51a9e8"] ;
42 -> 46 ;
47 [label="node #47\ngini = 0.4012\nsamples = 0.0%\nvalue = [0.7222, 0.2778]", fillcolor="#efb185"] ;
46 -> 47 ;
48 [label="node #48\ngini = 0.0\nsamples = 0.1%\nvalue = [0.0, 1.0]", fillcolor="#399de5"] ;
46 -> 48 ;
49 [label="node #49\natomic_volume_wa <= 19.6217\ngini = 0.2367\nsamples = 2.5%\nvalue = [0.1372, 0.8628]", fillcolor="#58ade9"] ;
37 -> 49 ;
50 [label="node #50\natomic_volume_wad <= 4.9478\ngini = 0.164\nsamples = 1.9%\nvalue = [0.0901, 0.9099]", fillcolor="#4da7e8"] ;
49 -> 50 ;
51 [label="node #51\natomic_r_covalent_wa <= 1.5825\ngini = 0.42\nsamples = 0.0%\nvalue = [0.7, 0.3]", fillcolor="#f0b78e"] ;
50 -> 51 ;
52 [label="node #52\ngini = 0.1244\nsamples = 0.0%\nvalue = [0.9333, 0.0667]", fillcolor="#e78a47"] ;
51 -> 52 ;
53 [label="node #53\ngini = 0.0\nsamples = 0.0%\nvalue = [0.0, 1.0]", fillcolor="#399de5"] ;
51 -> 53 ;
54 [label="node #54\natomic_r_covalent_wa <= 1.4784\ngini = 0.1512\nsamples = 1.9%\nvalue = [0.0824, 0.9176]", fillcolor="#4ba6e7"] ;
50 -> 54 ;
55 [label="node #55\ngini = 0.3061\nsamples = 0.3%\nvalue = [0.1886, 0.8114]", fillcolor="#67b4eb"] ;
54 -> 55 ;
56 [label="node #56\ngini = 0.1117\nsamples = 1.5%\nvalue = [0.0594, 0.9406]", fillcolor="#45a3e7"] ;
54 -> 56 ;
57 [label="node #57\natomic_number_wa <= 32.9685\ngini = 0.3908\nsamples = 0.6%\nvalue = [0.2663, 0.7337]", fillcolor="#81c1ee"] ;
49 -> 57 ;
58 [label="node #58\natomic_pauling_electronegativity_wa <= 1.2063\ngini = 0.4997\nsamples = 0.1%\nvalue = [0.5118, 0.4882]", fillcolor="#fef9f6"] ;
57 -> 58 ;
59 [label="node #59\ngini = 0.2268\nsamples = 0.0%\nvalue = [0.1304, 0.8696]", fillcolor="#57ace9"] ;
58 -> 59 ;
60 [label="node #60\ngini = 0.4815\nsamples = 0.1%\nvalue = [0.5962, 0.4038]", fillcolor="#f7d6bf"] ;
58 -> 60 ;
61 [label="node #61\natomic_ionization_potential_wa <= 7.0961\ngini = 0.3174\nsamples = 0.5%\nvalue = [0.1978, 0.8022]", fillcolor="#6ab5eb"] ;
57 -> 61 ;
62 [label="node #62\ngini = 0.2245\nsamples = 0.4%\nvalue = [0.1288, 0.8712]", fillcolor="#56abe9"] ;
61 -> 62 ;
63 [label="node #63\ngini = 0.4673\nsamples = 0.1%\nvalue = [0.3721, 0.6279]", fillcolor="#aed7f4"] ;
61 -> 63 ;
64 [label="node #64\natomic_r_covalent_wa <= 1.4215\ngini = 0.4196\nsamples = 1.8%\nvalue = [0.2995, 0.7005]", fillcolor="#8ec7f0"] ;
36 -> 64 ;
65 [label="node #65\natomic_volume_wa <= 16.1581\ngini = 0.4991\nsamples = 0.5%\nvalue = [0.5206, 0.4794]", fillcolor="#fdf5ef"] ;
64 -> 65 ;
66 [label="node #66\natomic_number_wad <= 26.75\ngini = 0.4335\nsamples = 0.2%\nvalue = [0.3177, 0.6823]", fillcolor="#95cbf1"] ;
65 -> 66 ;
67 [label="node #67\natomic_ionization_potential_wa <= 8.6693\ngini = 0.4866\nsamples = 0.1%\nvalue = [0.5818, 0.4182]", fillcolor="#f8dcc7"] ;
66 -> 67 ;
68 [label="node #68\ngini = 0.4377\nsamples = 0.0%\nvalue = [0.3235, 0.6765]", fillcolor="#98ccf1"] ;
67 -> 68 ;
69 [label="node #69\ngini = 0.0\nsamples = 0.0%\nvalue = [1.0, 0.0]", fillcolor="#e58139"] ;
67 -> 69 ;
70 [label="node #70\nrel_stoich_wa <= 0.3505\ngini = 0.3337\nsamples = 0.2%\nvalue = [0.2117, 0.7883]", fillcolor="#6eb7ec"] ;
66 -> 70 ;
71 [label="node #71\ngini = 0.4688\nsamples = 0.0%\nvalue = [0.625, 0.375]", fillcolor="#f5cdb0"] ;
70 -> 71 ;
72 [label="node #72\ngini = 0.2171\nsamples = 0.1%\nvalue = [0.1239, 0.8761]", fillcolor="#55abe9"] ;
70 -> 72 ;
73 [label="node #73\natomic_volume_wad <= 27.42\ngini = 0.435\nsamples = 0.3%\nvalue = [0.6803, 0.3197]", fillcolor="#f1bc96"] ;
65 -> 73 ;
74 [label="node #74\natomic_volume_wad <= 4.36\ngini = 0.3773\nsamples = 0.3%\nvalue = [0.7477, 0.2523]", fillcolor="#eeac7c"] ;
73 -> 74 ;
75 [label="node #75\ngini = 0.4512\nsamples = 0.0%\nvalue = [0.3438, 0.6562]", fillcolor="#a1d0f3"] ;
74 -> 75 ;
76 [label="node #76\ngini = 0.2969\nsamples = 0.2%\nvalue = [0.8187, 0.1813]", fillcolor="#eb9d65"] ;
74 -> 76 ;
77 [label="node #77\natomic_volume_wa <= 17.2978\ngini = 0.32\nsamples = 0.0%\nvalue = [0.2, 0.8]", fillcolor="#6ab6ec"] ;
73 -> 77 ;
78 [label="node #78\ngini = 0.0\nsamples = 0.0%\nvalue = [0.0, 1.0]", fillcolor="#399de5"] ;
77 -> 78 ;
79 [label="node #79\ngini = 0.2449\nsamples = 0.0%\nvalue = [0.8571, 0.1429]", fillcolor="#e9965a"] ;
77 -> 79 ;
80 [label="node #80\natomic_pauling_electronegativity_wad <= 1.4522\ngini = 0.3339\nsamples = 1.3%\nvalue = [0.2118, 0.7882]", fillcolor="#6eb7ec"] ;
64 -> 80 ;
81 [label="node #81\natomic_volume_wa <= 19.7977\ngini = 0.2947\nsamples = 1.2%\nvalue = [0.1796, 0.8204]", fillcolor="#64b2eb"] ;
80 -> 81 ;
82 [label="node #82\natomic_pauling_electronegativity_wa <= 1.7921\ngini = 0.2387\nsamples = 1.0%\nvalue = [0.1386, 0.8614]", fillcolor="#59ade9"] ;
81 -> 82 ;
83 [label="node #83\ngini = 0.1036\nsamples = 0.5%\nvalue = [0.0548, 0.9452]", fillcolor="#44a3e7"] ;
82 -> 83 ;
84 [label="node #84\ngini = 0.356\nsamples = 0.5%\nvalue = [0.2317, 0.7683]", fillcolor="#75bbed"] ;
82 -> 84 ;
85 [label="node #85\natomic_ionization_potential_wa <= 7.8152\ngini = 0.4844\nsamples = 0.2%\nvalue = [0.4118, 0.5882]", fillcolor="#c4e2f7"] ;
81 -> 85 ;
86 [label="node #86\ngini = 0.437\nsamples = 0.1%\nvalue = [0.6774, 0.3226]", fillcolor="#f1bd97"] ;
85 -> 86 ;
87 [label="node #87\ngini = 0.355\nsamples = 0.1%\nvalue = [0.2308, 0.7692]", fillcolor="#74baed"] ;
85 -> 87 ;
88 [label="node #88\natomic_pauling_electronegativity_wa <= 1.9825\ngini = 0.4725\nsamples = 0.1%\nvalue = [0.6173, 0.3827]", fillcolor="#f5cfb4"] ;
80 -> 88 ;
89 [label="node #89\natomic_number_wa <= 32.9857\ngini = 0.4767\nsamples = 0.1%\nvalue = [0.3922, 0.6078]", fillcolor="#b9dcf6"] ;
88 -> 89 ;
90 [label="node #90\ngini = 0.1975\nsamples = 0.0%\nvalue = [0.8889, 0.1111]", fillcolor="#e89152"] ;
89 -> 90 ;
91 [label="node #91\ngini = 0.4082\nsamples = 0.1%\nvalue = [0.2857, 0.7143]", fillcolor="#88c4ef"] ;
89 -> 91 ;
92 [label="node #92\ngini = 0.0\nsamples = 0.0%\nvalue = [1.0, 0.0]", fillcolor="#e58139"] ;
88 -> 92 ;
93 [label="node #93\natomic_volume_wa <= 20.3472\ngini = 0.4962\nsamples = 0.4%\nvalue = [0.5439, 0.4561]", fillcolor="#fbebdf"] ;
3 -> 93 ;
94 [label="node #94\nrel_stoich_wa <= 0.4227\ngini = 0.2845\nsamples = 0.1%\nvalue = [0.1717, 0.8283]", fillcolor="#62b1ea"] ;
93 -> 94 ;
95 [label="node #95\natomic_r_covalent_wa <= 1.3231\ngini = 0.4759\nsamples = 0.0%\nvalue = [0.3902, 0.6098]", fillcolor="#b8dcf6"] ;
94 -> 95 ;
96 [label="node #96\ngini = 0.0\nsamples = 0.0%\nvalue = [1.0, 0.0]", fillcolor="#e58139"] ;
95 -> 96 ;
97 [label="node #97\natomic_r_covalent_wad <= 0.7953\ngini = 0.3418\nsamples = 0.0%\nvalue = [0.2188, 0.7812]", fillcolor="#70b8ec"] ;
95 -> 97 ;
98 [label="node #98\ngini = 0.0\nsamples = 0.0%\nvalue = [1.0, 0.0]", fillcolor="#e58139"] ;
97 -> 98 ;
99 [label="node #99\natomic_volume_wad <= 36.2205\ngini = 0.2378\nsamples = 0.0%\nvalue = [0.1379, 0.8621]", fillcolor="#59ade9"] ;
97 -> 99 ;
100 [label="node #100\ngini = 0.0\nsamples = 0.0%\nvalue = [1.0, 0.0]", fillcolor="#e58139"] ;
99 -> 100 ;
101 [label="node #101\natomic_number_wad <= 6.5714\ngini = 0.1372\nsamples = 0.0%\nvalue = [0.0741, 0.9259]", fillcolor="#49a5e7"] ;
99 -> 101 ;
102 [label="node #102\ngini = 0.0\nsamples = 0.0%\nvalue = [1.0, 0.0]", fillcolor="#e58139"] ;
101 -> 102 ;
103 [label="node #103\ngini = 0.074\nsamples = 0.0%\nvalue = [0.0385, 0.9615]", fillcolor="#41a1e6"] ;
101 -> 103 ;
104 [label="node #104\natomic_volume_wa <= 20.0964\ngini = 0.0339\nsamples = 0.1%\nvalue = [0.0172, 0.9828]", fillcolor="#3c9fe5"] ;
94 -> 104 ;
105 [label="node #105\ngini = 0.0\nsamples = 0.1%\nvalue = [0.0, 1.0]", fillcolor="#399de5"] ;
104 -> 105 ;
106 [label="node #106\nrel_stoich_wa <= 0.573\ngini = 0.4444\nsamples = 0.0%\nvalue = [0.3333, 0.6667]", fillcolor="#9ccef2"] ;
104 -> 106 ;
107 [label="node #107\ngini = 0.0\nsamples = 0.0%\nvalue = [0.0, 1.0]", fillcolor="#399de5"] ;
106 -> 107 ;
108 [label="node #108\ngini = 0.0\nsamples = 0.0%\nvalue = [1.0, 0.0]", fillcolor="#e58139"] ;
106 -> 108 ;
109 [label="node #109\natomic_pauling_electronegativity_wad <= 1.2479\ngini = 0.4236\nsamples = 0.3%\nvalue = [0.6955, 0.3045]", fillcolor="#f0b890"] ;
93 -> 109 ;
110 [label="node #110\nrel_stoich_wad <= 0.0556\ngini = 0.4481\nsamples = 0.1%\nvalue = [0.339, 0.661]", fillcolor="#9fcff2"] ;
109 -> 110 ;
111 [label="node #111\natomic_ionization_potential_wad <= 5.3975\ngini = 0.2449\nsamples = 0.0%\nvalue = [0.8571, 0.1429]", fillcolor="#e9965a"] ;
110 -> 111 ;
112 [label="node #112\ngini = 0.0\nsamples = 0.0%\nvalue = [1.0, 0.0]", fillcolor="#e58139"] ;
111 -> 112 ;
113 [label="node #113\ngini = 0.0\nsamples = 0.0%\nvalue = [0.0, 1.0]", fillcolor="#399de5"] ;
111 -> 113 ;
114 [label="node #114\natomic_number_wad <= 109.238\ngini = 0.2923\nsamples = 0.1%\nvalue = [0.1778, 0.8222]", fillcolor="#64b2eb"] ;
110 -> 114 ;
115 [label="node #115\natomic_volume_wad <= 38.12\ngini = 0.2401\nsamples = 0.1%\nvalue = [0.1395, 0.8605]", fillcolor="#59ade9"] ;
114 -> 115 ;
116 [label="node #116\nrel_stoich_wad <= 0.359\ngini = 0.5\nsamples = 0.0%\nvalue = [0.5, 0.5]", fillcolor="#ffffff"] ;
115 -> 116 ;
117 [label="node #117\ngini = 0.0\nsamples = 0.0%\nvalue = [0.0, 1.0]", fillcolor="#399de5"] ;
116 -> 117 ;
118 [label="node #118\ngini = 0.32\nsamples = 0.0%\nvalue = [0.8, 0.2]", fillcolor="#eca06a"] ;
116 -> 118 ;
119 [label="node #119\natomic_volume_wa <= 57.63\ngini = 0.1078\nsamples = 0.0%\nvalue = [0.0571, 0.9429]", fillcolor="#45a3e7"] ;
115 -> 119 ;
120 [label="node #120\ngini = 0.0571\nsamples = 0.0%\nvalue = [0.0294, 0.9706]", fillcolor="#3fa0e6"] ;
119 -> 120 ;
121 [label="node #121\ngini = 0.0\nsamples = 0.0%\nvalue = [1.0, 0.0]", fillcolor="#e58139"] ;
119 -> 121 ;
122 [label="node #122\ngini = 0.0\nsamples = 0.0%\nvalue = [1.0, 0.0]", fillcolor="#e58139"] ;
114 -> 122 ;
123 [label="node #123\natomic_ionization_potential_wad <= 3.6236\ngini = 0.3081\nsamples = 0.2%\nvalue = [0.8098, 0.1902]", fillcolor="#eb9f68"] ;
109 -> 123 ;
124 [label="node #124\natomic_number_wad <= 55.1071\ngini = 0.42\nsamples = 0.0%\nvalue = [0.3, 0.7]", fillcolor="#8ec7f0"] ;
123 -> 124 ;
125 [label="node #125\ngini = 0.0\nsamples = 0.0%\nvalue = [0.0, 1.0]", fillcolor="#399de5"] ;
124 -> 125 ;
126 [label="node #126\natomic_number_wa <= 59.2885\ngini = 0.375\nsamples = 0.0%\nvalue = [0.75, 0.25]", fillcolor="#eeab7b"] ;
124 -> 126 ;
127 [label="node #127\ngini = 0.0\nsamples = 0.0%\nvalue = [1.0, 0.0]", fillcolor="#e58139"] ;
126 -> 127 ;
128 [label="node #128\ngini = 0.0\nsamples = 0.0%\nvalue = [0.0, 1.0]", fillcolor="#399de5"] ;
126 -> 128 ;
129 [label="node #129\natomic_pauling_electronegativity_wa <= 1.9395\ngini = 0.27\nsamples = 0.2%\nvalue = [0.8391, 0.1609]", fillcolor="#ea995f"] ;
123 -> 129 ;
130 [label="node #130\nrel_stoich_wad <= 0.3727\ngini = 0.2496\nsamples = 0.2%\nvalue = [0.8538, 0.1462]", fillcolor="#e9975b"] ;
129 -> 130 ;
131 [label="node #131\natomic_pauling_electronegativity_wa <= 1.7871\ngini = 0.1107\nsamples = 0.1%\nvalue = [0.9412, 0.0588]", fillcolor="#e78945"] ;
130 -> 131 ;
132 [label="node #132\ngini = 0.0697\nsamples = 0.1%\nvalue = [0.9639, 0.0361]", fillcolor="#e68640"] ;
131 -> 132 ;
133 [label="node #133\ngini = 0.0\nsamples = 0.0%\nvalue = [0.0, 1.0]", fillcolor="#399de5"] ;
131 -> 133 ;
134 [label="node #134\nrel_stoich_wa <= 0.3976\ngini = 0.3569\nsamples = 0.1%\nvalue = [0.7674, 0.2326]", fillcolor="#eda775"] ;
130 -> 134 ;
135 [label="node #135\ngini = 0.5\nsamples = 0.0%\nvalue = [0.5, 0.5]", fillcolor="#ffffff"] ;
134 -> 135 ;
136 [label="node #136\ngini = 0.1855\nsamples = 0.1%\nvalue = [0.8966, 0.1034]", fillcolor="#e89050"] ;
134 -> 136 ;
137 [label="node #137\ngini = 0.0\nsamples = 0.0%\nvalue = [0.0, 1.0]", fillcolor="#399de5"] ;
129 -> 137 ;
138 [label="node #138\natomic_volume_wa <= 13.1945\ngini = 0.4405\nsamples = 4.5%\nvalue = [0.3275, 0.6725]", fillcolor="#99cdf2"] ;
2 -> 138 ;
139 [label="node #139\natomic_r_covalent_wa <= 1.0165\ngini = 0.2107\nsamples = 2.1%\nvalue = [0.1196, 0.8804]", fillcolor="#54aae9"] ;
138 -> 139 ;
140 [label="node #140\natomic_ionization_potential_wa <= 9.0647\ngini = 0.2449\nsamples = 0.0%\nvalue = [0.8571, 0.1429]", fillcolor="#e9965a"] ;
139 -> 140 ;
141 [label="node #141\natomic_ionization_potential_wa <= 8.3763\ngini = 0.0768\nsamples = 0.0%\nvalue = [0.96, 0.04]", fillcolor="#e68641"] ;
140 -> 141 ;
142 [label="node #142\ngini = 0.375\nsamples = 0.0%\nvalue = [0.75, 0.25]", fillcolor="#eeab7b"] ;
141 -> 142 ;
143 [label="node #143\ngini = 0.0\nsamples = 0.0%\nvalue = [1.0, 0.0]", fillcolor="#e58139"] ;
141 -> 143 ;
144 [label="node #144\ngini = 0.0\nsamples = 0.0%\nvalue = [0.0, 1.0]", fillcolor="#399de5"] ;
140 -> 144 ;
145 [label="node #145\natomic_volume_wa <= 11.7688\ngini = 0.1926\nsamples = 2.1%\nvalue = [0.108, 0.892]", fillcolor="#51a9e8"] ;
139 -> 145 ;
146 [label="node #146\natomic_r_covalent_wa <= 1.2963\ngini = 0.0895\nsamples = 1.4%\nvalue = [0.047, 0.953]", fillcolor="#43a2e6"] ;
145 -> 146 ;
147 [label="node #147\natomic_volume_wa <= 9.8871\ngini = 0.2014\nsamples = 0.5%\nvalue = [0.1136, 0.8864]", fillcolor="#52aae8"] ;
146 -> 147 ;
148 [label="node #148\nrel_stoich_wad <= 0.7558\ngini = 0.0183\nsamples = 0.3%\nvalue = [0.0093, 0.9907]", fillcolor="#3b9ee5"] ;
147 -> 148 ;
149 [label="node #149\natomic_pauling_electronegativity_wad <= 1.5368\ngini = 0.0094\nsamples = 0.3%\nvalue = [0.0047, 0.9953]", fillcolor="#3a9de5"] ;
148 -> 149 ;
150 [label="node #150\ngini = 0.0\nsamples = 0.3%\nvalue = [0.0, 1.0]", fillcolor="#399de5"] ;
149 -> 150 ;
151 [label="node #151\ngini = 0.32\nsamples = 0.0%\nvalue = [0.2, 0.8]", fillcolor="#6ab6ec"] ;
149 -> 151 ;
152 [label="node #152\nrel_stoich_wad <= 0.8288\ngini = 0.375\nsamples = 0.0%\nvalue = [0.25, 0.75]", fillcolor="#7bbeee"] ;
148 -> 152 ;
153 [label="node #153\ngini = 0.0\nsamples = 0.0%\nvalue = [1.0, 0.0]", fillcolor="#e58139"] ;
152 -> 153 ;
154 [label="node #154\ngini = 0.0\nsamples = 0.0%\nvalue = [0.0, 1.0]", fillcolor="#399de5"] ;
152 -> 154 ;
155 [label="node #155\natomic_ionization_potential_wa <= 8.6088\ngini = 0.3636\nsamples = 0.2%\nvalue = [0.2389, 0.7611]", fillcolor="#77bced"] ;
147 -> 155 ;
156 [label="node #156\natomic_r_covalent_wad <= 0.172\ngini = 0.4945\nsamples = 0.1%\nvalue = [0.4474, 0.5526]", fillcolor="#d9ecfa"] ;
155 -> 156 ;
157 [label="node #157\ngini = 0.0\nsamples = 0.0%\nvalue = [0.0, 1.0]", fillcolor="#399de5"] ;
156 -> 157 ;
158 [label="node #158\ngini = 0.4851\nsamples = 0.1%\nvalue = [0.5862, 0.4138]", fillcolor="#f7dac5"] ;
156 -> 158 ;
159 [label="node #159\natomic_volume_wad <= 23.4325\ngini = 0.1581\nsamples = 0.1%\nvalue = [0.0865, 0.9135]", fillcolor="#4ca6e7"] ;
155 -> 159 ;
160 [label="node #160\ngini = 0.1278\nsamples = 0.1%\nvalue = [0.0686, 0.9314]", fillcolor="#48a4e7"] ;
159 -> 160 ;
161 [label="node #161\ngini = 0.0\nsamples = 0.0%\nvalue = [1.0, 0.0]", fillcolor="#e58139"] ;
159 -> 161 ;
162 [label="node #162\natomic_number_wa <= 30.0552\ngini = 0.0273\nsamples = 0.9%\nvalue = [0.0138, 0.9862]", fillcolor="#3c9ee5"] ;
146 -> 162 ;
163 [label="node #163\natomic_number_wa <= 28.131\ngini = 0.4444\nsamples = 0.0%\nvalue = [0.6667, 0.3333]", fillcolor="#f2c09c"] ;
162 -> 163 ;
164 [label="node #164\ngini = 0.0\nsamples = 0.0%\nvalue = [0.0, 1.0]", fillcolor="#399de5"] ;
163 -> 164 ;
165 [label="node #165\ngini = 0.0\nsamples = 0.0%\nvalue = [1.0, 0.0]", fillcolor="#e58139"] ;
163 -> 165 ;
166 [label="node #166\natomic_number_wad <= 12.5\ngini = 0.0224\nsamples = 0.9%\nvalue = [0.0113, 0.9887]", fillcolor="#3b9ee5"] ;
162 -> 166 ;
167 [label="node #167\natomic_volume_wa <= 11.6637\ngini = 0.1099\nsamples = 0.2%\nvalue = [0.0583, 0.9417]", fillcolor="#45a3e7"] ;
166 -> 167 ;
168 [label="node #168\ngini = 0.0832\nsamples = 0.2%\nvalue = [0.0435, 0.9565]", fillcolor="#42a1e6"] ;
167 -> 168 ;
169 [label="node #169\ngini = 0.48\nsamples = 0.0%\nvalue = [0.4, 0.6]", fillcolor="#bddef6"] ;
167 -> 169 ;
170 [label="node #170\nrel_stoich_wad <= 1.0225\ngini = 0.0059\nsamples = 0.8%\nvalue = [0.003, 0.997]", fillcolor="#3a9de5"] ;
166 -> 170 ;
171 [label="node #171\ngini = 0.0\nsamples = 0.7%\nvalue = [0.0, 1.0]", fillcolor="#399de5"] ;
170 -> 171 ;
172 [label="node #172\ngini = 0.1023\nsamples = 0.0%\nvalue = [0.0541, 0.9459]", fillcolor="#44a3e6"] ;
170 -> 172 ;
173 [label="node #173\natomic_number_wa <= 17.7381\ngini = 0.3585\nsamples = 0.7%\nvalue = [0.234, 0.766]", fillcolor="#75bbed"] ;
145 -> 173 ;
174 [label="node #174\natomic_volume_wad <= 10.2971\ngini = 0.2311\nsamples = 0.0%\nvalue = [0.8667, 0.1333]", fillcolor="#e99457"] ;
173 -> 174 ;
175 [label="node #175\ngini = 0.2778\nsamples = 0.0%\nvalue = [0.8333, 0.1667]", fillcolor="#ea9a61"] ;
174 -> 175 ;
176 [label="node #176\ngini = 0.0\nsamples = 0.0%\nvalue = [1.0, 0.0]", fillcolor="#e58139"] ;
174 -> 176 ;
177 [label="node #177\nrel_stoich_wad <= 0.4634\ngini = 0.3399\nsamples = 0.7%\nvalue = [0.2171, 0.7829]", fillcolor="#70b8ec"] ;
173 -> 177 ;
178 [label="node #178\natomic_ionization_potential_wa <= 8.2988\ngini = 0.4324\nsamples = 0.4%\nvalue = [0.3161, 0.6839]", fillcolor="#95caf1"] ;
177 -> 178 ;
179 [label="node #179\natomic_volume_wa <= 13.1808\ngini = 0.029\nsamples = 0.1%\nvalue = [0.0147, 0.9853]", fillcolor="#3c9ee5"] ;
178 -> 179 ;
180 [label="node #180\ngini = 0.0\nsamples = 0.1%\nvalue = [0.0, 1.0]", fillcolor="#399de5"] ;
179 -> 180 ;
181 [label="node #181\ngini = 0.0\nsamples = 0.0%\nvalue = [1.0, 0.0]", fillcolor="#e58139"] ;
179 -> 181 ;
182 [label="node #182\natomic_number_wa <= 19.7895\ngini = 0.4803\nsamples = 0.3%\nvalue = [0.4008, 0.5992]", fillcolor="#bddff6"] ;
178 -> 182 ;
183 [label="node #183\ngini = 0.0907\nsamples = 0.0%\nvalue = [0.0476, 0.9524]", fillcolor="#43a2e6"] ;
182 -> 183 ;
184 [label="node #184\ngini = 0.4988\nsamples = 0.2%\nvalue = [0.475, 0.525]", fillcolor="#ecf6fd"] ;
182 -> 184 ;
185 [label="node #185\nrel_stoich_wa <= 0.3437\ngini = 0.1723\nsamples = 0.3%\nvalue = [0.0952, 0.9048]", fillcolor="#4ea7e8"] ;
177 -> 185 ;
186 [label="node #186\natomic_r_covalent_wa <= 1.2283\ngini = 0.4922\nsamples = 0.0%\nvalue = [0.4375, 0.5625]", fillcolor="#d3e9f9"] ;
185 -> 186 ;
187 [label="node #187\ngini = 0.2188\nsamples = 0.0%\nvalue = [0.875, 0.125]", fillcolor="#e99355"] ;
186 -> 187 ;
188 [label="node #188\ngini = 0.0\nsamples = 0.0%\nvalue = [0.0, 1.0]", fillcolor="#399de5"] ;
186 -> 188 ;
189 [label="node #189\natomic_pauling_electronegativity_wa <= 2.0359\ngini = 0.1337\nsamples = 0.3%\nvalue = [0.072, 0.928]", fillcolor="#48a5e7"] ;
185 -> 189 ;
190 [label="node #190\ngini = 0.0\nsamples = 0.0%\nvalue = [1.0, 0.0]", fillcolor="#e58139"] ;
189 -> 190 ;
191 [label="node #191\ngini = 0.12\nsamples = 0.3%\nvalue = [0.0641, 0.9359]", fillcolor="#47a4e7"] ;
189 -> 191 ;
192 [label="node #192\natomic_volume_wa <= 15.3288\ngini = 0.4996\nsamples = 2.4%\nvalue = [0.514, 0.486]", fillcolor="#fef8f4"] ;
138 -> 192 ;
193 [label="node #193\natomic_r_covalent_wa <= 1.289\ngini = 0.4821\nsamples = 1.4%\nvalue = [0.4055, 0.5945]", fillcolor="#c0e0f7"] ;
192 -> 193 ;
194 [label="node #194\nrel_stoich_wa <= 0.4477\ngini = 0.4593\nsamples = 0.4%\nvalue = [0.6427, 0.3573]", fillcolor="#f3c7a7"] ;
193 -> 194 ;
195 [label="node #195\natomic_volume_wad <= 15.5917\ngini = 0.359\nsamples = 0.3%\nvalue = [0.7655, 0.2345]", fillcolor="#eda876"] ;
194 -> 195 ;
196 [label="node #196\natomic_ionization_potential_wad <= 6.9588\ngini = 0.3138\nsamples = 0.3%\nvalue = [0.8051, 0.1949]", fillcolor="#eb9f69"] ;
195 -> 196 ;
197 [label="node #197\natomic_pauling_electronegativity_wad <= 1.1291\ngini = 0.2988\nsamples = 0.3%\nvalue = [0.8172, 0.1828]", fillcolor="#eb9d65"] ;
196 -> 197 ;
198 [label="node #198\ngini = 0.1172\nsamples = 0.1%\nvalue = [0.9375, 0.0625]", fillcolor="#e78946"] ;
197 -> 198 ;
199 [label="node #199\ngini = 0.375\nsamples = 0.2%\nvalue = [0.75, 0.25]", fillcolor="#eeab7b"] ;
197 -> 199 ;
200 [label="node #200\ngini = 0.0\nsamples = 0.0%\nvalue = [0.0, 1.0]", fillcolor="#399de5"] ;
196 -> 200 ;
201 [label="node #201\natomic_ionization_potential_wad <= 5.0312\ngini = 0.2778\nsamples = 0.0%\nvalue = [0.1667, 0.8333]", fillcolor="#61b1ea"] ;
195 -> 201 ;
202 [label="node #202\ngini = 0.0\nsamples = 0.0%\nvalue = [0.0, 1.0]", fillcolor="#399de5"] ;
201 -> 202 ;
203 [label="node #203\natomic_volume_wa <= 13.5744\ngini = 0.375\nsamples = 0.0%\nvalue = [0.75, 0.25]", fillcolor="#eeab7b"] ;
201 -> 203 ;
204 [label="node #204\ngini = 0.0\nsamples = 0.0%\nvalue = [0.0, 1.0]", fillcolor="#399de5"] ;
203 -> 204 ;
205 [label="node #205\ngini = 0.0\nsamples = 0.0%\nvalue = [1.0, 0.0]", fillcolor="#e58139"] ;
203 -> 205 ;
206 [label="node #206\natomic_volume_wad <= 4.66\ngini = 0.4057\nsamples = 0.1%\nvalue = [0.2828, 0.7172]", fillcolor="#87c4ef"] ;
194 -> 206 ;
207 [label="node #207\ngini = 0.0\nsamples = 0.0%\nvalue = [1.0, 0.0]", fillcolor="#e58139"] ;
206 -> 207 ;
208 [label="node #208\natomic_ionization_potential_wa <= 8.9776\ngini = 0.2323\nsamples = 0.1%\nvalue = [0.1341, 0.8659]", fillcolor="#58ace9"] ;
206 -> 208 ;
209 [label="node #209\natomic_number_wa <= 32.3262\ngini = 0.4709\nsamples = 0.0%\nvalue = [0.3793, 0.6207]", fillcolor="#b2d9f5"] ;
208 -> 209 ;
210 [label="node #210\ngini = 0.375\nsamples = 0.0%\nvalue = [0.25, 0.75]", fillcolor="#7bbeee"] ;
209 -> 210 ;
211 [label="node #211\ngini = 0.0\nsamples = 0.0%\nvalue = [1.0, 0.0]", fillcolor="#e58139"] ;
209 -> 211 ;
212 [label="node #212\ngini = 0.0\nsamples = 0.1%\nvalue = [0.0, 1.0]", fillcolor="#399de5"] ;
208 -> 212 ;
213 [label="node #213\natomic_pauling_electronegativity_wa <= 2.4183\ngini = 0.4145\nsamples = 1.0%\nvalue = [0.2932, 0.7068]", fillcolor="#8bc6f0"] ;
193 -> 213 ;
214 [label="node #214\nrel_stoich_wa <= 0.4407\ngini = 0.3865\nsamples = 0.9%\nvalue = [0.2618, 0.7382]", fillcolor="#7fc0ee"] ;
213 -> 214 ;
215 [label="node #215\natomic_number_wad <= 62.4583\ngini = 0.4376\nsamples = 0.7%\nvalue = [0.3233, 0.6767]", fillcolor="#98ccf1"] ;
214 -> 215 ;
216 [label="node #216\natomic_number_wa <= 52.1429\ngini = 0.497\nsamples = 0.3%\nvalue = [0.4612, 0.5388]", fillcolor="#e2f1fb"] ;
215 -> 216 ;
217 [label="node #217\ngini = 0.4983\nsamples = 0.2%\nvalue = [0.5288, 0.4712]", fillcolor="#fcf1e9"] ;
216 -> 217 ;
218 [label="node #218\ngini = 0.149\nsamples = 0.1%\nvalue = [0.0811, 0.9189]", fillcolor="#4aa6e7"] ;
216 -> 218 ;
219 [label="node #219\natomic_ionization_potential_wad <= 5.1115\ngini = 0.341\nsamples = 0.4%\nvalue = [0.2181, 0.7819]", fillcolor="#70b8ec"] ;
215 -> 219 ;
220 [label="node #220\ngini = 0.2112\nsamples = 0.2%\nvalue = [0.12, 0.88]", fillcolor="#54aae9"] ;
219 -> 220 ;
221 [label="node #221\ngini = 0.446\nsamples = 0.2%\nvalue = [0.3356, 0.6644]", fillcolor="#9dcff2"] ;
219 -> 221 ;
222 [label="node #222\natomic_volume_wa <= 13.2193\ngini = 0.1865\nsamples = 0.3%\nvalue = [0.1041, 0.8959]", fillcolor="#50a8e8"] ;
214 -> 222 ;
223 [label="node #223\ngini = 0.0\nsamples = 0.0%\nvalue = [1.0, 0.0]", fillcolor="#e58139"] ;
222 -> 223 ;
224 [label="node #224\natomic_pauling_electronegativity_wa <= 2.112\ngini = 0.1734\nsamples = 0.3%\nvalue = [0.0959, 0.9041]", fillcolor="#4ea7e8"] ;
222 -> 224 ;
225 [label="node #225\ngini = 0.4082\nsamples = 0.0%\nvalue = [0.2857, 0.7143]", fillcolor="#88c4ef"] ;
224 -> 225 ;
226 [label="node #226\ngini = 0.1124\nsamples = 0.2%\nvalue = [0.0598, 0.9402]", fillcolor="#46a3e7"] ;
224 -> 226 ;
227 [label="node #227\ngini = 0.0\nsamples = 0.0%\nvalue = [1.0, 0.0]", fillcolor="#e58139"] ;
213 -> 227 ;
228 [label="node #228\natomic_ionization_potential_wad <= 1.8596\ngini = 0.4354\nsamples = 0.9%\nvalue = [0.6797, 0.3203]", fillcolor="#f1bc96"] ;
192 -> 228 ;
229 [label="node #229\natomic_r_covalent_wad <= 0.2253\ngini = 0.2868\nsamples = 0.1%\nvalue = [0.1735, 0.8265]", fillcolor="#63b2ea"] ;
228 -> 229 ;
230 [label="node #230\natomic_pauling_electronegativity_wa <= 2.0464\ngini = 0.2248\nsamples = 0.1%\nvalue = [0.129, 0.871]", fillcolor="#56ace9"] ;
229 -> 230 ;
231 [label="node #231\natomic_r_covalent_wad <= 0.135\ngini = 0.2778\nsamples = 0.0%\nvalue = [0.8333, 0.1667]", fillcolor="#ea9a61"] ;
230 -> 231 ;
232 [label="node #232\ngini = 0.0\nsamples = 0.0%\nvalue = [1.0, 0.0]", fillcolor="#e58139"] ;
231 -> 232 ;
233 [label="node #233\ngini = 0.5\nsamples = 0.0%\nvalue = [0.5, 0.5]", fillcolor="#ffffff"] ;
231 -> 233 ;
234 [label="node #234\natomic_pauling_electronegativity_wad <= 0.6943\ngini = 0.148\nsamples = 0.1%\nvalue = [0.0805, 0.9195]", fillcolor="#4aa6e7"] ;
230 -> 234 ;
235 [label="node #235\natomic_pauling_electronegativity_wad <= 0.16\ngini = 0.1298\nsamples = 0.1%\nvalue = [0.0698, 0.9302]", fillcolor="#48a4e7"] ;
234 -> 235 ;
236 [label="node #236\ngini = 0.32\nsamples = 0.0%\nvalue = [0.2, 0.8]", fillcolor="#6ab6ec"] ;
235 -> 236 ;
237 [label="node #237\ngini = 0.0\nsamples = 0.1%\nvalue = [0.0, 1.0]", fillcolor="#399de5"] ;
235 -> 237 ;
238 [label="node #238\ngini = 0.0\nsamples = 0.0%\nvalue = [1.0, 0.0]", fillcolor="#e58139"] ;
234 -> 238 ;
239 [label="node #239\ngini = 0.0\nsamples = 0.0%\nvalue = [1.0, 0.0]", fillcolor="#e58139"] ;
229 -> 239 ;
240 [label="node #240\natomic_number_wa <= 68.2647\ngini = 0.3739\nsamples = 0.8%\nvalue = [0.7511, 0.2489]", fillcolor="#eeab7b"] ;
228 -> 240 ;
241 [label="node #241\nrel_stoich_wa <= 0.5286\ngini = 0.3462\nsamples = 0.8%\nvalue = [0.7773, 0.2227]", fillcolor="#eca572"] ;
240 -> 241 ;
242 [label="node #242\natomic_pauling_electronegativity_wad <= 0.1581\ngini = 0.2692\nsamples = 0.7%\nvalue = [0.8397, 0.1603]", fillcolor="#ea995f"] ;
241 -> 242 ;
243 [label="node #243\ngini = 0.0\nsamples = 0.0%\nvalue = [0.0, 1.0]", fillcolor="#399de5"] ;
242 -> 243 ;
244 [label="node #244\natomic_r_covalent_wad <= 0.6139\ngini = 0.2564\nsamples = 0.7%\nvalue = [0.849, 0.151]", fillcolor="#ea975c"] ;
242 -> 244 ;
245 [label="node #245\ngini = 0.1613\nsamples = 0.4%\nvalue = [0.9115, 0.0885]", fillcolor="#e88d4c"] ;
244 -> 245 ;
246 [label="node #246\ngini = 0.4103\nsamples = 0.2%\nvalue = [0.7118, 0.2882]", fillcolor="#f0b489"] ;
244 -> 246 ;
247 [label="node #247\natomic_pauling_electronegativity_wa <= 2.0662\ngini = 0.4999\nsamples = 0.1%\nvalue = [0.4917, 0.5083]", fillcolor="#f9fcfe"] ;
241 -> 247 ;
248 [label="node #248\ngini = 0.0\nsamples = 0.0%\nvalue = [0.0, 1.0]", fillcolor="#399de5"] ;
247 -> 248 ;
249 [label="node #249\natomic_number_wa <= 42.1667\ngini = 0.4909\nsamples = 0.1%\nvalue = [0.5673, 0.4327]", fillcolor="#f9e1d0"] ;
247 -> 249 ;
250 [label="node #250\ngini = 0.4137\nsamples = 0.1%\nvalue = [0.7077, 0.2923]", fillcolor="#f0b58b"] ;
249 -> 250 ;
251 [label="node #251\ngini = 0.4444\nsamples = 0.0%\nvalue = [0.3333, 0.6667]", fillcolor="#9ccef2"] ;
249 -> 251 ;
252 [label="node #252\natomic_pauling_electronegativity_wad <= 0.24\ngini = 0.142\nsamples = 0.0%\nvalue = [0.0769, 0.9231]", fillcolor="#49a5e7"] ;
240 -> 252 ;
253 [label="node #253\ngini = 0.0\nsamples = 0.0%\nvalue = [1.0, 0.0]", fillcolor="#e58139"] ;
252 -> 253 ;
254 [label="node #254\natomic_pauling_electronegativity_wa <= 2.2359\ngini = 0.0768\nsamples = 0.0%\nvalue = [0.04, 0.96]", fillcolor="#41a1e6"] ;
252 -> 254 ;
255 [label="node #255\ngini = 0.0\nsamples = 0.0%\nvalue = [0.0, 1.0]", fillcolor="#399de5"] ;
254 -> 255 ;
256 [label="node #256\ngini = 0.0\nsamples = 0.0%\nvalue = [1.0, 0.0]", fillcolor="#e58139"] ;
254 -> 256 ;
257 [label="node #257\natomic_pauling_electronegativity_wa <= 2.0834\ngini = 0.4207\nsamples = 4.1%\nvalue = [0.6991, 0.3009]", fillcolor="#f0b78e"] ;
1 -> 257 ;
258 [label="node #258\natomic_r_covalent_wa <= 0.7044\ngini = 0.472\nsamples = 0.8%\nvalue = [0.3818, 0.6182]", fillcolor="#b3daf5"] ;
257 -> 258 ;
259 [label="node #259\natomic_ionization_potential_wad <= 7.556\ngini = 0.2803\nsamples = 0.1%\nvalue = [0.8315, 0.1685]", fillcolor="#ea9b61"] ;
258 -> 259 ;
260 [label="node #260\nrel_stoich_wa <= 0.5903\ngini = 0.355\nsamples = 0.0%\nvalue = [0.2308, 0.7692]", fillcolor="#74baed"] ;
259 -> 260 ;
261 [label="node #261\ngini = 0.375\nsamples = 0.0%\nvalue = [0.75, 0.25]", fillcolor="#eeab7b"] ;
260 -> 261 ;
262 [label="node #262\ngini = 0.0\nsamples = 0.0%\nvalue = [0.0, 1.0]", fillcolor="#399de5"] ;
260 -> 262 ;
263 [label="node #263\natomic_volume_wad <= 4.859\ngini = 0.1229\nsamples = 0.1%\nvalue = [0.9342, 0.0658]", fillcolor="#e78a47"] ;
259 -> 263 ;
264 [label="node #264\natomic_volume_wa <= 11.9127\ngini = 0.4628\nsamples = 0.0%\nvalue = [0.6364, 0.3636]", fillcolor="#f4c9aa"] ;
263 -> 264 ;
265 [label="node #265\ngini = 0.0\nsamples = 0.0%\nvalue = [1.0, 0.0]", fillcolor="#e58139"] ;
264 -> 265 ;
266 [label="node #266\ngini = 0.0\nsamples = 0.0%\nvalue = [0.0, 1.0]", fillcolor="#399de5"] ;
264 -> 266 ;
267 [label="node #267\natomic_pauling_electronegativity_wa <= 2.0714\ngini = 0.0303\nsamples = 0.1%\nvalue = [0.9846, 0.0154]", fillcolor="#e5833c"] ;
263 -> 267 ;
268 [label="node #268\ngini = 0.0\nsamples = 0.1%\nvalue = [1.0, 0.0]", fillcolor="#e58139"] ;
267 -> 268 ;
269 [label="node #269\natomic_pauling_electronegativity_wa <= 2.0777\ngini = 0.375\nsamples = 0.0%\nvalue = [0.75, 0.25]", fillcolor="#eeab7b"] ;
267 -> 269 ;
270 [label="node #270\ngini = 0.0\nsamples = 0.0%\nvalue = [0.0, 1.0]", fillcolor="#399de5"] ;
269 -> 270 ;
271 [label="node #271\ngini = 0.0\nsamples = 0.0%\nvalue = [1.0, 0.0]", fillcolor="#e58139"] ;
269 -> 271 ;
272 [label="node #272\natomic_volume_wa <= 14.0889\ngini = 0.4278\nsamples = 0.7%\nvalue = [0.31, 0.69]", fillcolor="#92c9f1"] ;
258 -> 272 ;
273 [label="node #273\natomic_number_wad <= 19.6154\ngini = 0.2771\nsamples = 0.4%\nvalue = [0.1662, 0.8338]", fillcolor="#60b1ea"] ;
272 -> 273 ;
274 [label="node #274\natomic_ionization_potential_wa <= 9.3588\ngini = 0.4661\nsamples = 0.1%\nvalue = [0.3699, 0.6301]", fillcolor="#add7f4"] ;
273 -> 274 ;
275 [label="node #275\nrel_stoich_wa <= 0.3819\ngini = 0.0973\nsamples = 0.0%\nvalue = [0.0513, 0.9487]", fillcolor="#44a2e6"] ;
274 -> 275 ;
276 [label="node #276\ngini = 0.0\nsamples = 0.0%\nvalue = [1.0, 0.0]", fillcolor="#e58139"] ;
275 -> 276 ;
277 [label="node #277\ngini = 0.0\nsamples = 0.0%\nvalue = [0.0, 1.0]", fillcolor="#399de5"] ;
275 -> 277 ;
278 [label="node #278\natomic_r_covalent_wa <= 1.1617\ngini = 0.3893\nsamples = 0.0%\nvalue = [0.7353, 0.2647]", fillcolor="#eeae80"] ;
274 -> 278 ;
279 [label="node #279\ngini = 0.0\nsamples = 0.0%\nvalue = [1.0, 0.0]", fillcolor="#e58139"] ;
278 -> 279 ;
280 [label="node #280\natomic_r_covalent_wad <= 0.285\ngini = 0.426\nsamples = 0.0%\nvalue = [0.3077, 0.6923]", fillcolor="#91c9f1"] ;
278 -> 280 ;
281 [label="node #281\natomic_pauling_electronegativity_wa <= 1.9393\ngini = 0.4938\nsamples = 0.0%\nvalue = [0.4444, 0.5556]", fillcolor="#d7ebfa"] ;
280 -> 281 ;
282 [label="node #282\ngini = 0.4688\nsamples = 0.0%\nvalue = [0.375, 0.625]", fillcolor="#b0d8f5"] ;
281 -> 282 ;
283 [label="node #283\ngini = 0.0\nsamples = 0.0%\nvalue = [1.0, 0.0]", fillcolor="#e58139"] ;
281 -> 283 ;
284 [label="node #284\ngini = 0.0\nsamples = 0.0%\nvalue = [0.0, 1.0]", fillcolor="#399de5"] ;
280 -> 284 ;
285 [label="node #285\natomic_r_covalent_wa <= 0.7842\ngini = 0.1956\nsamples = 0.3%\nvalue = [0.1098, 0.8902]", fillcolor="#51a9e8"] ;
273 -> 285 ;
286 [label="node #286\natomic_volume_wa <= 11.4648\ngini = 0.4357\nsamples = 0.1%\nvalue = [0.3208, 0.6792]", fillcolor="#96cbf1"] ;
285 -> 286 ;
287 [label="node #287\ngini = 0.0\nsamples = 0.0%\nvalue = [0.0, 1.0]", fillcolor="#399de5"] ;
286 -> 287 ;
288 [label="node #288\nrel_stoich_wa <= 0.5231\ngini = 0.4985\nsamples = 0.0%\nvalue = [0.4722, 0.5278]", fillcolor="#eaf5fc"] ;
286 -> 288 ;
289 [label="node #289\natomic_volume_wa <= 11.58\ngini = 0.2975\nsamples = 0.0%\nvalue = [0.8182, 0.1818]", fillcolor="#eb9d65"] ;
288 -> 289 ;
290 [label="node #290\ngini = 0.4444\nsamples = 0.0%\nvalue = [0.3333, 0.6667]", fillcolor="#9ccef2"] ;
289 -> 290 ;
291 [label="node #291\ngini = 0.0\nsamples = 0.0%\nvalue = [1.0, 0.0]", fillcolor="#e58139"] ;
289 -> 291 ;
292 [label="node #292\natomic_r_covalent_wad <= 1.725\ngini = 0.4352\nsamples = 0.0%\nvalue = [0.32, 0.68]", fillcolor="#96cbf1"] ;
288 -> 292 ;
293 [label="node #293\ngini = 0.4875\nsamples = 0.0%\nvalue = [0.4211, 0.5789]", fillcolor="#c9e4f8"] ;
292 -> 293 ;
294 [label="node #294\ngini = 0.0\nsamples = 0.0%\nvalue = [0.0, 1.0]", fillcolor="#399de5"] ;
292 -> 294 ;
295 [label="node #295\natomic_number_wad <= 46.5\ngini = 0.1073\nsamples = 0.2%\nvalue = [0.0569, 0.9431]", fillcolor="#45a3e7"] ;
285 -> 295 ;
296 [label="node #296\natomic_volume_wad <= 8.57\ngini = 0.3018\nsamples = 0.1%\nvalue = [0.1852, 0.8148]", fillcolor="#66b3eb"] ;
295 -> 296 ;
297 [label="node #297\natomic_number_wad <= 45.0\ngini = 0.0907\nsamples = 0.1%\nvalue = [0.0476, 0.9524]", fillcolor="#43a2e6"] ;
296 -> 297 ;
298 [label="node #298\ngini = 0.0476\nsamples = 0.1%\nvalue = [0.0244, 0.9756]", fillcolor="#3e9fe6"] ;
297 -> 298 ;
299 [label="node #299\ngini = 0.0\nsamples = 0.0%\nvalue = [1.0, 0.0]", fillcolor="#e58139"] ;
297 -> 299 ;
300 [label="node #300\natomic_volume_wa <= 10.6152\ngini = 0.4444\nsamples = 0.0%\nvalue = [0.6667, 0.3333]", fillcolor="#f2c09c"] ;
296 -> 300 ;
301 [label="node #301\ngini = 0.4444\nsamples = 0.0%\nvalue = [0.3333, 0.6667]", fillcolor="#9ccef2"] ;
300 -> 301 ;
302 [label="node #302\ngini = 0.0\nsamples = 0.0%\nvalue = [1.0, 0.0]", fillcolor="#e58139"] ;
300 -> 302 ;
303 [label="node #303\nrel_stoich_wad <= 1.1994\ngini = 0.0252\nsamples = 0.2%\nvalue = [0.0127, 0.9873]", fillcolor="#3c9ee5"] ;
295 -> 303 ;
304 [label="node #304\nrel_stoich_wa <= 0.3775\ngini = 0.0128\nsamples = 0.2%\nvalue = [0.0065, 0.9935]", fillcolor="#3a9ee5"] ;
303 -> 304 ;
305 [label="node #305\ngini = 0.0907\nsamples = 0.0%\nvalue = [0.0476, 0.9524]", fillcolor="#43a2e6"] ;
304 -> 305 ;
306 [label="node #306\ngini = 0.0\nsamples = 0.1%\nvalue = [0.0, 1.0]", fillcolor="#399de5"] ;
304 -> 306 ;
307 [label="node #307\natomic_pauling_electronegativity_wad <= 1.1993\ngini = 0.5\nsamples = 0.0%\nvalue = [0.5, 0.5]", fillcolor="#ffffff"] ;
303 -> 307 ;
308 [label="node #308\ngini = 0.0\nsamples = 0.0%\nvalue = [0.0, 1.0]", fillcolor="#399de5"] ;
307 -> 308 ;
309 [label="node #309\ngini = 0.0\nsamples = 0.0%\nvalue = [1.0, 0.0]", fillcolor="#e58139"] ;
307 -> 309 ;
310 [label="node #310\natomic_number_wa <= 63.569\ngini = 0.4983\nsamples = 0.3%\nvalue = [0.5294, 0.4706]", fillcolor="#fcf1e9"] ;
272 -> 310 ;
311 [label="node #311\natomic_number_wad <= 51.25\ngini = 0.4037\nsamples = 0.2%\nvalue = [0.7194, 0.2806]", fillcolor="#efb286"] ;
310 -> 311 ;
312 [label="node #312\natomic_pauling_electronegativity_wad <= 1.4989\ngini = 0.2495\nsamples = 0.1%\nvalue = [0.8539, 0.1461]", fillcolor="#e9975b"] ;
311 -> 312 ;
313 [label="node #313\natomic_ionization_potential_wa <= 9.2788\ngini = 0.2209\nsamples = 0.1%\nvalue = [0.8736, 0.1264]", fillcolor="#e99356"] ;
312 -> 313 ;
314 [label="node #314\natomic_ionization_potential_wa <= 9.2066\ngini = 0.4938\nsamples = 0.0%\nvalue = [0.5556, 0.4444]", fillcolor="#fae6d7"] ;
313 -> 314 ;
315 [label="node #315\ngini = 0.0\nsamples = 0.0%\nvalue = [1.0, 0.0]", fillcolor="#e58139"] ;
314 -> 315 ;
316 [label="node #316\ngini = 0.0\nsamples = 0.0%\nvalue = [0.0, 1.0]", fillcolor="#399de5"] ;
314 -> 316 ;
317 [label="node #317\nrel_stoich_wad <= 1.0509\ngini = 0.1634\nsamples = 0.1%\nvalue = [0.9103, 0.0897]", fillcolor="#e88d4d"] ;
313 -> 317 ;
318 [label="node #318\ngini = 0.1437\nsamples = 0.1%\nvalue = [0.9221, 0.0779]", fillcolor="#e78c4a"] ;
317 -> 318 ;
319 [label="node #319\ngini = 0.0\nsamples = 0.0%\nvalue = [0.0, 1.0]", fillcolor="#399de5"] ;
317 -> 319 ;
320 [label="node #320\ngini = 0.0\nsamples = 0.0%\nvalue = [0.0, 1.0]", fillcolor="#399de5"] ;
312 -> 320 ;
321 [label="node #321\natomic_pauling_electronegativity_wad <= 1.2726\ngini = 0.4992\nsamples = 0.1%\nvalue = [0.48, 0.52]", fillcolor="#f0f7fd"] ;
311 -> 321 ;
322 [label="node #322\natomic_pauling_electronegativity_wad <= 0.4763\ngini = 0.455\nsamples = 0.1%\nvalue = [0.35, 0.65]", fillcolor="#a4d2f3"] ;
321 -> 322 ;
323 [label="node #323\ngini = 0.0\nsamples = 0.0%\nvalue = [1.0, 0.0]", fillcolor="#e58139"] ;
322 -> 323 ;
324 [label="node #324\natomic_number_wad <= 86.8\ngini = 0.382\nsamples = 0.0%\nvalue = [0.2571, 0.7429]", fillcolor="#7ebfee"] ;
322 -> 324 ;
325 [label="node #325\ngini = 0.3047\nsamples = 0.0%\nvalue = [0.1875, 0.8125]", fillcolor="#67b4eb"] ;
324 -> 325 ;
326 [label="node #326\ngini = 0.0\nsamples = 0.0%\nvalue = [1.0, 0.0]", fillcolor="#e58139"] ;
324 -> 326 ;
327 [label="node #327\ngini = 0.0\nsamples = 0.0%\nvalue = [1.0, 0.0]", fillcolor="#e58139"] ;
321 -> 327 ;
328 [label="node #328\nrel_stoich_wad <= 1.1258\ngini = 0.3287\nsamples = 0.1%\nvalue = [0.2073, 0.7927]", fillcolor="#6db7ec"] ;
310 -> 328 ;
329 [label="node #329\nrel_stoich_wad <= 0.25\ngini = 0.2778\nsamples = 0.1%\nvalue = [0.1667, 0.8333]", fillcolor="#61b1ea"] ;
328 -> 329 ;
330 [label="node #330\natomic_pauling_electronegativity_wa <= 2.025\ngini = 0.495\nsamples = 0.0%\nvalue = [0.45, 0.55]", fillcolor="#dbedfa"] ;
329 -> 330 ;
331 [label="node #331\ngini = 0.4875\nsamples = 0.0%\nvalue = [0.4211, 0.5789]", fillcolor="#c9e4f8"] ;
330 -> 331 ;
332 [label="node #332\ngini = 0.0\nsamples = 0.0%\nvalue = [1.0, 0.0]", fillcolor="#e58139"] ;
330 -> 332 ;
333 [label="node #333\nrel_stoich_wa <= 0.6732\ngini = 0.1284\nsamples = 0.1%\nvalue = [0.069, 0.931]", fillcolor="#48a4e7"] ;
329 -> 333 ;
334 [label="node #334\ngini = 0.0\nsamples = 0.0%\nvalue = [0.0, 1.0]", fillcolor="#399de5"] ;
333 -> 334 ;
335 [label="node #335\natomic_r_covalent_wa <= 1.4351\ngini = 0.3324\nsamples = 0.0%\nvalue = [0.2105, 0.7895]", fillcolor="#6eb7ec"] ;
333 -> 335 ;
336 [label="node #336\ngini = 0.0\nsamples = 0.0%\nvalue = [0.0, 1.0]", fillcolor="#399de5"] ;
335 -> 336 ;
337 [label="node #337\ngini = 0.32\nsamples = 0.0%\nvalue = [0.8, 0.2]", fillcolor="#eca06a"] ;
335 -> 337 ;
338 [label="node #338\ngini = 0.0\nsamples = 0.0%\nvalue = [1.0, 0.0]", fillcolor="#e58139"] ;
328 -> 338 ;
339 [label="node #339\natomic_ionization_potential_wa <= 9.5936\ngini = 0.353\nsamples = 3.4%\nvalue = [0.7711, 0.2289]", fillcolor="#eda674"] ;
257 -> 339 ;
340 [label="node #340\natomic_volume_wa <= 12.6517\ngini = 0.4821\nsamples = 1.0%\nvalue = [0.5947, 0.4053]", fillcolor="#f7d7c0"] ;
339 -> 340 ;
341 [label="node #341\natomic_r_covalent_wa <= 1.0863\ngini = 0.307\nsamples = 0.2%\nvalue = [0.1893, 0.8107]", fillcolor="#67b4eb"] ;
340 -> 341 ;
342 [label="node #342\ngini = 0.0\nsamples = 0.0%\nvalue = [1.0, 0.0]", fillcolor="#e58139"] ;
341 -> 342 ;
343 [label="node #343\natomic_volume_wa <= 11.41\ngini = 0.2681\nsamples = 0.2%\nvalue = [0.1595, 0.8405]", fillcolor="#5fb0ea"] ;
341 -> 343 ;
344 [label="node #344\ngini = 0.0\nsamples = 0.1%\nvalue = [0.0, 1.0]", fillcolor="#399de5"] ;
343 -> 344 ;
345 [label="node #345\natomic_number_wa <= 23.485\ngini = 0.3543\nsamples = 0.1%\nvalue = [0.2301, 0.7699]", fillcolor="#74baed"] ;
343 -> 345 ;
346 [label="node #346\nrel_stoich_wad <= 0.127\ngini = 0.1483\nsamples = 0.1%\nvalue = [0.0806, 0.9194]", fillcolor="#4aa6e7"] ;
345 -> 346 ;
347 [label="node #347\natomic_number_wa <= 20.5556\ngini = 0.48\nsamples = 0.0%\nvalue = [0.4, 0.6]", fillcolor="#bddef6"] ;
346 -> 347 ;
348 [label="node #348\ngini = 0.0\nsamples = 0.0%\nvalue = [1.0, 0.0]", fillcolor="#e58139"] ;
347 -> 348 ;
349 [label="node #349\ngini = 0.0\nsamples = 0.0%\nvalue = [0.0, 1.0]", fillcolor="#399de5"] ;
347 -> 349 ;
350 [label="node #350\natomic_r_covalent_wad <= 0.2\ngini = 0.0997\nsamples = 0.1%\nvalue = [0.0526, 0.9474]", fillcolor="#44a2e6"] ;
346 -> 350 ;
351 [label="node #351\ngini = 0.375\nsamples = 0.0%\nvalue = [0.25, 0.75]", fillcolor="#7bbeee"] ;
350 -> 351 ;
352 [label="node #352\ngini = 0.0726\nsamples = 0.1%\nvalue = [0.0377, 0.9623]", fillcolor="#41a1e6"] ;
350 -> 352 ;
353 [label="node #353\natomic_number_wa <= 31.55\ngini = 0.4844\nsamples = 0.1%\nvalue = [0.4118, 0.5882]", fillcolor="#c4e2f7"] ;
345 -> 353 ;
354 [label="node #354\natomic_ionization_potential_wa <= 9.1966\ngini = 0.4537\nsamples = 0.0%\nvalue = [0.6522, 0.3478]", fillcolor="#f3c4a3"] ;
353 -> 354 ;
355 [label="node #355\ngini = 0.0\nsamples = 0.0%\nvalue = [0.0, 1.0]", fillcolor="#399de5"] ;
354 -> 355 ;
356 [label="node #356\ngini = 0.2778\nsamples = 0.0%\nvalue = [0.8333, 0.1667]", fillcolor="#ea9a61"] ;
354 -> 356 ;
357 [label="node #357\natomic_volume_wa <= 11.5417\ngini = 0.3367\nsamples = 0.0%\nvalue = [0.2143, 0.7857]", fillcolor="#6fb8ec"] ;
353 -> 357 ;
358 [label="node #358\ngini = 0.0\nsamples = 0.0%\nvalue = [1.0, 0.0]", fillcolor="#e58139"] ;
357 -> 358 ;
359 [label="node #359\ngini = 0.2112\nsamples = 0.0%\nvalue = [0.12, 0.88]", fillcolor="#54aae9"] ;
357 -> 359 ;
360 [label="node #360\nrel_stoich_wa <= 0.4423\ngini = 0.4155\nsamples = 0.8%\nvalue = [0.7055, 0.2945]", fillcolor="#f0b68c"] ;
340 -> 360 ;
361 [label="node #361\natomic_r_covalent_wad <= 0.9117\ngini = 0.2898\nsamples = 0.4%\nvalue = [0.8242, 0.1758]", fillcolor="#eb9c63"] ;
360 -> 361 ;
362 [label="node #362\natomic_pauling_electronegativity_wa <= 2.4308\ngini = 0.2353\nsamples = 0.4%\nvalue = [0.8638, 0.1362]", fillcolor="#e99558"] ;
361 -> 362 ;
363 [label="node #363\natomic_r_covalent_wad <= 0.6918\ngini = 0.2956\nsamples = 0.3%\nvalue = [0.8197, 0.1803]", fillcolor="#eb9d65"] ;
362 -> 363 ;
364 [label="node #364\natomic_pauling_electronegativity_wa <= 2.4233\ngini = 0.1951\nsamples = 0.3%\nvalue = [0.8905, 0.1095]", fillcolor="#e89051"] ;
363 -> 364 ;
365 [label="node #365\ngini = 0.1815\nsamples = 0.3%\nvalue = [0.899, 0.101]", fillcolor="#e88f4f"] ;
364 -> 365 ;
366 [label="node #366\ngini = 0.0\nsamples = 0.0%\nvalue = [0.0, 1.0]", fillcolor="#399de5"] ;
364 -> 366 ;
367 [label="node #367\natomic_ionization_potential_wa <= 9.3236\ngini = 0.4723\nsamples = 0.0%\nvalue = [0.3824, 0.6176]", fillcolor="#b4daf5"] ;
363 -> 367 ;
368 [label="node #368\ngini = 0.0997\nsamples = 0.0%\nvalue = [0.0526, 0.9474]", fillcolor="#44a2e6"] ;
367 -> 368 ;
369 [label="node #369\ngini = 0.32\nsamples = 0.0%\nvalue = [0.8, 0.2]", fillcolor="#eca06a"] ;
367 -> 369 ;
370 [label="node #370\ngini = 0.0\nsamples = 0.1%\nvalue = [1.0, 0.0]", fillcolor="#e58139"] ;
362 -> 370 ;
371 [label="node #371\natomic_volume_wa <= 14.9994\ngini = 0.4132\nsamples = 0.0%\nvalue = [0.2917, 0.7083]", fillcolor="#8bc5f0"] ;
361 -> 371 ;
372 [label="node #372\nrel_stoich_wa <= 0.3403\ngini = 0.1049\nsamples = 0.0%\nvalue = [0.0556, 0.9444]", fillcolor="#45a3e7"] ;
371 -> 372 ;
373 [label="node #373\ngini = 0.1975\nsamples = 0.0%\nvalue = [0.1111, 0.8889]", fillcolor="#52a9e8"] ;
372 -> 373 ;
374 [label="node #374\ngini = 0.0\nsamples = 0.0%\nvalue = [0.0, 1.0]", fillcolor="#399de5"] ;
372 -> 374 ;
375 [label="node #375\ngini = 0.0\nsamples = 0.0%\nvalue = [1.0, 0.0]", fillcolor="#e58139"] ;
371 -> 375 ;
376 [label="node #376\natomic_volume_wa <= 14.74\ngini = 0.4943\nsamples = 0.3%\nvalue = [0.5535, 0.4465]", fillcolor="#fae7d9"] ;
360 -> 376 ;
377 [label="node #377\natomic_pauling_electronegativity_wad <= 0.6908\ngini = 0.4598\nsamples = 0.2%\nvalue = [0.3582, 0.6418]", fillcolor="#a8d4f4"] ;
376 -> 377 ;
378 [label="node #378\natomic_number_wa <= 24.3333\ngini = 0.4218\nsamples = 0.0%\nvalue = [0.6977, 0.3023]", fillcolor="#f0b88f"] ;
377 -> 378 ;
379 [label="node #379\ngini = 0.0\nsamples = 0.0%\nvalue = [0.0, 1.0]", fillcolor="#399de5"] ;
378 -> 379 ;
380 [label="node #380\natomic_r_covalent_wa <= 1.2486\ngini = 0.3068\nsamples = 0.0%\nvalue = [0.8108, 0.1892]", fillcolor="#eb9e67"] ;
378 -> 380 ;
381 [label="node #381\ngini = 0.1284\nsamples = 0.0%\nvalue = [0.931, 0.069]", fillcolor="#e78a48"] ;
380 -> 381 ;
382 [label="node #382\ngini = 0.4688\nsamples = 0.0%\nvalue = [0.375, 0.625]", fillcolor="#b0d8f5"] ;
380 -> 382 ;
383 [label="node #383\natomic_volume_wa <= 12.7967\ngini = 0.3174\nsamples = 0.1%\nvalue = [0.1978, 0.8022]", fillcolor="#6ab5eb"] ;
377 -> 383 ;
384 [label="node #384\nrel_stoich_wad <= 0.7668\ngini = 0.2449\nsamples = 0.0%\nvalue = [0.8571, 0.1429]", fillcolor="#e9965a"] ;
383 -> 384 ;
385 [label="node #385\ngini = 0.0\nsamples = 0.0%\nvalue = [1.0, 0.0]", fillcolor="#e58139"] ;
384 -> 385 ;
386 [label="node #386\ngini = 0.0\nsamples = 0.0%\nvalue = [0.0, 1.0]", fillcolor="#399de5"] ;
384 -> 386 ;
387 [label="node #387\natomic_number_wa <= 43.875\ngini = 0.2449\nsamples = 0.1%\nvalue = [0.1429, 0.8571]", fillcolor="#5aade9"] ;
383 -> 387 ;
388 [label="node #388\ngini = 0.1975\nsamples = 0.1%\nvalue = [0.1111, 0.8889]", fillcolor="#52a9e8"] ;
387 -> 388 ;
389 [label="node #389\ngini = 0.0\nsamples = 0.0%\nvalue = [1.0, 0.0]", fillcolor="#e58139"] ;
387 -> 389 ;
390 [label="node #390\natomic_volume_wad <= 9.5234\ngini = 0.3804\nsamples = 0.2%\nvalue = [0.7445, 0.2555]", fillcolor="#eeac7d"] ;
376 -> 390 ;
391 [label="node #391\natomic_volume_wad <= 1.2771\ngini = 0.1528\nsamples = 0.1%\nvalue = [0.9167, 0.0833]", fillcolor="#e78c4b"] ;
390 -> 391 ;
392 [label="node #392\ngini = 0.0\nsamples = 0.0%\nvalue = [0.0, 1.0]", fillcolor="#399de5"] ;
391 -> 392 ;
393 [label="node #393\natomic_pauling_electronegativity_wad <= 0.155\ngini = 0.0832\nsamples = 0.1%\nvalue = [0.9565, 0.0435]", fillcolor="#e68742"] ;
391 -> 393 ;
394 [label="node #394\ngini = 0.5\nsamples = 0.0%\nvalue = [0.5, 0.5]", fillcolor="#ffffff"] ;
393 -> 394 ;
395 [label="node #395\ngini = 0.0303\nsamples = 0.1%\nvalue = [0.9846, 0.0154]", fillcolor="#e5833c"] ;
393 -> 395 ;
396 [label="node #396\natomic_number_wa <= 44.8392\ngini = 0.4942\nsamples = 0.1%\nvalue = [0.5538, 0.4462]", fillcolor="#fae7d9"] ;
390 -> 396 ;
397 [label="node #397\natomic_r_covalent_wad <= 0.045\ngini = 0.3457\nsamples = 0.0%\nvalue = [0.2222, 0.7778]", fillcolor="#72b9ec"] ;
396 -> 397 ;
398 [label="node #398\ngini = 0.0\nsamples = 0.0%\nvalue = [1.0, 0.0]", fillcolor="#e58139"] ;
397 -> 398 ;
399 [label="node #399\ngini = 0.0868\nsamples = 0.0%\nvalue = [0.0455, 0.9545]", fillcolor="#42a2e6"] ;
397 -> 399 ;
400 [label="node #400\natomic_volume_wa <= 22.4691\ngini = 0.3324\nsamples = 0.0%\nvalue = [0.7895, 0.2105]", fillcolor="#eca36e"] ;
396 -> 400 ;
401 [label="node #401\ngini = 0.1207\nsamples = 0.0%\nvalue = [0.9355, 0.0645]", fillcolor="#e78a47"] ;
400 -> 401 ;
402 [label="node #402\ngini = 0.2449\nsamples = 0.0%\nvalue = [0.1429, 0.8571]", fillcolor="#5aade9"] ;
400 -> 402 ;
403 [label="node #403\natomic_number_wa <= 13.3667\ngini = 0.2711\nsamples = 2.4%\nvalue = [0.8383, 0.1617]", fillcolor="#ea995f"] ;
339 -> 403 ;
404 [label="node #404\nrel_stoich_wa <= 0.6103\ngini = 0.0763\nsamples = 0.7%\nvalue = [0.9603, 0.0397]", fillcolor="#e68641"] ;
403 -> 404 ;
405 [label="node #405\ngini = 0.0\nsamples = 0.5%\nvalue = [1.0, 0.0]", fillcolor="#e58139"] ;
404 -> 405 ;
406 [label="node #406\natomic_number_wad <= 72.0714\ngini = 0.32\nsamples = 0.1%\nvalue = [0.8, 0.2]", fillcolor="#eca06a"] ;
404 -> 406 ;
407 [label="node #407\natomic_pauling_electronegativity_wad <= 0.705\ngini = 0.2604\nsamples = 0.1%\nvalue = [0.8462, 0.1538]", fillcolor="#ea985d"] ;
406 -> 407 ;
408 [label="node #408\natomic_volume_wad <= 5.865\ngini = 0.3356\nsamples = 0.1%\nvalue = [0.7867, 0.2133]", fillcolor="#eca36f"] ;
407 -> 408 ;
409 [label="node #409\nrel_stoich_wad <= 0.812\ngini = 0.31\nsamples = 0.1%\nvalue = [0.8082, 0.1918]", fillcolor="#eb9f68"] ;
408 -> 409 ;
410 [label="node #410\ngini = 0.2959\nsamples = 0.1%\nvalue = [0.8194, 0.1806]", fillcolor="#eb9d65"] ;
409 -> 410 ;
411 [label="node #411\ngini = 0.0\nsamples = 0.0%\nvalue = [0.0, 1.0]", fillcolor="#399de5"] ;
409 -> 411 ;
412 [label="node #412\ngini = 0.0\nsamples = 0.0%\nvalue = [0.0, 1.0]", fillcolor="#399de5"] ;
408 -> 412 ;
413 [label="node #413\ngini = 0.0\nsamples = 0.0%\nvalue = [1.0, 0.0]", fillcolor="#e58139"] ;
407 -> 413 ;
414 [label="node #414\ngini = 0.0\nsamples = 0.0%\nvalue = [0.0, 1.0]", fillcolor="#399de5"] ;
406 -> 414 ;
415 [label="node #415\natomic_volume_wa <= 12.1564\ngini = 0.3275\nsamples = 1.8%\nvalue = [0.7937, 0.2063]", fillcolor="#eca26c"] ;
403 -> 415 ;
416 [label="node #416\natomic_volume_wad <= 1.47\ngini = 0.2395\nsamples = 0.1%\nvalue = [0.1391, 0.8609]", fillcolor="#59ade9"] ;
415 -> 416 ;
417 [label="node #417\ngini = 0.0\nsamples = 0.0%\nvalue = [1.0, 0.0]", fillcolor="#e58139"] ;
416 -> 417 ;
418 [label="node #418\nrel_stoich_wa <= 0.3675\ngini = 0.1384\nsamples = 0.1%\nvalue = [0.0748, 0.9252]", fillcolor="#49a5e7"] ;
416 -> 418 ;
419 [label="node #419\ngini = 0.0\nsamples = 0.0%\nvalue = [1.0, 0.0]", fillcolor="#e58139"] ;
418 -> 419 ;
420 [label="node #420\natomic_r_covalent_wa <= 0.6048\ngini = 0.0915\nsamples = 0.1%\nvalue = [0.0481, 0.9519]", fillcolor="#43a2e6"] ;
418 -> 420 ;
421 [label="node #421\ngini = 0.0\nsamples = 0.0%\nvalue = [1.0, 0.0]", fillcolor="#e58139"] ;
420 -> 421 ;
422 [label="node #422\natomic_number_wad <= 15.5\ngini = 0.0747\nsamples = 0.1%\nvalue = [0.0388, 0.9612]", fillcolor="#41a1e6"] ;
420 -> 422 ;
423 [label="node #423\ngini = 0.4444\nsamples = 0.0%\nvalue = [0.3333, 0.6667]", fillcolor="#9ccef2"] ;
422 -> 423 ;
424 [label="node #424\ngini = 0.0211\nsamples = 0.1%\nvalue = [0.0106, 0.9894]", fillcolor="#3b9ee5"] ;
422 -> 424 ;
425 [label="node #425\nrel_stoich_wa <= 0.6047\ngini = 0.2584\nsamples = 1.6%\nvalue = [0.8475, 0.1525]", fillcolor="#ea985d"] ;
415 -> 425 ;
426 [label="node #426\natomic_r_covalent_wad <= 0.6399\ngini = 0.1994\nsamples = 1.2%\nvalue = [0.8877, 0.1123]", fillcolor="#e89152"] ;
425 -> 426 ;
427 [label="node #427\natomic_pauling_electronegativity_wad <= 0.6163\ngini = 0.1434\nsamples = 0.9%\nvalue = [0.9223, 0.0777]", fillcolor="#e78c4a"] ;
426 -> 427 ;
428 [label="node #428\natomic_number_wad <= 33.0\ngini = 0.3432\nsamples = 0.1%\nvalue = [0.78, 0.22]", fillcolor="#eca571"] ;
427 -> 428 ;
429 [label="node #429\ngini = 0.095\nsamples = 0.1%\nvalue = [0.95, 0.05]", fillcolor="#e68843"] ;
428 -> 429 ;
430 [label="node #430\ngini = 0.4444\nsamples = 0.1%\nvalue = [0.6667, 0.3333]", fillcolor="#f2c09c"] ;
428 -> 430 ;
431 [label="node #431\natomic_volume_wa <= 15.5665\ngini = 0.1067\nsamples = 0.8%\nvalue = [0.9435, 0.0565]", fillcolor="#e78945"] ;
427 -> 431 ;
432 [label="node #432\ngini = 0.1924\nsamples = 0.3%\nvalue = [0.8922, 0.1078]", fillcolor="#e89051"] ;
431 -> 432 ;
433 [label="node #433\ngini = 0.0437\nsamples = 0.5%\nvalue = [0.9777, 0.0223]", fillcolor="#e6843e"] ;
431 -> 433 ;
434 [label="node #434\nrel_stoich_wad <= 0.6245\ngini = 0.3331\nsamples = 0.3%\nvalue = [0.7889, 0.2111]", fillcolor="#eca36e"] ;
426 -> 434 ;
435 [label="node #435\natomic_ionization_potential_wa <= 11.9275\ngini = 0.4095\nsamples = 0.2%\nvalue = [0.7127, 0.2873]", fillcolor="#efb489"] ;
434 -> 435 ;
436 [label="node #436\ngini = 0.4632\nsamples = 0.1%\nvalue = [0.6357, 0.3643]", fillcolor="#f4c9aa"] ;
435 -> 436 ;
437 [label="node #437\ngini = 0.1738\nsamples = 0.1%\nvalue = [0.9038, 0.0962]", fillcolor="#e88e4e"] ;
435 -> 437 ;
438 [label="node #438\natomic_pauling_electronegativity_wa <= 2.1813\ngini = 0.106\nsamples = 0.1%\nvalue = [0.9438, 0.0562]", fillcolor="#e78845"] ;
434 -> 438 ;
439 [label="node #439\ngini = 0.5\nsamples = 0.0%\nvalue = [0.5, 0.5]", fillcolor="#ffffff"] ;
438 -> 439 ;
440 [label="node #440\ngini = 0.0681\nsamples = 0.1%\nvalue = [0.9647, 0.0353]", fillcolor="#e68640"] ;
438 -> 440 ;
441 [label="node #441\nrel_stoich_wa <= 0.6206\ngini = 0.3946\nsamples = 0.4%\nvalue = [0.7296, 0.2704]", fillcolor="#efb082"] ;
425 -> 441 ;
442 [label="node #442\natomic_r_covalent_wa <= 0.8893\ngini = 0.2041\nsamples = 0.0%\nvalue = [0.1154, 0.8846]", fillcolor="#53aae8"] ;
441 -> 442 ;
443 [label="node #443\ngini = 0.0\nsamples = 0.0%\nvalue = [1.0, 0.0]", fillcolor="#e58139"] ;
442 -> 443 ;
444 [label="node #444\ngini = 0.0\nsamples = 0.0%\nvalue = [0.0, 1.0]", fillcolor="#399de5"] ;
442 -> 444 ;
445 [label="node #445\natomic_volume_wad <= 7.995\ngini = 0.3453\nsamples = 0.4%\nvalue = [0.7781, 0.2219]", fillcolor="#eca571"] ;
441 -> 445 ;
446 [label="node #446\natomic_volume_wa <= 24.9502\ngini = 0.2053\nsamples = 0.2%\nvalue = [0.8839, 0.1161]", fillcolor="#e89253"] ;
445 -> 446 ;
447 [label="node #447\ngini = 0.1779\nsamples = 0.2%\nvalue = [0.9013, 0.0987]", fillcolor="#e88f4f"] ;
446 -> 447 ;
448 [label="node #448\ngini = 0.0\nsamples = 0.0%\nvalue = [0.0, 1.0]", fillcolor="#399de5"] ;
446 -> 448 ;
449 [label="node #449\natomic_ionization_potential_wa <= 11.5495\ngini = 0.4324\nsamples = 0.2%\nvalue = [0.6839, 0.3161]", fillcolor="#f1bb95"] ;
445 -> 449 ;
450 [label="node #450\ngini = 0.3244\nsamples = 0.1%\nvalue = [0.7963, 0.2037]", fillcolor="#eca16c"] ;
449 -> 450 ;
451 [label="node #451\ngini = 0.5\nsamples = 0.1%\nvalue = [0.5, 0.5]", fillcolor="#ffffff"] ;
449 -> 451 ;
452 [label="node #452\natomic_ionization_potential_wa <= 10.9997\ngini = 0.3532\nsamples = 65.1%\nvalue = [0.7709, 0.2291]", fillcolor="#eda674"] ;
0 -> 452 [labeldistance=2.5, labelangle=-45, headlabel="False"] ;
453 [label="node #453\natomic_volume_wa <= 12.6778\ngini = 0.426\nsamples = 32.2%\nvalue = [0.6924, 0.3076]", fillcolor="#f1b991"] ;
452 -> 453 ;
454 [label="node #454\natomic_r_covalent_wa <= 1.1182\ngini = 0.3014\nsamples = 1.1%\nvalue = [0.1849, 0.8151]", fillcolor="#66b3eb"] ;
453 -> 454 ;
455 [label="node #455\natomic_number_wad <= 68.0\ngini = 0.5\nsamples = 0.3%\nvalue = [0.5, 0.5]", fillcolor="#ffffff"] ;
454 -> 455 ;
456 [label="node #456\natomic_r_covalent_wa <= 0.952\ngini = 0.4876\nsamples = 0.2%\nvalue = [0.5787, 0.4213]", fillcolor="#f8ddc9"] ;
455 -> 456 ;
457 [label="node #457\natomic_number_wad <= 48.625\ngini = 0.2098\nsamples = 0.1%\nvalue = [0.881, 0.119]", fillcolor="#e99254"] ;
456 -> 457 ;
458 [label="node #458\natomic_pauling_electronegativity_wa <= 2.7528\ngini = 0.0997\nsamples = 0.1%\nvalue = [0.9474, 0.0526]", fillcolor="#e68844"] ;
457 -> 458 ;
459 [label="node #459\natomic_volume_wa <= 12.6461\ngini = 0.0526\nsamples = 0.0%\nvalue = [0.973, 0.027]", fillcolor="#e6843e"] ;
458 -> 459 ;
460 [label="node #460\ngini = 0.0\nsamples = 0.0%\nvalue = [1.0, 0.0]", fillcolor="#e58139"] ;
459 -> 460 ;
461 [label="node #461\natomic_volume_wad <= 19.02\ngini = 0.5\nsamples = 0.0%\nvalue = [0.5, 0.5]", fillcolor="#ffffff"] ;
459 -> 461 ;
462 [label="node #462\ngini = 0.0\nsamples = 0.0%\nvalue = [1.0, 0.0]", fillcolor="#e58139"] ;
461 -> 462 ;
463 [label="node #463\ngini = 0.0\nsamples = 0.0%\nvalue = [0.0, 1.0]", fillcolor="#399de5"] ;
461 -> 463 ;
464 [label="node #464\ngini = 0.0\nsamples = 0.0%\nvalue = [0.0, 1.0]", fillcolor="#399de5"] ;
458 -> 464 ;
465 [label="node #465\natomic_r_covalent_wa <= 0.837\ngini = 0.375\nsamples = 0.0%\nvalue = [0.25, 0.75]", fillcolor="#7bbeee"] ;
457 -> 465 ;
466 [label="node #466\ngini = 0.0\nsamples = 0.0%\nvalue = [1.0, 0.0]", fillcolor="#e58139"] ;
465 -> 466 ;
467 [label="node #467\ngini = 0.0\nsamples = 0.0%\nvalue = [0.0, 1.0]", fillcolor="#399de5"] ;
465 -> 467 ;
468 [label="node #468\natomic_number_wad <= 17.2\ngini = 0.5\nsamples = 0.2%\nvalue = [0.4968, 0.5032]", fillcolor="#fcfeff"] ;
456 -> 468 ;
469 [label="node #469\natomic_ionization_potential_wa <= 7.9592\ngini = 0.2688\nsamples = 0.0%\nvalue = [0.84, 0.16]", fillcolor="#ea995f"] ;
468 -> 469 ;
470 [label="node #470\ngini = 0.0\nsamples = 0.0%\nvalue = [0.0, 1.0]", fillcolor="#399de5"] ;
469 -> 470 ;
471 [label="node #471\natomic_number_wa <= 15.9474\ngini = 0.2188\nsamples = 0.0%\nvalue = [0.875, 0.125]", fillcolor="#e99355"] ;
469 -> 471 ;
472 [label="node #472\ngini = 0.0\nsamples = 0.0%\nvalue = [1.0, 0.0]", fillcolor="#e58139"] ;
471 -> 472 ;
473 [label="node #473\natomic_volume_wad <= 10.07\ngini = 0.42\nsamples = 0.0%\nvalue = [0.7, 0.3]", fillcolor="#f0b78e"] ;
471 -> 473 ;
474 [label="node #474\ngini = 0.4444\nsamples = 0.0%\nvalue = [0.6667, 0.3333]", fillcolor="#f2c09c"] ;
473 -> 474 ;
475 [label="node #475\ngini = 0.4082\nsamples = 0.0%\nvalue = [0.7143, 0.2857]", fillcolor="#efb388"] ;
473 -> 475 ;
476 [label="node #476\natomic_r_covalent_wa <= 1.1086\ngini = 0.4904\nsamples = 0.2%\nvalue = [0.4308, 0.5692]", fillcolor="#cfe7f9"] ;
468 -> 476 ;
477 [label="node #477\natomic_ionization_potential_wad <= 12.6848\ngini = 0.4751\nsamples = 0.2%\nvalue = [0.3884, 0.6116]", fillcolor="#b7dbf6"] ;
476 -> 477 ;
478 [label="node #478\natomic_volume_wad <= 14.4825\ngini = 0.452\nsamples = 0.1%\nvalue = [0.3451, 0.6549]", fillcolor="#a1d1f3"] ;
477 -> 478 ;
479 [label="node #479\ngini = 0.3166\nsamples = 0.1%\nvalue = [0.1972, 0.8028]", fillcolor="#6ab5eb"] ;
478 -> 479 ;
480 [label="node #480\ngini = 0.4819\nsamples = 0.1%\nvalue = [0.5952, 0.4048]", fillcolor="#f7d7c0"] ;
478 -> 480 ;
481 [label="node #481\ngini = 0.0\nsamples = 0.0%\nvalue = [1.0, 0.0]", fillcolor="#e58139"] ;
477 -> 481 ;
482 [label="node #482\ngini = 0.0\nsamples = 0.0%\nvalue = [1.0, 0.0]", fillcolor="#e58139"] ;
476 -> 482 ;
483 [label="node #483\natomic_pauling_electronegativity_wad <= 2.0718\ngini = 0.149\nsamples = 0.0%\nvalue = [0.0811, 0.9189]", fillcolor="#4aa6e7"] ;
455 -> 483 ;
484 [label="node #484\natomic_number_wa <= 8.612\ngini = 0.0555\nsamples = 0.0%\nvalue = [0.0286, 0.9714]", fillcolor="#3fa0e6"] ;
483 -> 484 ;
485 [label="node #485\ngini = 0.0\nsamples = 0.0%\nvalue = [1.0, 0.0]", fillcolor="#e58139"] ;
484 -> 485 ;
486 [label="node #486\ngini = 0.0\nsamples = 0.0%\nvalue = [0.0, 1.0]", fillcolor="#399de5"] ;
484 -> 486 ;
487 [label="node #487\ngini = 0.0\nsamples = 0.0%\nvalue = [1.0, 0.0]", fillcolor="#e58139"] ;
483 -> 487 ;
488 [label="node #488\natomic_r_covalent_wad <= 0.9371\ngini = 0.1441\nsamples = 0.8%\nvalue = [0.0781, 0.9219]", fillcolor="#4aa5e7"] ;
454 -> 488 ;
489 [label="node #489\nrel_stoich_wa <= 0.359\ngini = 0.2999\nsamples = 0.3%\nvalue = [0.1837, 0.8163]", fillcolor="#66b3eb"] ;
488 -> 489 ;
490 [label="node #490\natomic_ionization_potential_wad <= 5.4653\ngini = 0.4915\nsamples = 0.1%\nvalue = [0.5652, 0.4348]", fillcolor="#f9e2d1"] ;
489 -> 490 ;
491 [label="node #491\nrel_stoich_wad <= 0.5278\ngini = 0.2778\nsamples = 0.0%\nvalue = [0.8333, 0.1667]", fillcolor="#ea9a61"] ;
490 -> 491 ;
492 [label="node #492\ngini = 0.0\nsamples = 0.0%\nvalue = [1.0, 0.0]", fillcolor="#e58139"] ;
491 -> 492 ;
493 [label="node #493\natomic_volume_wa <= 12.1108\ngini = 0.4938\nsamples = 0.0%\nvalue = [0.4444, 0.5556]", fillcolor="#d7ebfa"] ;
491 -> 493 ;
494 [label="node #494\ngini = 0.0\nsamples = 0.0%\nvalue = [0.0, 1.0]", fillcolor="#399de5"] ;
493 -> 494 ;
495 [label="node #495\ngini = 0.0\nsamples = 0.0%\nvalue = [1.0, 0.0]", fillcolor="#e58139"] ;
493 -> 495 ;
496 [label="node #496\natomic_r_covalent_wad <= 0.9142\ngini = 0.1172\nsamples = 0.0%\nvalue = [0.0625, 0.9375]", fillcolor="#46a4e7"] ;
490 -> 496 ;
497 [label="node #497\ngini = 0.0\nsamples = 0.0%\nvalue = [0.0, 1.0]", fillcolor="#399de5"] ;
496 -> 497 ;
498 [label="node #498\ngini = 0.0\nsamples = 0.0%\nvalue = [1.0, 0.0]", fillcolor="#e58139"] ;
496 -> 498 ;
499 [label="node #499\natomic_pauling_electronegativity_wa <= 2.0877\ngini = 0.1727\nsamples = 0.2%\nvalue = [0.0955, 0.9045]", fillcolor="#4ea7e8"] ;
489 -> 499 ;
500 [label="node #500\natomic_number_wad <= 94.0568\ngini = 0.0431\nsamples = 0.2%\nvalue = [0.0221, 0.9779]", fillcolor="#3d9fe6"] ;
499 -> 500 ;
501 [label="node #501\natomic_r_covalent_wad <= 0.1288\ngini = 0.0154\nsamples = 0.1%\nvalue = [0.0078, 0.9922]", fillcolor="#3b9ee5"] ;
500 -> 501 ;
502 [label="node #502\natomic_r_covalent_wad <= 0.1137\ngini = 0.1653\nsamples = 0.0%\nvalue = [0.0909, 0.9091]", fillcolor="#4da7e8"] ;
501 -> 502 ;
503 [label="node #503\ngini = 0.0\nsamples = 0.0%\nvalue = [0.0, 1.0]", fillcolor="#399de5"] ;
502 -> 503 ;
504 [label="node #504\ngini = 0.0\nsamples = 0.0%\nvalue = [1.0, 0.0]", fillcolor="#e58139"] ;
502 -> 504 ;
505 [label="node #505\ngini = 0.0\nsamples = 0.1%\nvalue = [0.0, 1.0]", fillcolor="#399de5"] ;
501 -> 505 ;
506 [label="node #506\natomic_number_wa <= 35.6818\ngini = 0.4082\nsamples = 0.0%\nvalue = [0.2857, 0.7143]", fillcolor="#88c4ef"] ;
500 -> 506 ;
507 [label="node #507\ngini = 0.0\nsamples = 0.0%\nvalue = [1.0, 0.0]", fillcolor="#e58139"] ;
506 -> 507 ;
508 [label="node #508\ngini = 0.0\nsamples = 0.0%\nvalue = [0.0, 1.0]", fillcolor="#399de5"] ;
506 -> 508 ;
509 [label="node #509\nrel_stoich_wa <= 0.4196\ngini = 0.3789\nsamples = 0.1%\nvalue = [0.254, 0.746]", fillcolor="#7cbeee"] ;
499 -> 509 ;
510 [label="node #510\natomic_pauling_electronegativity_wa <= 2.2021\ngini = 0.4963\nsamples = 0.0%\nvalue = [0.4571, 0.5429]", fillcolor="#e0f0fb"] ;
509 -> 510 ;
511 [label="node #511\natomic_pauling_electronegativity_wad <= 1.55\ngini = 0.4012\nsamples = 0.0%\nvalue = [0.7222, 0.2778]", fillcolor="#efb185"] ;
510 -> 511 ;
512 [label="node #512\ngini = 0.0\nsamples = 0.0%\nvalue = [0.0, 1.0]", fillcolor="#399de5"] ;
511 -> 512 ;
513 [label="node #513\ngini = 0.2311\nsamples = 0.0%\nvalue = [0.8667, 0.1333]", fillcolor="#e99457"] ;
511 -> 513 ;
514 [label="node #514\natomic_number_wad <= 37.2531\ngini = 0.2907\nsamples = 0.0%\nvalue = [0.1765, 0.8235]", fillcolor="#63b2eb"] ;
510 -> 514 ;
515 [label="node #515\ngini = 0.0\nsamples = 0.0%\nvalue = [0.0, 1.0]", fillcolor="#399de5"] ;
514 -> 515 ;
516 [label="node #516\ngini = 0.375\nsamples = 0.0%\nvalue = [0.75, 0.25]", fillcolor="#eeab7b"] ;
514 -> 516 ;
517 [label="node #517\ngini = 0.0\nsamples = 0.0%\nvalue = [0.0, 1.0]", fillcolor="#399de5"] ;
509 -> 517 ;
518 [label="node #518\natomic_pauling_electronegativity_wa <= 2.1931\ngini = 0.0395\nsamples = 0.5%\nvalue = [0.0202, 0.9798]", fillcolor="#3d9fe6"] ;
488 -> 518 ;
519 [label="node #519\natomic_pauling_electronegativity_wa <= 2.0645\ngini = 0.0236\nsamples = 0.5%\nvalue = [0.012, 0.988]", fillcolor="#3b9ee5"] ;
518 -> 519 ;
520 [label="node #520\natomic_ionization_potential_wa <= 8.9472\ngini = 0.0061\nsamples = 0.4%\nvalue = [0.003, 0.997]", fillcolor="#3a9de5"] ;
519 -> 520 ;
521 [label="node #521\ngini = 0.0\nsamples = 0.3%\nvalue = [0.0, 1.0]", fillcolor="#399de5"] ;
520 -> 521 ;
522 [label="node #522\natomic_ionization_potential_wa <= 8.9521\ngini = 0.054\nsamples = 0.0%\nvalue = [0.0278, 0.9722]", fillcolor="#3fa0e6"] ;
520 -> 522 ;
523 [label="node #523\ngini = 0.0\nsamples = 0.0%\nvalue = [1.0, 0.0]", fillcolor="#e58139"] ;
522 -> 523 ;
524 [label="node #524\ngini = 0.0\nsamples = 0.0%\nvalue = [0.0, 1.0]", fillcolor="#399de5"] ;
522 -> 524 ;
525 [label="node #525\natomic_pauling_electronegativity_wa <= 2.0655\ngini = 0.0849\nsamples = 0.1%\nvalue = [0.0444, 0.9556]", fillcolor="#42a2e6"] ;
519 -> 525 ;
526 [label="node #526\natomic_volume_wa <= 7.8503\ngini = 0.375\nsamples = 0.0%\nvalue = [0.75, 0.25]", fillcolor="#eeab7b"] ;
525 -> 526 ;
527 [label="node #527\ngini = 0.0\nsamples = 0.0%\nvalue = [0.0, 1.0]", fillcolor="#399de5"] ;
526 -> 527 ;
528 [label="node #528\ngini = 0.0\nsamples = 0.0%\nvalue = [1.0, 0.0]", fillcolor="#e58139"] ;
526 -> 528 ;
529 [label="node #529\natomic_pauling_electronegativity_wad <= 1.5763\ngini = 0.023\nsamples = 0.1%\nvalue = [0.0116, 0.9884]", fillcolor="#3b9ee5"] ;
525 -> 529 ;
530 [label="node #530\natomic_pauling_electronegativity_wad <= 1.5713\ngini = 0.1172\nsamples = 0.0%\nvalue = [0.0625, 0.9375]", fillcolor="#46a4e7"] ;
529 -> 530 ;
531 [label="node #531\ngini = 0.0\nsamples = 0.0%\nvalue = [0.0, 1.0]", fillcolor="#399de5"] ;
530 -> 531 ;
532 [label="node #532\ngini = 0.0\nsamples = 0.0%\nvalue = [1.0, 0.0]", fillcolor="#e58139"] ;
530 -> 532 ;
533 [label="node #533\ngini = 0.0\nsamples = 0.1%\nvalue = [0.0, 1.0]", fillcolor="#399de5"] ;
529 -> 533 ;
534 [label="node #534\natomic_ionization_potential_wa <= 9.2176\ngini = 0.2449\nsamples = 0.0%\nvalue = [0.1429, 0.8571]", fillcolor="#5aade9"] ;
518 -> 534 ;
535 [label="node #535\ngini = 0.0\nsamples = 0.0%\nvalue = [1.0, 0.0]", fillcolor="#e58139"] ;
534 -> 535 ;
536 [label="node #536\ngini = 0.0\nsamples = 0.0%\nvalue = [0.0, 1.0]", fillcolor="#399de5"] ;
534 -> 536 ;
537 [label="node #537\natomic_ionization_potential_wad <= 5.2162\ngini = 0.4116\nsamples = 31.1%\nvalue = [0.7102, 0.2898]", fillcolor="#f0b48a"] ;
453 -> 537 ;
538 [label="node #538\natomic_number_wa <= 48.675\ngini = 0.4537\nsamples = 1.1%\nvalue = [0.3479, 0.6521]", fillcolor="#a3d1f3"] ;
537 -> 538 ;
539 [label="node #539\natomic_pauling_electronegativity_wa <= 2.0327\ngini = 0.4992\nsamples = 0.6%\nvalue = [0.5194, 0.4806]", fillcolor="#fdf6f0"] ;
538 -> 539 ;
540 [label="node #540\natomic_volume_wa <= 20.7329\ngini = 0.4614\nsamples = 0.4%\nvalue = [0.361, 0.639]", fillcolor="#a9d4f4"] ;
539 -> 540 ;
541 [label="node #541\natomic_number_wa <= 30.25\ngini = 0.3818\nsamples = 0.3%\nvalue = [0.2569, 0.7431]", fillcolor="#7dbfee"] ;
540 -> 541 ;
542 [label="node #542\natomic_ionization_potential_wad <= 4.345\ngini = 0.4628\nsamples = 0.1%\nvalue = [0.6364, 0.3636]", fillcolor="#f4c9aa"] ;
541 -> 542 ;
543 [label="node #543\natomic_volume_wad <= 7.8656\ngini = 0.2355\nsamples = 0.0%\nvalue = [0.1364, 0.8636]", fillcolor="#58ace9"] ;
542 -> 543 ;
544 [label="node #544\ngini = 0.0\nsamples = 0.0%\nvalue = [1.0, 0.0]", fillcolor="#e58139"] ;
543 -> 544 ;
545 [label="node #545\ngini = 0.095\nsamples = 0.0%\nvalue = [0.05, 0.95]", fillcolor="#43a2e6"] ;
543 -> 545 ;
546 [label="node #546\natomic_volume_wa <= 13.3599\ngini = 0.2737\nsamples = 0.1%\nvalue = [0.8364, 0.1636]", fillcolor="#ea9a60"] ;
542 -> 546 ;
547 [label="node #547\ngini = 0.4688\nsamples = 0.0%\nvalue = [0.375, 0.625]", fillcolor="#b0d8f5"] ;
546 -> 547 ;
548 [label="node #548\ngini = 0.1557\nsamples = 0.0%\nvalue = [0.9149, 0.0851]", fillcolor="#e78d4b"] ;
546 -> 548 ;
549 [label="node #549\natomic_pauling_electronegativity_wa <= 1.9941\ngini = 0.1653\nsamples = 0.2%\nvalue = [0.0909, 0.9091]", fillcolor="#4da7e8"] ;
541 -> 549 ;
550 [label="node #550\natomic_number_wad <= 133.875\ngini = 0.0979\nsamples = 0.2%\nvalue = [0.0516, 0.9484]", fillcolor="#44a2e6"] ;
549 -> 550 ;
551 [label="node #551\ngini = 0.0868\nsamples = 0.2%\nvalue = [0.0455, 0.9545]", fillcolor="#42a2e6"] ;
550 -> 551 ;
552 [label="node #552\ngini = 0.0\nsamples = 0.0%\nvalue = [1.0, 0.0]", fillcolor="#e58139"] ;
550 -> 552 ;
553 [label="node #553\natomic_number_wa <= 39.5179\ngini = 0.4717\nsamples = 0.0%\nvalue = [0.381, 0.619]", fillcolor="#b3d9f5"] ;
549 -> 553 ;
554 [label="node #554\ngini = 0.142\nsamples = 0.0%\nvalue = [0.0769, 0.9231]", fillcolor="#49a5e7"] ;
553 -> 554 ;
555 [label="node #555\ngini = 0.2188\nsamples = 0.0%\nvalue = [0.875, 0.125]", fillcolor="#e99355"] ;
553 -> 555 ;
556 [label="node #556\natomic_ionization_potential_wad <= 3.4664\ngini = 0.32\nsamples = 0.1%\nvalue = [0.8, 0.2]", fillcolor="#eca06a"] ;
540 -> 556 ;
557 [label="node #557\ngini = 0.0\nsamples = 0.0%\nvalue = [0.0, 1.0]", fillcolor="#399de5"] ;
556 -> 557 ;
558 [label="node #558\natomic_pauling_electronegativity_wa <= 1.4122\ngini = 0.142\nsamples = 0.1%\nvalue = [0.9231, 0.0769]", fillcolor="#e78c49"] ;
556 -> 558 ;
559 [label="node #559\natomic_volume_wad <= 41.7428\ngini = 0.4938\nsamples = 0.0%\nvalue = [0.5556, 0.4444]", fillcolor="#fae6d7"] ;
558 -> 559 ;
560 [label="node #560\ngini = 0.0\nsamples = 0.0%\nvalue = [0.0, 1.0]", fillcolor="#399de5"] ;
559 -> 560 ;
561 [label="node #561\ngini = 0.0\nsamples = 0.0%\nvalue = [1.0, 0.0]", fillcolor="#e58139"] ;
559 -> 561 ;
562 [label="node #562\ngini = 0.0\nsamples = 0.0%\nvalue = [1.0, 0.0]", fillcolor="#e58139"] ;
558 -> 562 ;
563 [label="node #563\natomic_volume_wa <= 14.2388\ngini = 0.4072\nsamples = 0.3%\nvalue = [0.7154, 0.2846]", fillcolor="#efb388"] ;
539 -> 563 ;
564 [label="node #564\nrel_stoich_wa <= 0.4327\ngini = 0.4969\nsamples = 0.1%\nvalue = [0.4605, 0.5395]", fillcolor="#e2f1fb"] ;
563 -> 564 ;
565 [label="node #565\nrel_stoich_wad <= 0.9974\ngini = 0.4306\nsamples = 0.1%\nvalue = [0.6863, 0.3137]", fillcolor="#f1bb94"] ;
564 -> 565 ;
566 [label="node #566\natomic_number_wad <= 21.0179\ngini = 0.1528\nsamples = 0.0%\nvalue = [0.9167, 0.0833]", fillcolor="#e78c4b"] ;
565 -> 566 ;
567 [label="node #567\ngini = 0.0\nsamples = 0.0%\nvalue = [0.0, 1.0]", fillcolor="#399de5"] ;
566 -> 567 ;
568 [label="node #568\ngini = 0.0571\nsamples = 0.0%\nvalue = [0.9706, 0.0294]", fillcolor="#e6853f"] ;
566 -> 568 ;
569 [label="node #569\natomic_number_wad <= 66.4375\ngini = 0.2311\nsamples = 0.0%\nvalue = [0.1333, 0.8667]", fillcolor="#57ace9"] ;
565 -> 569 ;
570 [label="node #570\ngini = 0.0\nsamples = 0.0%\nvalue = [0.0, 1.0]", fillcolor="#399de5"] ;
569 -> 570 ;
571 [label="node #571\ngini = 0.0\nsamples = 0.0%\nvalue = [1.0, 0.0]", fillcolor="#e58139"] ;
569 -> 571 ;
572 [label="node #572\ngini = 0.0\nsamples = 0.0%\nvalue = [0.0, 1.0]", fillcolor="#399de5"] ;
564 -> 572 ;
573 [label="node #573\natomic_ionization_potential_wad <= 5.0078\ngini = 0.2889\nsamples = 0.2%\nvalue = [0.8249, 0.1751]", fillcolor="#eb9c63"] ;
563 -> 573 ;
574 [label="node #574\natomic_pauling_electronegativity_wad <= 1.7806\ngini = 0.1192\nsamples = 0.1%\nvalue = [0.9364, 0.0636]", fillcolor="#e78a46"] ;
573 -> 574 ;
575 [label="node #575\natomic_volume_wa <= 14.543\ngini = 0.0555\nsamples = 0.1%\nvalue = [0.9714, 0.0286]", fillcolor="#e6853f"] ;
574 -> 575 ;
576 [label="node #576\ngini = 0.4444\nsamples = 0.0%\nvalue = [0.6667, 0.3333]", fillcolor="#f2c09c"] ;
575 -> 576 ;
577 [label="node #577\ngini = 0.0\nsamples = 0.1%\nvalue = [1.0, 0.0]", fillcolor="#e58139"] ;
575 -> 577 ;
578 [label="node #578\natomic_r_covalent_wa <= 1.2541\ngini = 0.32\nsamples = 0.0%\nvalue = [0.2, 0.8]", fillcolor="#6ab6ec"] ;
574 -> 578 ;
579 [label="node #579\ngini = 0.0\nsamples = 0.0%\nvalue = [1.0, 0.0]", fillcolor="#e58139"] ;
578 -> 579 ;
580 [label="node #580\ngini = 0.0\nsamples = 0.0%\nvalue = [0.0, 1.0]", fillcolor="#399de5"] ;
578 -> 580 ;
581 [label="node #581\natomic_r_covalent_wad <= 1.1183\ngini = 0.4598\nsamples = 0.1%\nvalue = [0.6418, 0.3582]", fillcolor="#f4c7a8"] ;
573 -> 581 ;
582 [label="node #582\nrel_stoich_wad <= 0.5436\ngini = 0.4992\nsamples = 0.1%\nvalue = [0.52, 0.48]", fillcolor="#fdf5f0"] ;
581 -> 582 ;
583 [label="node #583\ngini = 0.32\nsamples = 0.0%\nvalue = [0.2, 0.8]", fillcolor="#6ab6ec"] ;
582 -> 583 ;
584 [label="node #584\ngini = 0.4506\nsamples = 0.0%\nvalue = [0.6571, 0.3429]", fillcolor="#f3c3a0"] ;
582 -> 584 ;
585 [label="node #585\ngini = 0.0\nsamples = 0.0%\nvalue = [1.0, 0.0]", fillcolor="#e58139"] ;
581 -> 585 ;
586 [label="node #586\natomic_ionization_potential_wa <= 8.7265\ngini = 0.1824\nsamples = 0.5%\nvalue = [0.1015, 0.8985]", fillcolor="#4fa8e8"] ;
538 -> 586 ;
587 [label="node #587\natomic_r_covalent_wa <= 1.775\ngini = 0.1521\nsamples = 0.5%\nvalue = [0.0829, 0.9171]", fillcolor="#4ba6e7"] ;
586 -> 587 ;
588 [label="node #588\natomic_volume_wad <= 7.8279\ngini = 0.1238\nsamples = 0.5%\nvalue = [0.0663, 0.9337]", fillcolor="#47a4e7"] ;
587 -> 588 ;
589 [label="node #589\natomic_r_covalent_wad <= 0.867\ngini = 0.4628\nsamples = 0.0%\nvalue = [0.6364, 0.3636]", fillcolor="#f4c9aa"] ;
588 -> 589 ;
590 [label="node #590\ngini = 0.0\nsamples = 0.0%\nvalue = [1.0, 0.0]", fillcolor="#e58139"] ;
589 -> 590 ;
591 [label="node #591\ngini = 0.0\nsamples = 0.0%\nvalue = [0.0, 1.0]", fillcolor="#399de5"] ;
589 -> 591 ;
592 [label="node #592\natomic_volume_wa <= 18.2075\ngini = 0.0935\nsamples = 0.4%\nvalue = [0.0492, 0.9508]", fillcolor="#43a2e6"] ;
588 -> 592 ;
593 [label="node #593\natomic_ionization_potential_wa <= 8.508\ngini = 0.0339\nsamples = 0.3%\nvalue = [0.0172, 0.9828]", fillcolor="#3c9fe5"] ;
592 -> 593 ;
594 [label="node #594\ngini = 0.0211\nsamples = 0.3%\nvalue = [0.0106, 0.9894]", fillcolor="#3b9ee5"] ;
593 -> 594 ;
595 [label="node #595\ngini = 0.375\nsamples = 0.0%\nvalue = [0.25, 0.75]", fillcolor="#7bbeee"] ;
593 -> 595 ;
596 [label="node #596\natomic_volume_wa <= 18.2487\ngini = 0.2836\nsamples = 0.1%\nvalue = [0.1711, 0.8289]", fillcolor="#62b1ea"] ;
592 -> 596 ;
597 [label="node #597\ngini = 0.0\nsamples = 0.0%\nvalue = [1.0, 0.0]", fillcolor="#e58139"] ;
596 -> 597 ;
598 [label="node #598\ngini = 0.2188\nsamples = 0.1%\nvalue = [0.125, 0.875]", fillcolor="#55abe9"] ;
596 -> 598 ;
599 [label="node #599\natomic_ionization_potential_wa <= 6.7589\ngini = 0.3457\nsamples = 0.0%\nvalue = [0.7778, 0.2222]", fillcolor="#eca572"] ;
587 -> 599 ;
600 [label="node #600\ngini = 0.0\nsamples = 0.0%\nvalue = [1.0, 0.0]", fillcolor="#e58139"] ;
599 -> 600 ;
601 [label="node #601\ngini = 0.0\nsamples = 0.0%\nvalue = [0.0, 1.0]", fillcolor="#399de5"] ;
599 -> 601 ;
602 [label="node #602\ngini = 0.0\nsamples = 0.0%\nvalue = [1.0, 0.0]", fillcolor="#e58139"] ;
586 -> 602 ;
603 [label="node #603\natomic_number_wa <= 10.2966\ngini = 0.3998\nsamples = 30.0%\nvalue = [0.7239, 0.2761]", fillcolor="#efb185"] ;
537 -> 603 ;
604 [label="node #604\natomic_r_covalent_wad <= 1.3384\ngini = 0.1956\nsamples = 3.4%\nvalue = [0.8902, 0.1098]", fillcolor="#e89151"] ;
603 -> 604 ;
605 [label="node #605\natomic_r_covalent_wad <= 1.3206\ngini = 0.256\nsamples = 2.1%\nvalue = [0.8493, 0.1507]", fillcolor="#ea975c"] ;
604 -> 605 ;
606 [label="node #606\natomic_number_wa <= 9.685\ngini = 0.2451\nsamples = 2.1%\nvalue = [0.857, 0.143]", fillcolor="#e9965a"] ;
605 -> 606 ;
607 [label="node #607\nrel_stoich_wad <= 1.1899\ngini = 0.1585\nsamples = 0.9%\nvalue = [0.9132, 0.0868]", fillcolor="#e78d4c"] ;
606 -> 607 ;
608 [label="node #608\natomic_ionization_potential_wad <= 10.3431\ngini = 0.1529\nsamples = 0.9%\nvalue = [0.9166, 0.0834]", fillcolor="#e78c4b"] ;
607 -> 608 ;
609 [label="node #609\ngini = 0.2739\nsamples = 0.3%\nvalue = [0.8362, 0.1638]", fillcolor="#ea9a60"] ;
608 -> 609 ;
610 [label="node #610\ngini = 0.0976\nsamples = 0.7%\nvalue = [0.9485, 0.0515]", fillcolor="#e68844"] ;
608 -> 610 ;
611 [label="node #611\ngini = 0.0\nsamples = 0.0%\nvalue = [0.0, 1.0]", fillcolor="#399de5"] ;
607 -> 611 ;
612 [label="node #612\natomic_volume_wad <= 13.84\ngini = 0.3086\nsamples = 1.1%\nvalue = [0.8093, 0.1907]", fillcolor="#eb9f68"] ;
606 -> 612 ;
613 [label="node #613\natomic_number_wad <= 24.5134\ngini = 0.4203\nsamples = 0.3%\nvalue = [0.6997, 0.3003]", fillcolor="#f0b78e"] ;
612 -> 613 ;
614 [label="node #614\ngini = 0.3146\nsamples = 0.2%\nvalue = [0.8044, 0.1956]", fillcolor="#eba069"] ;
613 -> 614 ;
615 [label="node #615\ngini = 0.479\nsamples = 0.1%\nvalue = [0.3974, 0.6026]", fillcolor="#bcdef6"] ;
613 -> 615 ;
616 [label="node #616\natomic_r_covalent_wad <= 1.1662\ngini = 0.2415\nsamples = 0.8%\nvalue = [0.8595, 0.1405]", fillcolor="#e99659"] ;
612 -> 616 ;
617 [label="node #617\ngini = 0.0596\nsamples = 0.2%\nvalue = [0.9692, 0.0308]", fillcolor="#e6853f"] ;
616 -> 617 ;
618 [label="node #618\ngini = 0.3032\nsamples = 0.5%\nvalue = [0.8137, 0.1863]", fillcolor="#eb9e66"] ;
616 -> 618 ;
619 [label="node #619\natomic_ionization_potential_wa <= 10.4206\ngini = 0.4592\nsamples = 0.0%\nvalue = [0.3571, 0.6429]", fillcolor="#a7d3f3"] ;
605 -> 619 ;
620 [label="node #620\natomic_pauling_electronegativity_wad <= 3.8581\ngini = 0.2449\nsamples = 0.0%\nvalue = [0.1429, 0.8571]", fillcolor="#5aade9"] ;
619 -> 620 ;
621 [label="node #621\natomic_volume_wad <= 17.0069\ngini = 0.18\nsamples = 0.0%\nvalue = [0.1, 0.9]", fillcolor="#4fa8e8"] ;
620 -> 621 ;
622 [label="node #622\ngini = 0.0\nsamples = 0.0%\nvalue = [0.0, 1.0]", fillcolor="#399de5"] ;
621 -> 622 ;
623 [label="node #623\ngini = 0.2604\nsamples = 0.0%\nvalue = [0.1538, 0.8462]", fillcolor="#5dafea"] ;
621 -> 623 ;
624 [label="node #624\ngini = 0.0\nsamples = 0.0%\nvalue = [1.0, 0.0]", fillcolor="#e58139"] ;
620 -> 624 ;
625 [label="node #625\ngini = 0.0\nsamples = 0.0%\nvalue = [1.0, 0.0]", fillcolor="#e58139"] ;
619 -> 625 ;
626 [label="node #626\natomic_r_covalent_wa <= 1.0434\ngini = 0.0796\nsamples = 1.3%\nvalue = [0.9585, 0.0415]", fillcolor="#e68642"] ;
604 -> 626 ;
627 [label="node #627\natomic_volume_wad <= 11.6983\ngini = 0.0612\nsamples = 1.2%\nvalue = [0.9684, 0.0316]", fillcolor="#e6853f"] ;
626 -> 627 ;
628 [label="node #628\natomic_number_wa <= 10.0156\ngini = 0.1922\nsamples = 0.1%\nvalue = [0.8923, 0.1077]", fillcolor="#e89051"] ;
627 -> 628 ;
629 [label="node #629\nrel_stoich_wad <= 0.2926\ngini = 0.0965\nsamples = 0.1%\nvalue = [0.9492, 0.0508]", fillcolor="#e68844"] ;
628 -> 629 ;
630 [label="node #630\ngini = 0.2188\nsamples = 0.0%\nvalue = [0.875, 0.125]", fillcolor="#e99355"] ;
629 -> 630 ;
631 [label="node #631\ngini = 0.0454\nsamples = 0.0%\nvalue = [0.9767, 0.0233]", fillcolor="#e6843e"] ;
629 -> 631 ;
632 [label="node #632\natomic_volume_wad <= 10.3688\ngini = 0.4444\nsamples = 0.0%\nvalue = [0.3333, 0.6667]", fillcolor="#9ccef2"] ;
628 -> 632 ;
633 [label="node #633\ngini = 0.0\nsamples = 0.0%\nvalue = [1.0, 0.0]", fillcolor="#e58139"] ;
632 -> 633 ;
634 [label="node #634\ngini = 0.32\nsamples = 0.0%\nvalue = [0.2, 0.8]", fillcolor="#6ab6ec"] ;
632 -> 634 ;
635 [label="node #635\natomic_ionization_potential_wa <= 10.9421\ngini = 0.0514\nsamples = 1.1%\nvalue = [0.9736, 0.0264]", fillcolor="#e6843e"] ;
627 -> 635 ;
636 [label="node #636\nrel_stoich_wa <= 0.2795\ngini = 0.043\nsamples = 1.1%\nvalue = [0.978, 0.022]", fillcolor="#e6843d"] ;
635 -> 636 ;
637 [label="node #637\ngini = 0.1855\nsamples = 0.0%\nvalue = [0.8966, 0.1034]", fillcolor="#e89050"] ;
636 -> 637 ;
638 [label="node #638\ngini = 0.0378\nsamples = 1.0%\nvalue = [0.9807, 0.0193]", fillcolor="#e6833d"] ;
636 -> 638 ;
639 [label="node #639\natomic_ionization_potential_wa <= 10.9537\ngini = 0.2285\nsamples = 0.0%\nvalue = [0.8684, 0.1316]", fillcolor="#e99457"] ;
635 -> 639 ;
640 [label="node #640\ngini = 0.4688\nsamples = 0.0%\nvalue = [0.375, 0.625]", fillcolor="#b0d8f5"] ;
639 -> 640 ;
641 [label="node #641\ngini = 0.0\nsamples = 0.0%\nvalue = [1.0, 0.0]", fillcolor="#e58139"] ;
639 -> 641 ;
642 [label="node #642\natomic_pauling_electronegativity_wa <= 2.3697\ngini = 0.2991\nsamples = 0.1%\nvalue = [0.8169, 0.1831]", fillcolor="#eb9d65"] ;
626 -> 642 ;
643 [label="node #643\natomic_volume_wad <= 13.8429\ngini = 0.1922\nsamples = 0.1%\nvalue = [0.8923, 0.1077]", fillcolor="#e89051"] ;
642 -> 643 ;
644 [label="node #644\natomic_pauling_electronegativity_wa <= 1.847\ngini = 0.4444\nsamples = 0.0%\nvalue = [0.3333, 0.6667]", fillcolor="#9ccef2"] ;
643 -> 644 ;
645 [label="node #645\ngini = 0.0\nsamples = 0.0%\nvalue = [1.0, 0.0]", fillcolor="#e58139"] ;
644 -> 645 ;
646 [label="node #646\ngini = 0.32\nsamples = 0.0%\nvalue = [0.2, 0.8]", fillcolor="#6ab6ec"] ;
644 -> 646 ;
647 [label="node #647\natomic_number_wa <= 7.6863\ngini = 0.0965\nsamples = 0.1%\nvalue = [0.9492, 0.0508]", fillcolor="#e68844"] ;
643 -> 647 ;
648 [label="node #648\ngini = 0.0\nsamples = 0.0%\nvalue = [0.0, 1.0]", fillcolor="#399de5"] ;
647 -> 648 ;
649 [label="node #649\ngini = 0.0345\nsamples = 0.1%\nvalue = [0.9825, 0.0175]", fillcolor="#e5833d"] ;
647 -> 649 ;
650 [label="node #650\ngini = 0.0\nsamples = 0.0%\nvalue = [0.0, 1.0]", fillcolor="#399de5"] ;
642 -> 650 ;
651 [label="node #651\natomic_volume_wa <= 21.053\ngini = 0.418\nsamples = 26.6%\nvalue = [0.7025, 0.2975]", fillcolor="#f0b68d"] ;
603 -> 651 ;
652 [label="node #652\natomic_r_covalent_wa <= 1.477\ngini = 0.4494\nsamples = 20.1%\nvalue = [0.6591, 0.3409]", fillcolor="#f2c29f"] ;
651 -> 652 ;
653 [label="node #653\natomic_r_covalent_wad <= 2.3259\ngini = 0.4427\nsamples = 19.6%\nvalue = [0.6692, 0.3308]", fillcolor="#f2bf9b"] ;
652 -> 653 ;
654 [label="node #654\natomic_volume_wa <= 15.3942\ngini = 0.4278\nsamples = 16.8%\nvalue = [0.69, 0.31]", fillcolor="#f1ba92"] ;
653 -> 654 ;
655 [label="node #655\natomic_r_covalent_wa <= 1.2296\ngini = 0.4696\nsamples = 6.5%\nvalue = [0.6233, 0.3767]", fillcolor="#f5cdb1"] ;
654 -> 655 ;
656 [label="node #656\ngini = 0.4528\nsamples = 6.0%\nvalue = [0.6536, 0.3464]", fillcolor="#f3c4a2"] ;
655 -> 656 ;
657 [label="node #657\ngini = 0.406\nsamples = 0.5%\nvalue = [0.2832, 0.7168]", fillcolor="#87c4ef"] ;
655 -> 657 ;
658 [label="node #658\natomic_r_covalent_wad <= 1.3188\ngini = 0.3917\nsamples = 10.2%\nvalue = [0.7327, 0.2673]", fillcolor="#eeaf81"] ;
654 -> 658 ;
659 [label="node #659\ngini = 0.2971\nsamples = 2.9%\nvalue = [0.8185, 0.1815]", fillcolor="#eb9d65"] ;
658 -> 659 ;
660 [label="node #660\ngini = 0.4215\nsamples = 7.3%\nvalue = [0.6981, 0.3019]", fillcolor="#f0b78f"] ;
658 -> 660 ;
661 [label="node #661\nrel_stoich_wa <= 0.3781\ngini = 0.4962\nsamples = 2.8%\nvalue = [0.5435, 0.4565]", fillcolor="#fbebdf"] ;
653 -> 661 ;
662 [label="node #662\natomic_ionization_potential_wa <= 10.6711\ngini = 0.4431\nsamples = 0.8%\nvalue = [0.3314, 0.6686]", fillcolor="#9bcef2"] ;
661 -> 662 ;
663 [label="node #663\ngini = 0.3611\nsamples = 0.7%\nvalue = [0.2364, 0.7636]", fillcolor="#76bbed"] ;
662 -> 663 ;
664 [label="node #664\ngini = 0.2778\nsamples = 0.1%\nvalue = [0.8333, 0.1667]", fillcolor="#ea9a61"] ;
662 -> 664 ;
665 [label="node #665\nrel_stoich_wa <= 0.4276\ngini = 0.4662\nsamples = 2.0%\nvalue = [0.63, 0.37]", fillcolor="#f4cbad"] ;
661 -> 665 ;
666 [label="node #666\ngini = 0.487\nsamples = 1.7%\nvalue = [0.5807, 0.4193]", fillcolor="#f8dcc8"] ;
665 -> 666 ;
667 [label="node #667\ngini = 0.1717\nsamples = 0.3%\nvalue = [0.9051, 0.0949]", fillcolor="#e88e4e"] ;
665 -> 667 ;
668 [label="node #668\natomic_volume_wa <= 18.346\ngini = 0.414\nsamples = 0.5%\nvalue = [0.2926, 0.7074]", fillcolor="#8bc6f0"] ;
652 -> 668 ;
669 [label="node #669\natomic_pauling_electronegativity_wa <= 1.9836\ngini = 0.1534\nsamples = 0.2%\nvalue = [0.0837, 0.9163]", fillcolor="#4ba6e7"] ;
668 -> 669 ;
670 [label="node #670\natomic_pauling_electronegativity_wa <= 1.4932\ngini = 0.0214\nsamples = 0.2%\nvalue = [0.0108, 0.9892]", fillcolor="#3b9ee5"] ;
669 -> 670 ;
671 [label="node #671\ngini = 0.0\nsamples = 0.0%\nvalue = [1.0, 0.0]", fillcolor="#e58139"] ;
670 -> 671 ;
672 [label="node #672\ngini = 0.0\nsamples = 0.2%\nvalue = [0.0, 1.0]", fillcolor="#399de5"] ;
670 -> 672 ;
673 [label="node #673\natomic_ionization_potential_wa <= 8.252\ngini = 0.4819\nsamples = 0.0%\nvalue = [0.4048, 0.5952]", fillcolor="#c0e0f7"] ;
669 -> 673 ;
674 [label="node #674\ngini = 0.4321\nsamples = 0.0%\nvalue = [0.6842, 0.3158]", fillcolor="#f1bb94"] ;
673 -> 674 ;
675 [label="node #675\ngini = 0.2873\nsamples = 0.0%\nvalue = [0.1739, 0.8261]", fillcolor="#63b2ea"] ;
673 -> 675 ;
676 [label="node #676\natomic_r_covalent_wa <= 1.5531\ngini = 0.5\nsamples = 0.3%\nvalue = [0.4978, 0.5022]", fillcolor="#fdfeff"] ;
668 -> 676 ;
677 [label="node #677\nrel_stoich_wad <= 0.3623\ngini = 0.4717\nsamples = 0.2%\nvalue = [0.619, 0.381]", fillcolor="#f5cfb3"] ;
676 -> 677 ;
678 [label="node #678\ngini = 0.4767\nsamples = 0.1%\nvalue = [0.3922, 0.6078]", fillcolor="#b9dcf6"] ;
677 -> 678 ;
679 [label="node #679\ngini = 0.405\nsamples = 0.1%\nvalue = [0.7179, 0.2821]", fillcolor="#efb287"] ;
677 -> 679 ;
680 [label="node #680\nrel_stoich_wa <= 0.3401\ngini = 0.2882\nsamples = 0.1%\nvalue = [0.1746, 0.8254]", fillcolor="#63b2ea"] ;
676 -> 680 ;
681 [label="node #681\ngini = 0.0\nsamples = 0.0%\nvalue = [1.0, 0.0]", fillcolor="#e58139"] ;
680 -> 681 ;
682 [label="node #682\ngini = 0.1327\nsamples = 0.1%\nvalue = [0.0714, 0.9286]", fillcolor="#48a5e7"] ;
680 -> 682 ;
683 [label="node #683\natomic_number_wad <= 71.8661\ngini = 0.2739\nsamples = 6.5%\nvalue = [0.8363, 0.1637]", fillcolor="#ea9a60"] ;
651 -> 683 ;
684 [label="node #684\natomic_number_wa <= 54.6833\ngini = 0.2276\nsamples = 4.8%\nvalue = [0.8691, 0.1309]", fillcolor="#e99457"] ;
683 -> 684 ;
685 [label="node #685\natomic_r_covalent_wad <= 1.4717\ngini = 0.2116\nsamples = 4.6%\nvalue = [0.8797, 0.1203]", fillcolor="#e99254"] ;
684 -> 685 ;
686 [label="node #686\natomic_volume_wa <= 23.844\ngini = 0.2621\nsamples = 2.2%\nvalue = [0.8449, 0.1551]", fillcolor="#ea985d"] ;
685 -> 686 ;
687 [label="node #687\ngini = 0.3449\nsamples = 0.7%\nvalue = [0.7785, 0.2215]", fillcolor="#eca571"] ;
686 -> 687 ;
688 [label="node #688\ngini = 0.2162\nsamples = 1.5%\nvalue = [0.8767, 0.1233]", fillcolor="#e99355"] ;
686 -> 688 ;
689 [label="node #689\natomic_volume_wad <= 15.0143\ngini = 0.1606\nsamples = 2.4%\nvalue = [0.9119, 0.0881]", fillcolor="#e88d4c"] ;
685 -> 689 ;
690 [label="node #690\ngini = 0.4444\nsamples = 0.0%\nvalue = [0.3333, 0.6667]", fillcolor="#9ccef2"] ;
689 -> 690 ;
691 [label="node #691\ngini = 0.1564\nsamples = 2.4%\nvalue = [0.9145, 0.0855]", fillcolor="#e78d4c"] ;
689 -> 691 ;
692 [label="node #692\natomic_volume_wa <= 33.743\ngini = 0.4969\nsamples = 0.2%\nvalue = [0.5397, 0.4603]", fillcolor="#fbece2"] ;
684 -> 692 ;
693 [label="node #693\natomic_r_covalent_wad <= 0.748\ngini = 0.4943\nsamples = 0.1%\nvalue = [0.4466, 0.5534]", fillcolor="#d9ecfa"] ;
692 -> 693 ;
694 [label="node #694\ngini = 0.0\nsamples = 0.0%\nvalue = [1.0, 0.0]", fillcolor="#e58139"] ;
693 -> 694 ;
695 [label="node #695\ngini = 0.4714\nsamples = 0.1%\nvalue = [0.3804, 0.6196]", fillcolor="#b3d9f5"] ;
693 -> 695 ;
696 [label="node #696\natomic_number_wad <= 55.875\ngini = 0.0832\nsamples = 0.0%\nvalue = [0.9565, 0.0435]", fillcolor="#e68742"] ;
692 -> 696 ;
697 [label="node #697\ngini = 0.0\nsamples = 0.0%\nvalue = [1.0, 0.0]", fillcolor="#e58139"] ;
696 -> 697 ;
698 [label="node #698\ngini = 0.0\nsamples = 0.0%\nvalue = [0.0, 1.0]", fillcolor="#399de5"] ;
696 -> 698 ;
699 [label="node #699\natomic_number_wa <= 26.8812\ngini = 0.3767\nsamples = 1.8%\nvalue = [0.7483, 0.2517]", fillcolor="#eeab7c"] ;
683 -> 699 ;
700 [label="node #700\natomic_volume_wad <= 17.8245\ngini = 0.2315\nsamples = 0.6%\nvalue = [0.8664, 0.1336]", fillcolor="#e99458"] ;
699 -> 700 ;
701 [label="node #701\ngini = 0.0\nsamples = 0.0%\nvalue = [0.0, 1.0]", fillcolor="#399de5"] ;
700 -> 701 ;
702 [label="node #702\natomic_ionization_potential_wa <= 9.8808\ngini = 0.2161\nsamples = 0.6%\nvalue = [0.8767, 0.1233]", fillcolor="#e99355"] ;
700 -> 702 ;
703 [label="node #703\ngini = 0.0194\nsamples = 0.1%\nvalue = [0.9902, 0.0098]", fillcolor="#e5823b"] ;
702 -> 703 ;
704 [label="node #704\ngini = 0.258\nsamples = 0.5%\nvalue = [0.8479, 0.1521]", fillcolor="#ea985d"] ;
702 -> 704 ;
705 [label="node #705\natomic_volume_wad <= 55.731\ngini = 0.4296\nsamples = 1.2%\nvalue = [0.6876, 0.3124]", fillcolor="#f1ba93"] ;
699 -> 705 ;
706 [label="node #706\natomic_number_wa <= 51.48\ngini = 0.4748\nsamples = 0.7%\nvalue = [0.6122, 0.3878]", fillcolor="#f5d1b6"] ;
705 -> 706 ;
707 [label="node #707\ngini = 0.4672\nsamples = 0.6%\nvalue = [0.628, 0.372]", fillcolor="#f4ccae"] ;
706 -> 707 ;
708 [label="node #708\ngini = 0.0\nsamples = 0.0%\nvalue = [0.0, 1.0]", fillcolor="#399de5"] ;
706 -> 708 ;
709 [label="node #709\nrel_stoich_wa <= 0.4198\ngini = 0.3379\nsamples = 0.5%\nvalue = [0.7847, 0.2153]", fillcolor="#eca46f"] ;
705 -> 709 ;
710 [label="node #710\ngini = 0.178\nsamples = 0.2%\nvalue = [0.9012, 0.0988]", fillcolor="#e88f4f"] ;
709 -> 710 ;
711 [label="node #711\ngini = 0.4077\nsamples = 0.3%\nvalue = [0.7148, 0.2852]", fillcolor="#efb388"] ;
709 -> 711 ;
712 [label="node #712\natomic_number_wa <= 11.2639\ngini = 0.2577\nsamples = 32.8%\nvalue = [0.8481, 0.1519]", fillcolor="#ea985c"] ;
452 -> 712 ;
713 [label="node #713\natomic_r_covalent_wa <= 0.7906\ngini = 0.1252\nsamples = 10.7%\nvalue = [0.9329, 0.0671]", fillcolor="#e78a47"] ;
712 -> 713 ;
714 [label="node #714\nrel_stoich_wa <= 0.7785\ngini = 0.0363\nsamples = 4.3%\nvalue = [0.9815, 0.0185]", fillcolor="#e5833d"] ;
713 -> 714 ;
715 [label="node #715\natomic_number_wa <= 8.2198\ngini = 0.0337\nsamples = 4.3%\nvalue = [0.9828, 0.0172]", fillcolor="#e5833c"] ;
714 -> 715 ;
716 [label="node #716\natomic_number_wad <= 104.3598\ngini = 0.0125\nsamples = 2.8%\nvalue = [0.9937, 0.0063]", fillcolor="#e5823a"] ;
715 -> 716 ;
717 [label="node #717\natomic_number_wad <= 39.0577\ngini = 0.011\nsamples = 2.7%\nvalue = [0.9945, 0.0055]", fillcolor="#e5823a"] ;
716 -> 717 ;
718 [label="node #718\natomic_r_covalent_wad <= 2.5982\ngini = 0.0028\nsamples = 1.7%\nvalue = [0.9986, 0.0014]", fillcolor="#e58139"] ;
717 -> 718 ;
719 [label="node #719\natomic_volume_wad <= 26.7318\ngini = 0.0014\nsamples = 1.6%\nvalue = [0.9993, 0.0007]", fillcolor="#e58139"] ;
718 -> 719 ;
720 [label="node #720\ngini = 0.0\nsamples = 1.5%\nvalue = [1.0, 0.0]", fillcolor="#e58139"] ;
719 -> 720 ;
721 [label="node #721\ngini = 0.0152\nsamples = 0.1%\nvalue = [0.9924, 0.0076]", fillcolor="#e5823b"] ;
719 -> 721 ;
722 [label="node #722\natomic_r_covalent_wad <= 2.6043\ngini = 0.0328\nsamples = 0.1%\nvalue = [0.9833, 0.0167]", fillcolor="#e5833c"] ;
718 -> 722 ;
723 [label="node #723\ngini = 0.0\nsamples = 0.0%\nvalue = [0.0, 1.0]", fillcolor="#399de5"] ;
722 -> 723 ;
724 [label="node #724\ngini = 0.0\nsamples = 0.1%\nvalue = [1.0, 0.0]", fillcolor="#e58139"] ;
722 -> 724 ;
725 [label="node #725\natomic_number_wad <= 39.1202\ngini = 0.0236\nsamples = 1.0%\nvalue = [0.9881, 0.0119]", fillcolor="#e5833b"] ;
717 -> 725 ;
726 [label="node #726\ngini = 0.0\nsamples = 0.0%\nvalue = [0.0, 1.0]", fillcolor="#399de5"] ;
725 -> 726 ;
727 [label="node #727\natomic_ionization_potential_wad <= 6.5575\ngini = 0.0215\nsamples = 1.0%\nvalue = [0.9891, 0.0109]", fillcolor="#e5823b"] ;
725 -> 727 ;
728 [label="node #728\ngini = 0.2688\nsamples = 0.0%\nvalue = [0.84, 0.16]", fillcolor="#ea995f"] ;
727 -> 728 ;
729 [label="node #729\ngini = 0.0133\nsamples = 1.0%\nvalue = [0.9933, 0.0067]", fillcolor="#e5823a"] ;
727 -> 729 ;
730 [label="node #730\natomic_number_wad <= 104.5625\ngini = 0.142\nsamples = 0.0%\nvalue = [0.9231, 0.0769]", fillcolor="#e78c49"] ;
716 -> 730 ;
731 [label="node #731\ngini = 0.0\nsamples = 0.0%\nvalue = [0.0, 1.0]", fillcolor="#399de5"] ;
730 -> 731 ;
732 [label="node #732\nrel_stoich_wa <= 0.4776\ngini = 0.0768\nsamples = 0.0%\nvalue = [0.96, 0.04]", fillcolor="#e68641"] ;
730 -> 732 ;
733 [label="node #733\ngini = 0.0\nsamples = 0.0%\nvalue = [1.0, 0.0]", fillcolor="#e58139"] ;
732 -> 733 ;
734 [label="node #734\ngini = 0.0\nsamples = 0.0%\nvalue = [0.0, 1.0]", fillcolor="#399de5"] ;
732 -> 734 ;
735 [label="node #735\natomic_number_wa <= 8.2268\ngini = 0.0719\nsamples = 1.5%\nvalue = [0.9626, 0.0374]", fillcolor="#e68641"] ;
715 -> 735 ;
736 [label="node #736\natomic_ionization_potential_wa <= 13.2394\ngini = 0.4938\nsamples = 0.0%\nvalue = [0.4444, 0.5556]", fillcolor="#d7ebfa"] ;
735 -> 736 ;
737 [label="node #737\ngini = 0.0\nsamples = 0.0%\nvalue = [1.0, 0.0]", fillcolor="#e58139"] ;
736 -> 737 ;
738 [label="node #738\ngini = 0.0\nsamples = 0.0%\nvalue = [0.0, 1.0]", fillcolor="#399de5"] ;
736 -> 738 ;
739 [label="node #739\nrel_stoich_wad <= 0.2531\ngini = 0.0651\nsamples = 1.5%\nvalue = [0.9663, 0.0337]", fillcolor="#e68540"] ;
735 -> 739 ;
740 [label="node #740\natomic_number_wad <= 28.8\ngini = 0.3299\nsamples = 0.0%\nvalue = [0.7917, 0.2083]", fillcolor="#eca26d"] ;
739 -> 740 ;
741 [label="node #741\ngini = 0.0\nsamples = 0.0%\nvalue = [1.0, 0.0]", fillcolor="#e58139"] ;
740 -> 741 ;
742 [label="node #742\natomic_r_covalent_wad <= 0.978\ngini = 0.4959\nsamples = 0.0%\nvalue = [0.5455, 0.4545]", fillcolor="#fbeade"] ;
740 -> 742 ;
743 [label="node #743\ngini = 0.0\nsamples = 0.0%\nvalue = [1.0, 0.0]", fillcolor="#e58139"] ;
742 -> 743 ;
744 [label="node #744\ngini = 0.2778\nsamples = 0.0%\nvalue = [0.1667, 0.8333]", fillcolor="#61b1ea"] ;
742 -> 744 ;
745 [label="node #745\natomic_pauling_electronegativity_wa <= 2.7267\ngini = 0.0589\nsamples = 1.5%\nvalue = [0.9696, 0.0304]", fillcolor="#e6853f"] ;
739 -> 745 ;
746 [label="node #746\natomic_volume_wa <= 11.1394\ngini = 0.0093\nsamples = 0.5%\nvalue = [0.9953, 0.0047]", fillcolor="#e5823a"] ;
745 -> 746 ;
747 [label="node #747\ngini = 0.5\nsamples = 0.0%\nvalue = [0.5, 0.5]", fillcolor="#ffffff"] ;
746 -> 747 ;
748 [label="node #748\ngini = 0.0047\nsamples = 0.5%\nvalue = [0.9977, 0.0023]", fillcolor="#e58139"] ;
746 -> 748 ;
749 [label="node #749\natomic_pauling_electronegativity_wa <= 2.7274\ngini = 0.0836\nsamples = 1.0%\nvalue = [0.9563, 0.0437]", fillcolor="#e68742"] ;
745 -> 749 ;
750 [label="node #750\ngini = 0.32\nsamples = 0.0%\nvalue = [0.2, 0.8]", fillcolor="#6ab6ec"] ;
749 -> 750 ;
751 [label="node #751\ngini = 0.0751\nsamples = 1.0%\nvalue = [0.9609, 0.0391]", fillcolor="#e68641"] ;
749 -> 751 ;
752 [label="node #752\natomic_r_covalent_wa <= 0.7686\ngini = 0.4688\nsamples = 0.0%\nvalue = [0.375, 0.625]", fillcolor="#b0d8f5"] ;
714 -> 752 ;
753 [label="node #753\ngini = 0.0\nsamples = 0.0%\nvalue = [0.0, 1.0]", fillcolor="#399de5"] ;
752 -> 753 ;
754 [label="node #754\ngini = 0.5\nsamples = 0.0%\nvalue = [0.5, 0.5]", fillcolor="#ffffff"] ;
752 -> 754 ;
755 [label="node #755\nrel_stoich_wad <= 1.2816\ngini = 0.1804\nsamples = 6.4%\nvalue = [0.8998, 0.1002]", fillcolor="#e88f4f"] ;
713 -> 755 ;
756 [label="node #756\natomic_r_covalent_wa <= 0.7911\ngini = 0.1394\nsamples = 4.6%\nvalue = [0.9246, 0.0754]", fillcolor="#e78b49"] ;
755 -> 756 ;
757 [label="node #757\nrel_stoich_wad <= 0.9435\ngini = 0.2778\nsamples = 0.0%\nvalue = [0.1667, 0.8333]", fillcolor="#61b1ea"] ;
756 -> 757 ;
758 [label="node #758\ngini = 0.0\nsamples = 0.0%\nvalue = [1.0, 0.0]", fillcolor="#e58139"] ;
757 -> 758 ;
759 [label="node #759\ngini = 0.0\nsamples = 0.0%\nvalue = [0.0, 1.0]", fillcolor="#399de5"] ;
757 -> 759 ;
760 [label="node #760\natomic_r_covalent_wad <= 0.445\ngini = 0.1374\nsamples = 4.6%\nvalue = [0.9258, 0.0742]", fillcolor="#e78b49"] ;
756 -> 760 ;
761 [label="node #761\natomic_volume_wad <= 14.605\ngini = 0.4444\nsamples = 0.0%\nvalue = [0.3333, 0.6667]", fillcolor="#9ccef2"] ;
760 -> 761 ;
762 [label="node #762\ngini = 0.0\nsamples = 0.0%\nvalue = [1.0, 0.0]", fillcolor="#e58139"] ;
761 -> 762 ;
763 [label="node #763\ngini = 0.0\nsamples = 0.0%\nvalue = [0.0, 1.0]", fillcolor="#399de5"] ;
761 -> 763 ;
764 [label="node #764\natomic_r_covalent_wa <= 1.095\ngini = 0.135\nsamples = 4.6%\nvalue = [0.9272, 0.0728]", fillcolor="#e78b49"] ;
760 -> 764 ;
765 [label="node #765\nrel_stoich_wad <= 0.9233\ngini = 0.1338\nsamples = 4.6%\nvalue = [0.9279, 0.0721]", fillcolor="#e78b48"] ;
764 -> 765 ;
