digraph Tree {
node [shape=box, style="filled, rounded", color="black", fontname=helvetica] ;
edge [fontname=helvetica] ;
0 [label="node #0\natomic_pauling_electronegativity_wad <= 1.5378\ngini = 0.492\nsamples = 100.0%\nvalue = [0.5634, 0.4366]", fillcolor="#f9e3d2"] ;
1 [label="node #1\natomic_ionization_potential_wa <= 9.1333\ngini = 0.2978\nsamples = 35.1%\nvalue = [0.182, 0.818]", fillcolor="#65b3eb"] ;
0 -> 1 [labeldistance=2.5, labelangle=45, headlabel="True"] ;
2 [label="node #2\natomic_pauling_electronegativity_wa <= 2.0731\ngini = 0.1986\nsamples = 30.8%\nvalue = [0.1118, 0.8882]", fillcolor="#52a9e8"] ;
1 -> 2 ;
3 [label="node #3\natomic_volume_wad <= 35.2479\ngini = 0.1479\nsamples = 27.3%\nvalue = [0.0804, 0.9196]", fillcolor="#4aa6e7"] ;
2 -> 3 ;
4 [label="node #4\natomic_volume_wa <= 15.3542\ngini = 0.1378\nsamples = 26.9%\nvalue = [0.0745, 0.9255]", fillcolor="#49a5e7"] ;
3 -> 4 ;
5 [label="node #5\natomic_r_covalent_wa <= 0.9405\ngini = 0.093\nsamples = 19.1%\nvalue = [0.0489, 0.9511]", fillcolor="#43a2e6"] ;
4 -> 5 ;
6 [label="node #6\natomic_pauling_electronegativity_wa <= 1.9882\ngini = 0.4612\nsamples = 0.1%\nvalue = [0.6393, 0.3607]", fillcolor="#f4c8a9"] ;
5 -> 6 ;
7 [label="node #7\natomic_volume_wa <= 5.8125\ngini = 0.4444\nsamples = 0.0%\nvalue = [0.3333, 0.6667]", fillcolor="#9ccef2"] ;
6 -> 7 ;
8 [label="node #8\natomic_ionization_potential_wad <= 1.194\ngini = 0.1723\nsamples = 0.0%\nvalue = [0.0952, 0.9048]", fillcolor="#4ea7e8"] ;
7 -> 8 ;
9 [label="node #9\ngini = 0.0\nsamples = 0.0%\nvalue = [1.0, 0.0]", fillcolor="#e58139"] ;
8 -> 9 ;
10 [label="node #10\natomic_volume_wad <= 19.3137\ngini = 0.095\nsamples = 0.0%\nvalue = [0.05, 0.95]", fillcolor="#43a2e6"] ;
8 -> 10 ;
11 [label="node #11\ngini = 0.0\nsamples = 0.0%\nvalue = [0.0, 1.0]", fillcolor="#399de5"] ;
10 -> 11 ;
12 [label="node #12\ngini = 0.5\nsamples = 0.0%\nvalue = [0.5, 0.5]", fillcolor="#ffffff"] ;
10 -> 12 ;
13 [label="node #13\natomic_volume_wa <= 8.0187\ngini = 0.1975\nsamples = 0.0%\nvalue = [0.8889, 0.1111]", fillcolor="#e89152"] ;
7 -> 13 ;
14 [label="node #14\ngini = 0.0\nsamples = 0.0%\nvalue = [1.0, 0.0]", fillcolor="#e58139"] ;
13 -> 14 ;
15 [label="node #15\ngini = 0.0\nsamples = 0.0%\nvalue = [0.0, 1.0]", fillcolor="#399de5"] ;
13 -> 15 ;
16 [label="node #16\nrel_stoich_wa <= 0.8442\ngini = 0.1207\nsamples = 0.0%\nvalue = [0.9355, 0.0645]", fillcolor="#e78a47"] ;
6 -> 16 ;
17 [label="node #17\ngini = 0.0\nsamples = 0.0%\nvalue = [1.0, 0.0]", fillcolor="#e58139"] ;
16 -> 17 ;
18 [label="node #18\natomic_volume_wad <= 6.315\ngini = 0.3457\nsamples = 0.0%\nvalue = [0.7778, 0.2222]", fillcolor="#eca572"] ;
16 -> 18 ;
19 [label="node #19\ngini = 0.2188\nsamples = 0.0%\nvalue = [0.875, 0.125]", fillcolor="#e99355"] ;
18 -> 19 ;
20 [label="node #20\ngini = 0.0\nsamples = 0.0%\nvalue = [0.0, 1.0]", fillcolor="#399de5"] ;
18 -> 20 ;
21 [label="node #21\nrel_stoich_wa <= 0.958\ngini = 0.0889\nsamples = 19.0%\nvalue = [0.0466, 0.9534]", fillcolor="#43a2e6"] ;
5 -> 21 ;
22 [label="node #22\natomic_ionization_potential_wa <= 8.1705\ngini = 0.0839\nsamples = 18.8%\nvalue = [0.0439, 0.9561]", fillcolor="#42a1e6"] ;
21 -> 22 ;
23 [label="node #23\natomic_r_covalent_wa <= 1.301\ngini = 0.0717\nsamples = 16.3%\nvalue = [0.0373, 0.9627]", fillcolor="#41a1e6"] ;
22 -> 23 ;
24 [label="node #24\natomic_volume_wa <= 12.8436\ngini = 0.1375\nsamples = 2.4%\nvalue = [0.0743, 0.9257]", fillcolor="#49a5e7"] ;
23 -> 24 ;
25 [label="node #25\ngini = 0.103\nsamples = 2.3%\nvalue = [0.0545, 0.9455]", fillcolor="#44a3e6"] ;
24 -> 25 ;
26 [label="node #26\ngini = 0.4878\nsamples = 0.1%\nvalue = [0.422, 0.578]", fillcolor="#cae5f8"] ;
24 -> 26 ;
27 [label="node #27\nrel_stoich_wa <= 0.343\ngini = 0.06\nsamples = 13.9%\nvalue = [0.031, 0.969]", fillcolor="#3fa0e6"] ;
23 -> 27 ;
28 [label="node #28\ngini = 0.1171\nsamples = 2.1%\nvalue = [0.0625, 0.9375]", fillcolor="#46a4e7"] ;
27 -> 28 ;
29 [label="node #29\ngini = 0.0497\nsamples = 11.9%\nvalue = [0.0255, 0.9745]", fillcolor="#3ea0e6"] ;
27 -> 29 ;
30 [label="node #30\natomic_volume_wa <= 13.2256\ngini = 0.1606\nsamples = 2.5%\nvalue = [0.0881, 0.9119]", fillcolor="#4ca6e8"] ;
22 -> 30 ;
31 [label="node #31\natomic_volume_wa <= 11.7905\ngini = 0.0891\nsamples = 1.9%\nvalue = [0.0467, 0.9533]", fillcolor="#43a2e6"] ;
30 -> 31 ;
32 [label="node #32\ngini = 0.0614\nsamples = 1.5%\nvalue = [0.0317, 0.9683]", fillcolor="#3fa0e6"] ;
31 -> 32 ;
33 [label="node #33\ngini = 0.1889\nsamples = 0.4%\nvalue = [0.1056, 0.8944]", fillcolor="#50a9e8"] ;
31 -> 33 ;
34 [label="node #34\natomic_number_wa <= 23.25\ngini = 0.3403\nsamples = 0.6%\nvalue = [0.2174, 0.7826]", fillcolor="#70b8ec"] ;
30 -> 34 ;
35 [label="node #35\ngini = 0.355\nsamples = 0.0%\nvalue = [0.7692, 0.2308]", fillcolor="#eda774"] ;
34 -> 35 ;
36 [label="node #36\ngini = 0.3047\nsamples = 0.6%\nvalue = [0.1875, 0.8125]", fillcolor="#67b4eb"] ;
34 -> 36 ;
37 [label="node #37\natomic_number_wa <= 17.5\ngini = 0.465\nsamples = 0.2%\nvalue = [0.3676, 0.6324]", fillcolor="#acd6f4"] ;
21 -> 37 ;
38 [label="node #38\natomic_number_wa <= 12.01\ngini = 0.2221\nsamples = 0.1%\nvalue = [0.8727, 0.1273]", fillcolor="#e99356"] ;
37 -> 38 ;
39 [label="node #39\natomic_volume_wad <= 1.78\ngini = 0.42\nsamples = 0.0%\nvalue = [0.3, 0.7]", fillcolor="#8ec7f0"] ;
38 -> 39 ;
40 [label="node #40\ngini = 0.0\nsamples = 0.0%\nvalue = [0.0, 1.0]", fillcolor="#399de5"] ;
39 -> 40 ;
41 [label="node #41\ngini = 0.0\nsamples = 0.0%\nvalue = [1.0, 0.0]", fillcolor="#e58139"] ;
39 -> 41 ;
42 [label="node #42\ngini = 0.0\nsamples = 0.1%\nvalue = [1.0, 0.0]", fillcolor="#e58139"] ;
38 -> 42 ;
43 [label="node #43\natomic_r_covalent_wa <= 1.21\ngini = 0.0482\nsamples = 0.1%\nvalue = [0.0247, 0.9753]", fillcolor="#3e9fe6"] ;
37 -> 43 ;
44 [label="node #44\ngini = 0.48\nsamples = 0.0%\nvalue = [0.4, 0.6]", fillcolor="#bddef6"] ;
43 -> 44 ;
45 [label="node #45\ngini = 0.0\nsamples = 0.1%\nvalue = [0.0, 1.0]", fillcolor="#399de5"] ;
43 -> 45 ;
46 [label="node #46\natomic_r_covalent_wa <= 1.4271\ngini = 0.237\nsamples = 7.9%\nvalue = [0.1374, 0.8626]", fillcolor="#59ade9"] ;
4 -> 46 ;
47 [label="node #47\natomic_ionization_potential_wad <= 4.0575\ngini = 0.4933\nsamples = 0.9%\nvalue = [0.4419, 0.5581]", fillcolor="#d6ebfa"] ;
46 -> 47 ;
48 [label="node #48\natomic_ionization_potential_wa <= 7.7434\ngini = 0.4296\nsamples = 0.6%\nvalue = [0.3124, 0.6876]", fillcolor="#93caf1"] ;
47 -> 48 ;
49 [label="node #49\natomic_number_wa <= 58.625\ngini = 0.2346\nsamples = 0.3%\nvalue = [0.1357, 0.8643]", fillcolor="#58ace9"] ;
48 -> 49 ;
50 [label="node #50\natomic_number_wad <= 93.625\ngini = 0.1668\nsamples = 0.3%\nvalue = [0.0918, 0.9082]", fillcolor="#4da7e8"] ;
49 -> 50 ;
51 [label="node #51\ngini = 0.1275\nsamples = 0.2%\nvalue = [0.0684, 0.9316]", fillcolor="#48a4e7"] ;
50 -> 51 ;
52 [label="node #52\ngini = 0.2778\nsamples = 0.0%\nvalue = [0.8333, 0.1667]", fillcolor="#ea9a61"] ;
50 -> 52 ;
53 [label="node #53\nrel_stoich_wa <= 0.4805\ngini = 0.4992\nsamples = 0.0%\nvalue = [0.48, 0.52]", fillcolor="#f0f7fd"] ;
49 -> 53 ;
54 [label="node #54\ngini = 0.0\nsamples = 0.0%\nvalue = [1.0, 0.0]", fillcolor="#e58139"] ;
53 -> 54 ;
55 [label="node #55\ngini = 0.0\nsamples = 0.0%\nvalue = [0.0, 1.0]", fillcolor="#399de5"] ;
53 -> 55 ;
56 [label="node #56\natomic_volume_wad <= 4.6237\ngini = 0.4996\nsamples = 0.3%\nvalue = [0.4866, 0.5134]", fillcolor="#f5fafe"] ;
48 -> 56 ;
57 [label="node #57\natomic_volume_wa <= 18.3\ngini = 0.2408\nsamples = 0.0%\nvalue = [0.14, 0.86]", fillcolor="#59ade9"] ;
56 -> 57 ;
58 [label="node #58\ngini = 0.1219\nsamples = 0.0%\nvalue = [0.0652, 0.9348]", fillcolor="#47a4e7"] ;
57 -> 58 ;
59 [label="node #59\ngini = 0.0\nsamples = 0.0%\nvalue = [1.0, 0.0]", fillcolor="#e58139"] ;
57 -> 59 ;
60 [label="node #60\natomic_volume_wa <= 16.1289\ngini = 0.4851\nsamples = 0.2%\nvalue = [0.5862, 0.4138]", fillcolor="#f7dac5"] ;
56 -> 60 ;
61 [label="node #61\ngini = 0.4636\nsamples = 0.1%\nvalue = [0.3651, 0.6349]", fillcolor="#abd5f4"] ;
60 -> 61 ;
62 [label="node #62\ngini = 0.4104\nsamples = 0.1%\nvalue = [0.7117, 0.2883]", fillcolor="#f0b489"] ;
60 -> 62 ;
63 [label="node #63\natomic_volume_wad <= 29.7071\ngini = 0.4654\nsamples = 0.4%\nvalue = [0.6316, 0.3684]", fillcolor="#f4caac"] ;
47 -> 63 ;
64 [label="node #64\nrel_stoich_wa <= 0.6232\ngini = 0.4286\nsamples = 0.3%\nvalue = [0.6889, 0.3111]", fillcolor="#f1ba92"] ;
63 -> 64 ;
65 [label="node #65\natomic_volume_wa <= 16.2794\ngini = 0.4024\nsamples = 0.3%\nvalue = [0.7209, 0.2791]", fillcolor="#efb286"] ;
64 -> 65 ;
66 [label="node #66\ngini = 0.4999\nsamples = 0.1%\nvalue = [0.506, 0.494]", fillcolor="#fefcfa"] ;
65 -> 66 ;
67 [label="node #67\ngini = 0.2915\nsamples = 0.2%\nvalue = [0.8229, 0.1771]", fillcolor="#eb9c64"] ;
65 -> 67 ;
68 [label="node #68\ngini = 0.0\nsamples = 0.0%\nvalue = [0.0, 1.0]", fillcolor="#399de5"] ;
64 -> 68 ;
69 [label="node #69\natomic_ionization_potential_wad <= 6.8178\ngini = 0.2907\nsamples = 0.0%\nvalue = [0.1765, 0.8235]", fillcolor="#63b2eb"] ;
63 -> 69 ;
70 [label="node #70\ngini = 0.0\nsamples = 0.0%\nvalue = [0.0, 1.0]", fillcolor="#399de5"] ;
69 -> 70 ;
71 [label="node #71\ngini = 0.0\nsamples = 0.0%\nvalue = [1.0, 0.0]", fillcolor="#e58139"] ;
69 -> 71 ;
72 [label="node #72\natomic_pauling_electronegativity_wad <= 0.9487\ngini = 0.1773\nsamples = 7.0%\nvalue = [0.0983, 0.9017]", fillcolor="#4fa8e8"] ;
46 -> 72 ;
73 [label="node #73\natomic_pauling_electronegativity_wa <= 1.7033\ngini = 0.0592\nsamples = 3.8%\nvalue = [0.0306, 0.9694]", fillcolor="#3fa0e6"] ;
72 -> 73 ;
74 [label="node #74\natomic_volume_wad <= 13.2886\ngini = 0.0402\nsamples = 3.3%\nvalue = [0.0205, 0.9795]", fillcolor="#3d9fe6"] ;
73 -> 74 ;
75 [label="node #75\natomic_number_wad <= 89.625\ngini = 0.0213\nsamples = 2.6%\nvalue = [0.0107, 0.9893]", fillcolor="#3b9ee5"] ;
74 -> 75 ;
76 [label="node #76\ngini = 0.0187\nsamples = 2.5%\nvalue = [0.0094, 0.9906]", fillcolor="#3b9ee5"] ;
75 -> 76 ;
77 [label="node #77\ngini = 0.2188\nsamples = 0.0%\nvalue = [0.125, 0.875]", fillcolor="#55abe9"] ;
75 -> 77 ;
78 [label="node #78\natomic_number_wad <= 6.5\ngini = 0.1056\nsamples = 0.7%\nvalue = [0.0559, 0.9441]", fillcolor="#45a3e7"] ;
74 -> 78 ;
79 [label="node #79\ngini = 0.2449\nsamples = 0.0%\nvalue = [0.8571, 0.1429]", fillcolor="#e9965a"] ;
78 -> 79 ;
80 [label="node #80\ngini = 0.0883\nsamples = 0.7%\nvalue = [0.0463, 0.9537]", fillcolor="#43a2e6"] ;
78 -> 80 ;
81 [label="node #81\natomic_pauling_electronegativity_wa <= 1.7048\ngini = 0.1676\nsamples = 0.5%\nvalue = [0.0923, 0.9077]", fillcolor="#4da7e8"] ;
73 -> 81 ;
82 [label="node #82\ngini = 0.0\nsamples = 0.0%\nvalue = [1.0, 0.0]", fillcolor="#e58139"] ;
81 -> 82 ;
83 [label="node #83\natomic_number_wa <= 40.4744\ngini = 0.1575\nsamples = 0.5%\nvalue = [0.0862, 0.9138]", fillcolor="#4ca6e7"] ;
81 -> 83 ;
84 [label="node #84\ngini = 0.5\nsamples = 0.0%\nvalue = [0.5, 0.5]", fillcolor="#ffffff"] ;
83 -> 84 ;
85 [label="node #85\ngini = 0.1347\nsamples = 0.5%\nvalue = [0.0726, 0.9274]", fillcolor="#48a5e7"] ;
83 -> 85 ;
86 [label="node #86\natomic_number_wa <= 36.0263\ngini = 0.2939\nsamples = 3.1%\nvalue = [0.179, 0.821]", fillcolor="#64b2eb"] ;
72 -> 86 ;
87 [label="node #87\natomic_volume_wa <= 20.9163\ngini = 0.4679\nsamples = 0.5%\nvalue = [0.3733, 0.6267]", fillcolor="#afd7f4"] ;
86 -> 87 ;
88 [label="node #88\natomic_ionization_potential_wad <= 3.4605\ngini = 0.3094\nsamples = 0.3%\nvalue = [0.1913, 0.8087]", fillcolor="#68b4eb"] ;
87 -> 88 ;
89 [label="node #89\ngini = 0.1362\nsamples = 0.2%\nvalue = [0.0735, 0.9265]", fillcolor="#49a5e7"] ;
88 -> 89 ;
90 [label="node #90\ngini = 0.4617\nsamples = 0.1%\nvalue = [0.3617, 0.6383]", fillcolor="#a9d5f4"] ;
88 -> 90 ;
91 [label="node #91\natomic_ionization_potential_wad <= 2.8699\ngini = 0.436\nsamples = 0.2%\nvalue = [0.6788, 0.3212]", fillcolor="#f1bd97"] ;
87 -> 91 ;
92 [label="node #92\ngini = 0.4244\nsamples = 0.1%\nvalue = [0.3056, 0.6944]", fillcolor="#90c8f0"] ;
91 -> 92 ;
93 [label="node #93\ngini = 0.3055\nsamples = 0.1%\nvalue = [0.8119, 0.1881]", fillcolor="#eb9e67"] ;
91 -> 93 ;
94 [label="node #94\natomic_pauling_electronegativity_wa <= 1.9475\ngini = 0.2521\nsamples = 2.7%\nvalue = [0.148, 0.852]", fillcolor="#5baeea"] ;
86 -> 94 ;
95 [label="node #95\natomic_r_covalent_wa <= 1.5613\ngini = 0.2252\nsamples = 2.5%\nvalue = [0.1294, 0.8706]", fillcolor="#56ace9"] ;
94 -> 95 ;
96 [label="node #96\ngini = 0.3251\nsamples = 0.8%\nvalue = [0.2043, 0.7957]", fillcolor="#6cb6ec"] ;
95 -> 96 ;
97 [label="node #97\ngini = 0.1702\nsamples = 1.7%\nvalue = [0.0939, 0.9061]", fillcolor="#4ea7e8"] ;
95 -> 97 ;
98 [label="node #98\natomic_number_wa <= 49.15\ngini = 0.4999\nsamples = 0.1%\nvalue = [0.4915, 0.5085]", fillcolor="#f8fcfe"] ;
94 -> 98 ;
99 [label="node #99\ngini = 0.3885\nsamples = 0.1%\nvalue = [0.7361, 0.2639]", fillcolor="#eeae80"] ;
98 -> 99 ;
100 [label="node #100\ngini = 0.1938\nsamples = 0.1%\nvalue = [0.1087, 0.8913]", fillcolor="#51a9e8"] ;
98 -> 100 ;
101 [label="node #101\natomic_volume_wa <= 20.3624\ngini = 0.4996\nsamples = 0.4%\nvalue = [0.485, 0.515]", fillcolor="#f3f9fd"] ;
3 -> 101 ;
102 [label="node #102\natomic_volume_wad <= 63.9583\ngini = 0.2321\nsamples = 0.1%\nvalue = [0.134, 0.866]", fillcolor="#58ace9"] ;
101 -> 102 ;
103 [label="node #103\natomic_r_covalent_wad <= 0.9782\ngini = 0.1901\nsamples = 0.1%\nvalue = [0.1064, 0.8936]", fillcolor="#51a9e8"] ;
102 -> 103 ;
104 [label="node #104\natomic_pauling_electronegativity_wa <= 1.8808\ngini = 0.3944\nsamples = 0.0%\nvalue = [0.2703, 0.7297]", fillcolor="#82c1ef"] ;
103 -> 104 ;
105 [label="node #105\natomic_r_covalent_wa <= 1.4722\ngini = 0.2637\nsamples = 0.0%\nvalue = [0.1562, 0.8438]", fillcolor="#5eafea"] ;
104 -> 105 ;
106 [label="node #106\natomic_r_covalent_wa <= 1.4176\ngini = 0.18\nsamples = 0.0%\nvalue = [0.1, 0.9]", fillcolor="#4fa8e8"] ;
105 -> 106 ;
107 [label="node #107\ngini = 0.4898\nsamples = 0.0%\nvalue = [0.4286, 0.5714]", fillcolor="#cee6f8"] ;
106 -> 107 ;
108 [label="node #108\ngini = 0.0\nsamples = 0.0%\nvalue = [0.0, 1.0]", fillcolor="#399de5"] ;
106 -> 108 ;
109 [label="node #109\ngini = 0.0\nsamples = 0.0%\nvalue = [1.0, 0.0]", fillcolor="#e58139"] ;
105 -> 109 ;
110 [label="node #110\ngini = 0.0\nsamples = 0.0%\nvalue = [1.0, 0.0]", fillcolor="#e58139"] ;
104 -> 110 ;
111 [label="node #111\ngini = 0.0\nsamples = 0.1%\nvalue = [0.0, 1.0]", fillcolor="#399de5"] ;
103 -> 111 ;
112 [label="node #112\ngini = 0.0\nsamples = 0.0%\nvalue = [1.0, 0.0]", fillcolor="#e58139"] ;
102 -> 112 ;
113 [label="node #113\natomic_ionization_potential_wad <= 4.0446\ngini = 0.4669\nsamples = 0.3%\nvalue = [0.6287, 0.3713]", fillcolor="#f4cbae"] ;
101 -> 113 ;
114 [label="node #114\nrel_stoich_wad <= 0.0781\ngini = 0.4102\nsamples = 0.1%\nvalue = [0.2881, 0.7119]", fillcolor="#89c5f0"] ;
113 -> 114 ;
115 [label="node #115\natomic_ionization_potential_wad <= 3.9895\ngini = 0.2975\nsamples = 0.0%\nvalue = [0.8182, 0.1818]", fillcolor="#eb9d65"] ;
114 -> 115 ;
116 [label="node #116\ngini = 0.0\nsamples = 0.0%\nvalue = [1.0, 0.0]", fillcolor="#e58139"] ;
115 -> 116 ;
117 [label="node #117\ngini = 0.0\nsamples = 0.0%\nvalue = [0.0, 1.0]", fillcolor="#399de5"] ;
115 -> 117 ;
118 [label="node #118\natomic_r_covalent_wa <= 1.5432\ngini = 0.2778\nsamples = 0.1%\nvalue = [0.1667, 0.8333]", fillcolor="#61b1ea"] ;
114 -> 118 ;
119 [label="node #119\natomic_number_wad <= 5.5\ngini = 0.2778\nsamples = 0.0%\nvalue = [0.8333, 0.1667]", fillcolor="#ea9a61"] ;
118 -> 119 ;
120 [label="node #120\ngini = 0.0\nsamples = 0.0%\nvalue = [0.0, 1.0]", fillcolor="#399de5"] ;
119 -> 120 ;
121 [label="node #121\ngini = 0.0\nsamples = 0.0%\nvalue = [1.0, 0.0]", fillcolor="#e58139"] ;
119 -> 121 ;
122 [label="node #122\natomic_volume_wa <= 54.8103\ngini = 0.1327\nsamples = 0.1%\nvalue = [0.0714, 0.9286]", fillcolor="#48a5e7"] ;
118 -> 122 ;
123 [label="node #123\natomic_number_wad <= 93.7989\ngini = 0.0928\nsamples = 0.1%\nvalue = [0.0488, 0.9512]", fillcolor="#43a2e6"] ;
122 -> 123 ;
124 [label="node #124\ngini = 0.0487\nsamples = 0.0%\nvalue = [0.025, 0.975]", fillcolor="#3ea0e6"] ;
123 -> 124 ;
125 [label="node #125\ngini = 0.0\nsamples = 0.0%\nvalue = [1.0, 0.0]", fillcolor="#e58139"] ;
123 -> 125 ;
126 [label="node #126\ngini = 0.0\nsamples = 0.0%\nvalue = [1.0, 0.0]", fillcolor="#e58139"] ;
122 -> 126 ;
127 [label="node #127\natomic_pauling_electronegativity_wad <= 1.22\ngini = 0.3833\nsamples = 0.2%\nvalue = [0.7416, 0.2584]", fillcolor="#eead7e"] ;
113 -> 127 ;
128 [label="node #128\natomic_ionization_potential_wad <= 4.4153\ngini = 0.2188\nsamples = 0.0%\nvalue = [0.125, 0.875]", fillcolor="#55abe9"] ;
127 -> 128 ;
129 [label="node #129\ngini = 0.0\nsamples = 0.0%\nvalue = [1.0, 0.0]", fillcolor="#e58139"] ;
128 -> 129 ;
130 [label="node #130\ngini = 0.0\nsamples = 0.0%\nvalue = [0.0, 1.0]", fillcolor="#399de5"] ;
128 -> 130 ;
131 [label="node #131\natomic_pauling_electronegativity_wa <= 1.9374\ngini = 0.317\nsamples = 0.2%\nvalue = [0.8025, 0.1975]", fillcolor="#eba06a"] ;
127 -> 131 ;
132 [label="node #132\natomic_pauling_electronegativity_wad <= 1.356\ngini = 0.2778\nsamples = 0.2%\nvalue = [0.8333, 0.1667]", fillcolor="#ea9a61"] ;
131 -> 132 ;
133 [label="node #133\ngini = 0.0\nsamples = 0.1%\nvalue = [1.0, 0.0]", fillcolor="#e58139"] ;
132 -> 133 ;
134 [label="node #134\natomic_pauling_electronegativity_wa <= 1.265\ngini = 0.3726\nsamples = 0.1%\nvalue = [0.7524, 0.2476]", fillcolor="#eeaa7a"] ;
132 -> 134 ;
135 [label="node #135\ngini = 0.375\nsamples = 0.0%\nvalue = [0.25, 0.75]", fillcolor="#7bbeee"] ;
134 -> 135 ;
136 [label="node #136\ngini = 0.3273\nsamples = 0.1%\nvalue = [0.7938, 0.2062]", fillcolor="#eca26c"] ;
134 -> 136 ;
137 [label="node #137\ngini = 0.0\nsamples = 0.0%\nvalue = [0.0, 1.0]", fillcolor="#399de5"] ;
131 -> 137 ;
138 [label="node #138\natomic_volume_wa <= 13.5745\ngini = 0.4589\nsamples = 3.5%\nvalue = [0.3567, 0.6433]", fillcolor="#a7d3f3"] ;
2 -> 138 ;
139 [label="node #139\natomic_number_wa <= 17.1714\ngini = 0.259\nsamples = 1.8%\nvalue = [0.1529, 0.8471]", fillcolor="#5dafea"] ;
138 -> 139 ;
140 [label="node #140\natomic_pauling_electronegativity_wa <= 2.2047\ngini = 0.32\nsamples = 0.0%\nvalue = [0.8, 0.2]", fillcolor="#eca06a"] ;
139 -> 140 ;
141 [label="node #141\natomic_ionization_potential_wa <= 9.0192\ngini = 0.2392\nsamples = 0.0%\nvalue = [0.8611, 0.1389]", fillcolor="#e99559"] ;
140 -> 141 ;
142 [label="node #142\natomic_pauling_electronegativity_wad <= 0.525\ngini = 0.2024\nsamples = 0.0%\nvalue = [0.8857, 0.1143]", fillcolor="#e89153"] ;
141 -> 142 ;
143 [label="node #143\natomic_number_wa <= 5.1667\ngini = 0.5\nsamples = 0.0%\nvalue = [0.5, 0.5]", fillcolor="#ffffff"] ;
142 -> 143 ;
144 [label="node #144\ngini = 0.0\nsamples = 0.0%\nvalue = [1.0, 0.0]", fillcolor="#e58139"] ;
143 -> 144 ;
145 [label="node #145\ngini = 0.0\nsamples = 0.0%\nvalue = [0.0, 1.0]", fillcolor="#399de5"] ;
143 -> 145 ;
146 [label="node #146\natomic_ionization_potential_wad <= 5.0277\ngini = 0.1653\nsamples = 0.0%\nvalue = [0.9091, 0.0909]", fillcolor="#e88e4d"] ;
142 -> 146 ;
147 [label="node #147\natomic_pauling_electronegativity_wad <= 0.755\ngini = 0.255\nsamples = 0.0%\nvalue = [0.85, 0.15]", fillcolor="#ea975c"] ;
146 -> 147 ;
148 [label="node #148\ngini = 0.0\nsamples = 0.0%\nvalue = [1.0, 0.0]", fillcolor="#e58139"] ;
147 -> 148 ;
149 [label="node #149\ngini = 0.2659\nsamples = 0.0%\nvalue = [0.8421, 0.1579]", fillcolor="#ea995e"] ;
147 -> 149 ;
150 [label="node #150\ngini = 0.0\nsamples = 0.0%\nvalue = [1.0, 0.0]", fillcolor="#e58139"] ;
146 -> 150 ;
151 [label="node #151\ngini = 0.0\nsamples = 0.0%\nvalue = [0.0, 1.0]", fillcolor="#399de5"] ;
141 -> 151 ;
152 [label="node #152\nrel_stoich_wad <= 0.6928\ngini = 0.375\nsamples = 0.0%\nvalue = [0.25, 0.75]", fillcolor="#7bbeee"] ;
140 -> 152 ;
153 [label="node #153\ngini = 0.0\nsamples = 0.0%\nvalue = [0.0, 1.0]", fillcolor="#399de5"] ;
152 -> 153 ;
154 [label="node #154\ngini = 0.0\nsamples = 0.0%\nvalue = [1.0, 0.0]", fillcolor="#e58139"] ;
152 -> 154 ;
155 [label="node #155\natomic_r_covalent_wa <= 1.3205\ngini = 0.2335\nsamples = 1.7%\nvalue = [0.1349, 0.8651]", fillcolor="#58ace9"] ;
139 -> 155 ;
156 [label="node #156\natomic_volume_wa <= 10.2027\ngini = 0.3447\nsamples = 0.9%\nvalue = [0.2214, 0.7786]", fillcolor="#71b9ec"] ;
155 -> 156 ;
157 [label="node #157\natomic_number_wad <= 29.0\ngini = 0.0454\nsamples = 0.2%\nvalue = [0.0233, 0.9767]", fillcolor="#3e9fe6"] ;
156 -> 157 ;
158 [label="node #158\natomic_pauling_electronegativity_wad <= 0.2406\ngini = 0.3047\nsamples = 0.0%\nvalue = [0.1875, 0.8125]", fillcolor="#67b4eb"] ;
157 -> 158 ;
159 [label="node #159\ngini = 0.0\nsamples = 0.0%\nvalue = [1.0, 0.0]", fillcolor="#e58139"] ;
158 -> 159 ;
160 [label="node #160\natomic_pauling_electronegativity_wa <= 2.1394\ngini = 0.2311\nsamples = 0.0%\nvalue = [0.1333, 0.8667]", fillcolor="#57ace9"] ;
158 -> 160 ;
161 [label="node #161\ngini = 0.142\nsamples = 0.0%\nvalue = [0.0769, 0.9231]", fillcolor="#49a5e7"] ;
160 -> 161 ;
162 [label="node #162\ngini = 0.5\nsamples = 0.0%\nvalue = [0.5, 0.5]", fillcolor="#ffffff"] ;
160 -> 162 ;
163 [label="node #163\nrel_stoich_wad <= 0.7871\ngini = 0.0127\nsamples = 0.2%\nvalue = [0.0064, 0.9936]", fillcolor="#3a9ee5"] ;
157 -> 163 ;
164 [label="node #164\ngini = 0.0\nsamples = 0.2%\nvalue = [0.0, 1.0]", fillcolor="#399de5"] ;
163 -> 164 ;
165 [label="node #165\nrel_stoich_wad <= 0.8288\ngini = 0.32\nsamples = 0.0%\nvalue = [0.2, 0.8]", fillcolor="#6ab6ec"] ;
163 -> 165 ;
166 [label="node #166\ngini = 0.0\nsamples = 0.0%\nvalue = [1.0, 0.0]", fillcolor="#e58139"] ;
165 -> 166 ;
167 [label="node #167\ngini = 0.0\nsamples = 0.0%\nvalue = [0.0, 1.0]", fillcolor="#399de5"] ;
165 -> 167 ;
168 [label="node #168\nrel_stoich_wa <= 0.3896\ngini = 0.4012\nsamples = 0.7%\nvalue = [0.2777, 0.7223]", fillcolor="#85c3ef"] ;
156 -> 168 ;
169 [label="node #169\natomic_volume_wad <= 12.385\ngini = 0.4971\nsamples = 0.2%\nvalue = [0.4619, 0.5381]", fillcolor="#e3f1fb"] ;
168 -> 169 ;
170 [label="node #170\natomic_number_wad <= 7.4167\ngini = 0.3898\nsamples = 0.1%\nvalue = [0.7347, 0.2653]", fillcolor="#eeae80"] ;
169 -> 170 ;
171 [label="node #171\ngini = 0.0\nsamples = 0.0%\nvalue = [0.0, 1.0]", fillcolor="#399de5"] ;
170 -> 171 ;
172 [label="node #172\ngini = 0.3403\nsamples = 0.1%\nvalue = [0.7826, 0.2174]", fillcolor="#eca470"] ;
170 -> 172 ;
173 [label="node #173\natomic_ionization_potential_wad <= 4.6809\ngini = 0.3102\nsamples = 0.1%\nvalue = [0.1919, 0.8081]", fillcolor="#68b4eb"] ;
169 -> 173 ;
174 [label="node #174\ngini = 0.1092\nsamples = 0.1%\nvalue = [0.058, 0.942]", fillcolor="#45a3e7"] ;
173 -> 174 ;
175 [label="node #175\ngini = 0.5\nsamples = 0.0%\nvalue = [0.5, 0.5]", fillcolor="#ffffff"] ;
173 -> 175 ;
176 [label="node #176\natomic_ionization_potential_wa <= 8.5366\ngini = 0.3062\nsamples = 0.5%\nvalue = [0.1887, 0.8113]", fillcolor="#67b4eb"] ;
168 -> 176 ;
177 [label="node #177\natomic_volume_wad <= 13.0897\ngini = 0.4989\nsamples = 0.1%\nvalue = [0.4762, 0.5238]", fillcolor="#edf6fd"] ;
176 -> 177 ;
178 [label="node #178\ngini = 0.48\nsamples = 0.1%\nvalue = [0.4, 0.6]", fillcolor="#bddef6"] ;
177 -> 178 ;
179 [label="node #179\ngini = 0.0\nsamples = 0.0%\nvalue = [1.0, 0.0]", fillcolor="#e58139"] ;
177 -> 179 ;
180 [label="node #180\natomic_r_covalent_wa <= 1.1386\ngini = 0.2353\nsamples = 0.4%\nvalue = [0.1362, 0.8638]", fillcolor="#58ace9"] ;
176 -> 180 ;
181 [label="node #181\ngini = 0.0\nsamples = 0.0%\nvalue = [1.0, 0.0]", fillcolor="#e58139"] ;
180 -> 181 ;
182 [label="node #182\ngini = 0.2204\nsamples = 0.4%\nvalue = [0.1261, 0.8739]", fillcolor="#56abe9"] ;
180 -> 182 ;
183 [label="node #183\natomic_pauling_electronegativity_wad <= 1.5043\ngini = 0.0665\nsamples = 0.8%\nvalue = [0.0344, 0.9656]", fillcolor="#40a0e6"] ;
155 -> 183 ;
184 [label="node #184\natomic_number_wa <= 29.5\ngini = 0.0529\nsamples = 0.8%\nvalue = [0.0272, 0.9728]", fillcolor="#3fa0e6"] ;
183 -> 184 ;
185 [label="node #185\natomic_pauling_electronegativity_wa <= 2.1464\ngini = 0.5\nsamples = 0.0%\nvalue = [0.5, 0.5]", fillcolor="#ffffff"] ;
184 -> 185 ;
186 [label="node #186\ngini = 0.0\nsamples = 0.0%\nvalue = [0.0, 1.0]", fillcolor="#399de5"] ;
185 -> 186 ;
187 [label="node #187\ngini = 0.0\nsamples = 0.0%\nvalue = [1.0, 0.0]", fillcolor="#e58139"] ;
185 -> 187 ;
188 [label="node #188\natomic_volume_wa <= 12.3155\ngini = 0.0447\nsamples = 0.8%\nvalue = [0.0229, 0.9771]", fillcolor="#3e9fe6"] ;
184 -> 188 ;
189 [label="node #189\natomic_pauling_electronegativity_wad <= 1.413\ngini = 0.015\nsamples = 0.7%\nvalue = [0.0075, 0.9925]", fillcolor="#3b9ee5"] ;
188 -> 189 ;
190 [label="node #190\ngini = 0.0077\nsamples = 0.6%\nvalue = [0.0039, 0.9961]", fillcolor="#3a9de5"] ;
189 -> 190 ;
191 [label="node #191\ngini = 0.2778\nsamples = 0.0%\nvalue = [0.1667, 0.8333]", fillcolor="#61b1ea"] ;
189 -> 191 ;
192 [label="node #192\natomic_pauling_electronegativity_wa <= 2.383\ngini = 0.1594\nsamples = 0.1%\nvalue = [0.0873, 0.9127]", fillcolor="#4ca6e7"] ;
188 -> 192 ;
193 [label="node #193\ngini = 0.1346\nsamples = 0.1%\nvalue = [0.0726, 0.9274]", fillcolor="#48a5e7"] ;
192 -> 193 ;
194 [label="node #194\ngini = 0.0\nsamples = 0.0%\nvalue = [1.0, 0.0]", fillcolor="#e58139"] ;
192 -> 194 ;
195 [label="node #195\natomic_ionization_potential_wa <= 8.1428\ngini = 0.2778\nsamples = 0.0%\nvalue = [0.8333, 0.1667]", fillcolor="#ea9a61"] ;
183 -> 195 ;
196 [label="node #196\ngini = 0.0\nsamples = 0.0%\nvalue = [0.0, 1.0]", fillcolor="#399de5"] ;
195 -> 196 ;
197 [label="node #197\ngini = 0.0\nsamples = 0.0%\nvalue = [1.0, 0.0]", fillcolor="#e58139"] ;
195 -> 197 ;
198 [label="node #198\natomic_volume_wa <= 15.3021\ngini = 0.4924\nsamples = 1.7%\nvalue = [0.5616, 0.4384]", fillcolor="#f9e3d4"] ;
138 -> 198 ;
199 [label="node #199\natomic_r_covalent_wa <= 1.2713\ngini = 0.4885\nsamples = 0.9%\nvalue = [0.4242, 0.5758]", fillcolor="#cbe5f8"] ;
198 -> 199 ;
200 [label="node #200\nrel_stoich_wad <= 0.9733\ngini = 0.3449\nsamples = 0.2%\nvalue = [0.7784, 0.2216]", fillcolor="#eca571"] ;
199 -> 200 ;
201 [label="node #201\natomic_number_wad <= 34.1786\ngini = 0.2982\nsamples = 0.2%\nvalue = [0.8176, 0.1824]", fillcolor="#eb9d65"] ;
200 -> 201 ;
202 [label="node #202\nrel_stoich_wad <= 0.2235\ngini = 0.4664\nsamples = 0.1%\nvalue = [0.6296, 0.3704]", fillcolor="#f4cbad"] ;
201 -> 202 ;
203 [label="node #203\ngini = 0.0\nsamples = 0.0%\nvalue = [1.0, 0.0]", fillcolor="#e58139"] ;
202 -> 203 ;
204 [label="node #204\natomic_ionization_potential_wa <= 9.0048\ngini = 0.4997\nsamples = 0.1%\nvalue = [0.4872, 0.5128]", fillcolor="#f5fafe"] ;
202 -> 204 ;
205 [label="node #205\ngini = 0.4745\nsamples = 0.0%\nvalue = [0.6129, 0.3871]", fillcolor="#f5d1b6"] ;
204 -> 205 ;
206 [label="node #206\ngini = 0.0\nsamples = 0.0%\nvalue = [0.0, 1.0]", fillcolor="#399de5"] ;
204 -> 206 ;
207 [label="node #207\natomic_ionization_potential_wa <= 9.1184\ngini = 0.1567\nsamples = 0.1%\nvalue = [0.9143, 0.0857]", fillcolor="#e78d4c"] ;
201 -> 207 ;
208 [label="node #208\natomic_volume_wa <= 13.8625\ngini = 0.1139\nsamples = 0.1%\nvalue = [0.9394, 0.0606]", fillcolor="#e78946"] ;
207 -> 208 ;
209 [label="node #209\ngini = 0.3084\nsamples = 0.0%\nvalue = [0.8095, 0.1905]", fillcolor="#eb9f68"] ;
208 -> 209 ;
210 [label="node #210\ngini = 0.05\nsamples = 0.1%\nvalue = [0.9744, 0.0256]", fillcolor="#e6843e"] ;
208 -> 210 ;
211 [label="node #211\natomic_number_wa <= 29.0\ngini = 0.5\nsamples = 0.0%\nvalue = [0.5, 0.5]", fillcolor="#ffffff"] ;
207 -> 211 ;
212 [label="node #212\ngini = 0.0\nsamples = 0.0%\nvalue = [0.0, 1.0]", fillcolor="#399de5"] ;
211 -> 212 ;
213 [label="node #213\ngini = 0.0\nsamples = 0.0%\nvalue = [1.0, 0.0]", fillcolor="#e58139"] ;
211 -> 213 ;
214 [label="node #214\ngini = 0.0\nsamples = 0.0%\nvalue = [0.0, 1.0]", fillcolor="#399de5"] ;
200 -> 214 ;
215 [label="node #215\natomic_pauling_electronegativity_wa <= 2.4072\ngini = 0.4444\nsamples = 0.8%\nvalue = [0.3333, 0.6667]", fillcolor="#9ccef2"] ;
199 -> 215 ;
216 [label="node #216\natomic_pauling_electronegativity_wa <= 2.1073\ngini = 0.4049\nsamples = 0.7%\nvalue = [0.2819, 0.7181]", fillcolor="#87c3ef"] ;
215 -> 216 ;
217 [label="node #217\natomic_number_wa <= 36.5\ngini = 0.4712\nsamples = 0.1%\nvalue = [0.62, 0.38]", fillcolor="#f5ceb2"] ;
216 -> 217 ;
218 [label="node #218\ngini = 0.0\nsamples = 0.0%\nvalue = [1.0, 0.0]", fillcolor="#e58139"] ;
217 -> 218 ;
219 [label="node #219\natomic_pauling_electronegativity_wa <= 2.0963\ngini = 0.4644\nsamples = 0.0%\nvalue = [0.3667, 0.6333]", fillcolor="#acd6f4"] ;
217 -> 219 ;
220 [label="node #220\ngini = 0.375\nsamples = 0.0%\nvalue = [0.25, 0.75]", fillcolor="#7bbeee"] ;
219 -> 220 ;
221 [label="node #221\ngini = 0.2778\nsamples = 0.0%\nvalue = [0.8333, 0.1667]", fillcolor="#ea9a61"] ;
219 -> 221 ;
222 [label="node #222\natomic_r_covalent_wad <= 0.4607\ngini = 0.3764\nsamples = 0.6%\nvalue = [0.2514, 0.7486]", fillcolor="#7bbeee"] ;
216 -> 222 ;
223 [label="node #223\nrel_stoich_wad <= 0.5949\ngini = 0.4854\nsamples = 0.1%\nvalue = [0.4146, 0.5854]", fillcolor="#c5e2f7"] ;
222 -> 223 ;
224 [label="node #224\ngini = 0.3691\nsamples = 0.1%\nvalue = [0.2442, 0.7558]", fillcolor="#79bded"] ;
223 -> 224 ;
225 [label="node #225\ngini = 0.3068\nsamples = 0.0%\nvalue = [0.8108, 0.1892]", fillcolor="#eb9e67"] ;
223 -> 225 ;
226 [label="node #226\natomic_volume_wa <= 14.4613\ngini = 0.3255\nsamples = 0.5%\nvalue = [0.2047, 0.7953]", fillcolor="#6cb6ec"] ;
222 -> 226 ;
227 [label="node #227\ngini = 0.0899\nsamples = 0.1%\nvalue = [0.0472, 0.9528]", fillcolor="#43a2e6"] ;
226 -> 227 ;
228 [label="node #228\ngini = 0.3811\nsamples = 0.4%\nvalue = [0.2562, 0.7438]", fillcolor="#7dbfee"] ;
226 -> 228 ;
229 [label="node #229\natomic_pauling_electronegativity_wad <= 0.33\ngini = 0.0408\nsamples = 0.1%\nvalue = [0.9792, 0.0208]", fillcolor="#e6843d"] ;
215 -> 229 ;
230 [label="node #230\ngini = 0.0\nsamples = 0.0%\nvalue = [0.0, 1.0]", fillcolor="#399de5"] ;
229 -> 230 ;
231 [label="node #231\ngini = 0.0\nsamples = 0.1%\nvalue = [1.0, 0.0]", fillcolor="#e58139"] ;
229 -> 231 ;
232 [label="node #232\nrel_stoich_wa <= 0.5519\ngini = 0.3925\nsamples = 0.8%\nvalue = [0.7318, 0.2682]", fillcolor="#efaf82"] ;
198 -> 232 ;
233 [label="node #233\natomic_ionization_potential_wad <= 1.8596\ngini = 0.2894\nsamples = 0.6%\nvalue = [0.8245, 0.1755]", fillcolor="#eb9c63"] ;
232 -> 233 ;
234 [label="node #234\natomic_volume_wa <= 18.3027\ngini = 0.1653\nsamples = 0.0%\nvalue = [0.0909, 0.9091]", fillcolor="#4da7e8"] ;
233 -> 234 ;
235 [label="node #235\ngini = 0.0\nsamples = 0.0%\nvalue = [0.0, 1.0]", fillcolor="#399de5"] ;
234 -> 235 ;
236 [label="node #236\ngini = 0.0\nsamples = 0.0%\nvalue = [1.0, 0.0]", fillcolor="#e58139"] ;
234 -> 236 ;
237 [label="node #237\natomic_number_wa <= 69.3235\ngini = 0.2687\nsamples = 0.6%\nvalue = [0.8401, 0.1599]", fillcolor="#ea995f"] ;
233 -> 237 ;
238 [label="node #238\natomic_r_covalent_wad <= 0.7276\ngini = 0.2473\nsamples = 0.6%\nvalue = [0.8554, 0.1446]", fillcolor="#e9965a"] ;
237 -> 238 ;
239 [label="node #239\natomic_pauling_electronegativity_wad <= 0.2472\ngini = 0.1892\nsamples = 0.5%\nvalue = [0.8942, 0.1058]", fillcolor="#e89050"] ;
238 -> 239 ;
240 [label="node #240\ngini = 0.48\nsamples = 0.0%\nvalue = [0.4, 0.6]", fillcolor="#bddef6"] ;
239 -> 240 ;
241 [label="node #241\ngini = 0.1697\nsamples = 0.5%\nvalue = [0.9064, 0.0936]", fillcolor="#e88e4d"] ;
239 -> 241 ;
242 [label="node #242\natomic_ionization_potential_wad <= 4.6673\ngini = 0.4393\nsamples = 0.1%\nvalue = [0.6742, 0.3258]", fillcolor="#f2be99"] ;
238 -> 242 ;
243 [label="node #243\ngini = 0.4991\nsamples = 0.1%\nvalue = [0.4783, 0.5217]", fillcolor="#eff7fd"] ;
242 -> 243 ;
244 [label="node #244\ngini = 0.2055\nsamples = 0.0%\nvalue = [0.8837, 0.1163]", fillcolor="#e89253"] ;
242 -> 244 ;
245 [label="node #245\natomic_volume_wa <= 19.6121\ngini = 0.4082\nsamples = 0.0%\nvalue = [0.2857, 0.7143]", fillcolor="#88c4ef"] ;
237 -> 245 ;
246 [label="node #246\ngini = 0.0\nsamples = 0.0%\nvalue = [0.0, 1.0]", fillcolor="#399de5"] ;
245 -> 246 ;
247 [label="node #247\ngini = 0.0\nsamples = 0.0%\nvalue = [1.0, 0.0]", fillcolor="#e58139"] ;
245 -> 247 ;
248 [label="node #248\natomic_r_covalent_wad <= 0.835\ngini = 0.4573\nsamples = 0.2%\nvalue = [0.3538, 0.6462]", fillcolor="#a5d3f3"] ;
232 -> 248 ;
249 [label="node #249\natomic_number_wad <= 23.0\ngini = 0.3523\nsamples = 0.1%\nvalue = [0.2283, 0.7717]", fillcolor="#74baed"] ;
248 -> 249 ;
250 [label="node #250\natomic_number_wad <= 7.5\ngini = 0.4819\nsamples = 0.0%\nvalue = [0.4048, 0.5952]", fillcolor="#c0e0f7"] ;
249 -> 250 ;
251 [label="node #251\natomic_volume_wa <= 24.1971\ngini = 0.0997\nsamples = 0.0%\nvalue = [0.0526, 0.9474]", fillcolor="#44a2e6"] ;
250 -> 251 ;
252 [label="node #252\ngini = 0.0\nsamples = 0.0%\nvalue = [0.0, 1.0]", fillcolor="#399de5"] ;
251 -> 252 ;
253 [label="node #253\ngini = 0.0\nsamples = 0.0%\nvalue = [1.0, 0.0]", fillcolor="#e58139"] ;
251 -> 253 ;
254 [label="node #254\natomic_pauling_electronegativity_wad <= 1.105\ngini = 0.4234\nsamples = 0.0%\nvalue = [0.6957, 0.3043]", fillcolor="#f0b890"] ;
250 -> 254 ;
255 [label="node #255\ngini = 0.3628\nsamples = 0.0%\nvalue = [0.7619, 0.2381]", fillcolor="#eda877"] ;
254 -> 255 ;
256 [label="node #256\ngini = 0.0\nsamples = 0.0%\nvalue = [0.0, 1.0]", fillcolor="#399de5"] ;
254 -> 256 ;
257 [label="node #257\natomic_volume_wa <= 15.9413\ngini = 0.1472\nsamples = 0.1%\nvalue = [0.08, 0.92]", fillcolor="#4aa6e7"] ;
249 -> 257 ;
258 [label="node #258\natomic_pauling_electronegativity_wad <= 0.32\ngini = 0.48\nsamples = 0.0%\nvalue = [0.6, 0.4]", fillcolor="#f6d5bd"] ;
257 -> 258 ;
259 [label="node #259\ngini = 0.0\nsamples = 0.0%\nvalue = [1.0, 0.0]", fillcolor="#e58139"] ;
258 -> 259 ;
260 [label="node #260\ngini = 0.0\nsamples = 0.0%\nvalue = [0.0, 1.0]", fillcolor="#399de5"] ;
258 -> 260 ;
261 [label="node #261\natomic_r_covalent_wa <= 1.3333\ngini = 0.0435\nsamples = 0.1%\nvalue = [0.0222, 0.9778]", fillcolor="#3d9fe6"] ;
257 -> 261 ;
262 [label="node #262\ngini = 0.0\nsamples = 0.0%\nvalue = [1.0, 0.0]", fillcolor="#e58139"] ;
261 -> 262 ;
263 [label="node #263\ngini = 0.0\nsamples = 0.0%\nvalue = [0.0, 1.0]", fillcolor="#399de5"] ;
261 -> 263 ;
264 [label="node #264\natomic_volume_wa <= 17.2575\ngini = 0.4501\nsamples = 0.0%\nvalue = [0.6579, 0.3421]", fillcolor="#f3c3a0"] ;
248 -> 264 ;
265 [label="node #265\natomic_ionization_potential_wa <= 8.7505\ngini = 0.375\nsamples = 0.0%\nvalue = [0.25, 0.75]", fillcolor="#7bbeee"] ;
264 -> 265 ;
266 [label="node #266\ngini = 0.0\nsamples = 0.0%\nvalue = [1.0, 0.0]", fillcolor="#e58139"] ;
265 -> 266 ;
267 [label="node #267\natomic_ionization_potential_wa <= 8.9495\ngini = 0.2449\nsamples = 0.0%\nvalue = [0.1429, 0.8571]", fillcolor="#5aade9"] ;
265 -> 267 ;
268 [label="node #268\ngini = 0.0\nsamples = 0.0%\nvalue = [0.0, 1.0]", fillcolor="#399de5"] ;
267 -> 268 ;
269 [label="node #269\ngini = 0.0\nsamples = 0.0%\nvalue = [1.0, 0.0]", fillcolor="#e58139"] ;
267 -> 269 ;
270 [label="node #270\natomic_volume_wa <= 17.8979\ngini = 0.3578\nsamples = 0.0%\nvalue = [0.7667, 0.2333]", fillcolor="#eda775"] ;
264 -> 270 ;
271 [label="node #271\natomic_number_wad <= 42.0\ngini = 0.2524\nsamples = 0.0%\nvalue = [0.8519, 0.1481]", fillcolor="#ea975b"] ;
270 -> 271 ;
272 [label="node #272\ngini = 0.3084\nsamples = 0.0%\nvalue = [0.8095, 0.1905]", fillcolor="#eb9f68"] ;
271 -> 272 ;
273 [label="node #273\ngini = 0.0\nsamples = 0.0%\nvalue = [1.0, 0.0]", fillcolor="#e58139"] ;
271 -> 273 ;
274 [label="node #274\ngini = 0.0\nsamples = 0.0%\nvalue = [0.0, 1.0]", fillcolor="#399de5"] ;
270 -> 274 ;
275 [label="node #275\natomic_pauling_electronegativity_wa <= 2.089\ngini = 0.4235\nsamples = 4.2%\nvalue = [0.6955, 0.3045]", fillcolor="#f0b890"] ;
1 -> 275 ;
276 [label="node #276\natomic_r_covalent_wa <= 0.7208\ngini = 0.472\nsamples = 0.8%\nvalue = [0.3816, 0.6184]", fillcolor="#b3d9f5"] ;
275 -> 276 ;
277 [label="node #277\natomic_number_wa <= 18.625\ngini = 0.3136\nsamples = 0.1%\nvalue = [0.8053, 0.1947]", fillcolor="#eb9f69"] ;
276 -> 277 ;
278 [label="node #278\natomic_volume_wad <= 7.18\ngini = 0.2188\nsamples = 0.1%\nvalue = [0.875, 0.125]", fillcolor="#e99355"] ;
277 -> 278 ;
279 [label="node #279\natomic_r_covalent_wad <= 1.9196\ngini = 0.437\nsamples = 0.0%\nvalue = [0.6774, 0.3226]", fillcolor="#f1bd97"] ;
278 -> 279 ;
280 [label="node #280\natomic_ionization_potential_wad <= 7.544\ngini = 0.3457\nsamples = 0.0%\nvalue = [0.7778, 0.2222]", fillcolor="#eca572"] ;
279 -> 280 ;
281 [label="node #281\natomic_number_wa <= 5.6905\ngini = 0.48\nsamples = 0.0%\nvalue = [0.4, 0.6]", fillcolor="#bddef6"] ;
280 -> 281 ;
282 [label="node #282\natomic_ionization_potential_wa <= 11.8878\ngini = 0.32\nsamples = 0.0%\nvalue = [0.8, 0.2]", fillcolor="#eca06a"] ;
281 -> 282 ;
283 [label="node #283\ngini = 0.375\nsamples = 0.0%\nvalue = [0.75, 0.25]", fillcolor="#eeab7b"] ;
282 -> 283 ;
284 [label="node #284\ngini = 0.0\nsamples = 0.0%\nvalue = [1.0, 0.0]", fillcolor="#e58139"] ;
282 -> 284 ;
285 [label="node #285\ngini = 0.0\nsamples = 0.0%\nvalue = [0.0, 1.0]", fillcolor="#399de5"] ;
281 -> 285 ;
286 [label="node #286\ngini = 0.0\nsamples = 0.0%\nvalue = [1.0, 0.0]", fillcolor="#e58139"] ;
280 -> 286 ;
287 [label="node #287\ngini = 0.0\nsamples = 0.0%\nvalue = [0.0, 1.0]", fillcolor="#399de5"] ;
279 -> 287 ;
288 [label="node #288\natomic_number_wad <= 62.6989\ngini = 0.0788\nsamples = 0.1%\nvalue = [0.9589, 0.0411]", fillcolor="#e68641"] ;
278 -> 288 ;
289 [label="node #289\ngini = 0.0\nsamples = 0.1%\nvalue = [1.0, 0.0]", fillcolor="#e58139"] ;
288 -> 289 ;
290 [label="node #290\natomic_volume_wa <= 11.3286\ngini = 0.3047\nsamples = 0.0%\nvalue = [0.8125, 0.1875]", fillcolor="#eb9e67"] ;
288 -> 290 ;
291 [label="node #291\ngini = 0.0\nsamples = 0.0%\nvalue = [0.0, 1.0]", fillcolor="#399de5"] ;
290 -> 291 ;
292 [label="node #292\natomic_r_covalent_wa <= 0.715\ngini = 0.1327\nsamples = 0.0%\nvalue = [0.9286, 0.0714]", fillcolor="#e78b48"] ;
290 -> 292 ;
293 [label="node #293\ngini = 0.0\nsamples = 0.0%\nvalue = [1.0, 0.0]", fillcolor="#e58139"] ;
292 -> 293 ;
294 [label="node #294\ngini = 0.5\nsamples = 0.0%\nvalue = [0.5, 0.5]", fillcolor="#ffffff"] ;
292 -> 294 ;
295 [label="node #295\ngini = 0.0\nsamples = 0.0%\nvalue = [0.0, 1.0]", fillcolor="#399de5"] ;
277 -> 295 ;
296 [label="node #296\natomic_volume_wa <= 13.8709\ngini = 0.4182\nsamples = 0.7%\nvalue = [0.2977, 0.7023]", fillcolor="#8dc7f0"] ;
276 -> 296 ;
297 [label="node #297\natomic_r_covalent_wad <= 0.52\ngini = 0.2228\nsamples = 0.4%\nvalue = [0.1277, 0.8723]", fillcolor="#56abe9"] ;
296 -> 297 ;
298 [label="node #298\nrel_stoich_wa <= 0.5737\ngini = 0.4301\nsamples = 0.1%\nvalue = [0.313, 0.687]", fillcolor="#93caf1"] ;
297 -> 298 ;
299 [label="node #299\natomic_r_covalent_wa <= 1.1733\ngini = 0.4982\nsamples = 0.1%\nvalue = [0.5303, 0.4697]", fillcolor="#fcf1e8"] ;
298 -> 299 ;
300 [label="node #300\natomic_r_covalent_wad <= 0.095\ngini = 0.2041\nsamples = 0.0%\nvalue = [0.8846, 0.1154]", fillcolor="#e89153"] ;
299 -> 300 ;
301 [label="node #301\ngini = 0.4444\nsamples = 0.0%\nvalue = [0.3333, 0.6667]", fillcolor="#9ccef2"] ;
300 -> 301 ;
302 [label="node #302\natomic_ionization_potential_wad <= 3.7166\ngini = 0.0832\nsamples = 0.0%\nvalue = [0.9565, 0.0435]", fillcolor="#e68742"] ;
300 -> 302 ;
303 [label="node #303\ngini = 0.0\nsamples = 0.0%\nvalue = [1.0, 0.0]", fillcolor="#e58139"] ;
302 -> 303 ;
304 [label="node #304\ngini = 0.5\nsamples = 0.0%\nvalue = [0.5, 0.5]", fillcolor="#ffffff"] ;
302 -> 304 ;
305 [label="node #305\nrel_stoich_wa <= 0.4271\ngini = 0.42\nsamples = 0.0%\nvalue = [0.3, 0.7]", fillcolor="#8ec7f0"] ;
299 -> 305 ;
306 [label="node #306\ngini = 0.0\nsamples = 0.0%\nvalue = [1.0, 0.0]", fillcolor="#e58139"] ;
305 -> 306 ;
307 [label="node #307\natomic_ionization_potential_wa <= 9.1723\ngini = 0.32\nsamples = 0.0%\nvalue = [0.2, 0.8]", fillcolor="#6ab6ec"] ;
305 -> 307 ;
308 [label="node #308\ngini = 0.375\nsamples = 0.0%\nvalue = [0.75, 0.25]", fillcolor="#eeab7b"] ;
307 -> 308 ;
309 [label="node #309\ngini = 0.2248\nsamples = 0.0%\nvalue = [0.129, 0.871]", fillcolor="#56ace9"] ;
307 -> 309 ;
310 [label="node #310\nrel_stoich_wad <= 1.184\ngini = 0.04\nsamples = 0.1%\nvalue = [0.0204, 0.9796]", fillcolor="#3d9fe6"] ;
298 -> 310 ;
311 [label="node #311\ngini = 0.0\nsamples = 0.1%\nvalue = [0.0, 1.0]", fillcolor="#399de5"] ;
310 -> 311 ;
312 [label="node #312\ngini = 0.0\nsamples = 0.0%\nvalue = [1.0, 0.0]", fillcolor="#e58139"] ;
310 -> 312 ;
313 [label="node #313\natomic_pauling_electronegativity_wad <= 0.31\ngini = 0.0474\nsamples = 0.2%\nvalue = [0.0243, 0.9757]", fillcolor="#3e9fe6"] ;
297 -> 313 ;
314 [label="node #314\natomic_volume_wa <= 9.5225\ngini = 0.5\nsamples = 0.0%\nvalue = [0.5, 0.5]", fillcolor="#ffffff"] ;
313 -> 314 ;
315 [label="node #315\ngini = 0.0\nsamples = 0.0%\nvalue = [0.0, 1.0]", fillcolor="#399de5"] ;
314 -> 315 ;
316 [label="node #316\ngini = 0.0\nsamples = 0.0%\nvalue = [1.0, 0.0]", fillcolor="#e58139"] ;
314 -> 316 ;
317 [label="node #317\natomic_volume_wa <= 13.7513\ngini = 0.0198\nsamples = 0.2%\nvalue = [0.01, 0.99]", fillcolor="#3b9ee5"] ;
313 -> 317 ;
318 [label="node #318\natomic_number_wa <= 10.8095\ngini = 0.0102\nsamples = 0.2%\nvalue = [0.0051, 0.9949]", fillcolor="#3a9ee5"] ;
317 -> 318 ;
319 [label="node #319\natomic_volume_wa <= 11.58\ngini = 0.0997\nsamples = 0.0%\nvalue = [0.0526, 0.9474]", fillcolor="#44a2e6"] ;
318 -> 319 ;
320 [label="node #320\ngini = 0.0\nsamples = 0.0%\nvalue = [0.0, 1.0]", fillcolor="#399de5"] ;
319 -> 320 ;
321 [label="node #321\ngini = 0.0\nsamples = 0.0%\nvalue = [1.0, 0.0]", fillcolor="#e58139"] ;
319 -> 321 ;
322 [label="node #322\ngini = 0.0\nsamples = 0.2%\nvalue = [0.0, 1.0]", fillcolor="#399de5"] ;
318 -> 322 ;
323 [label="node #323\natomic_r_covalent_wa <= 0.7758\ngini = 0.375\nsamples = 0.0%\nvalue = [0.25, 0.75]", fillcolor="#7bbeee"] ;
317 -> 323 ;
324 [label="node #324\ngini = 0.0\nsamples = 0.0%\nvalue = [1.0, 0.0]", fillcolor="#e58139"] ;
323 -> 324 ;
325 [label="node #325\ngini = 0.0\nsamples = 0.0%\nvalue = [0.0, 1.0]", fillcolor="#399de5"] ;
323 -> 325 ;
326 [label="node #326\natomic_r_covalent_wa <= 1.3275\ngini = 0.4995\nsamples = 0.3%\nvalue = [0.516, 0.484]", fillcolor="#fdf7f3"] ;
296 -> 326 ;
327 [label="node #327\natomic_number_wad <= 50.5609\ngini = 0.4548\nsamples = 0.2%\nvalue = [0.6503, 0.3497]", fillcolor="#f3c5a3"] ;
326 -> 327 ;
328 [label="node #328\natomic_pauling_electronegativity_wad <= 1.1227\ngini = 0.3427\nsamples = 0.1%\nvalue = [0.7805, 0.2195]", fillcolor="#eca471"] ;
327 -> 328 ;
329 [label="node #329\natomic_volume_wad <= 11.4869\ngini = 0.4537\nsamples = 0.1%\nvalue = [0.6522, 0.3478]", fillcolor="#f3c4a3"] ;
328 -> 329 ;
330 [label="node #330\natomic_pauling_electronegativity_wa <= 2.0872\ngini = 0.387\nsamples = 0.1%\nvalue = [0.7377, 0.2623]", fillcolor="#eeae7f"] ;
329 -> 330 ;
331 [label="node #331\ngini = 0.362\nsamples = 0.1%\nvalue = [0.7627, 0.2373]", fillcolor="#eda877"] ;
330 -> 331 ;
332 [label="node #332\ngini = 0.0\nsamples = 0.0%\nvalue = [0.0, 1.0]", fillcolor="#399de5"] ;
330 -> 332 ;
333 [label="node #333\ngini = 0.0\nsamples = 0.0%\nvalue = [0.0, 1.0]", fillcolor="#399de5"] ;
329 -> 333 ;
334 [label="node #334\natomic_pauling_electronegativity_wad <= 1.4989\ngini = 0.1049\nsamples = 0.1%\nvalue = [0.9444, 0.0556]", fillcolor="#e78845"] ;
328 -> 334 ;
335 [label="node #335\natomic_r_covalent_wad <= 2.1192\ngini = 0.0377\nsamples = 0.1%\nvalue = [0.9808, 0.0192]", fillcolor="#e6833d"] ;
334 -> 335 ;
336 [label="node #336\ngini = 0.0\nsamples = 0.1%\nvalue = [1.0, 0.0]", fillcolor="#e58139"] ;
335 -> 336 ;
337 [label="node #337\ngini = 0.4444\nsamples = 0.0%\nvalue = [0.6667, 0.3333]", fillcolor="#f2c09c"] ;
335 -> 337 ;
338 [label="node #338\ngini = 0.0\nsamples = 0.0%\nvalue = [0.0, 1.0]", fillcolor="#399de5"] ;
334 -> 338 ;
339 [label="node #339\natomic_volume_wa <= 17.015\ngini = 0.4728\nsamples = 0.1%\nvalue = [0.3833, 0.6167]", fillcolor="#b4daf5"] ;
327 -> 339 ;
340 [label="node #340\nrel_stoich_wa <= 0.5309\ngini = 0.32\nsamples = 0.1%\nvalue = [0.2, 0.8]", fillcolor="#6ab6ec"] ;
339 -> 340 ;
341 [label="node #341\natomic_volume_wa <= 16.0267\ngini = 0.4734\nsamples = 0.0%\nvalue = [0.6154, 0.3846]", fillcolor="#f5d0b5"] ;
340 -> 341 ;
342 [label="node #342\ngini = 0.32\nsamples = 0.0%\nvalue = [0.8, 0.2]", fillcolor="#eca06a"] ;
341 -> 342 ;
343 [label="node #343\ngini = 0.0\nsamples = 0.0%\nvalue = [0.0, 1.0]", fillcolor="#399de5"] ;
341 -> 343 ;
344 [label="node #344\natomic_r_covalent_wa <= 1.1856\ngini = 0.0605\nsamples = 0.0%\nvalue = [0.0312, 0.9688]", fillcolor="#3fa0e6"] ;
340 -> 344 ;
345 [label="node #345\ngini = 0.0\nsamples = 0.0%\nvalue = [0.0, 1.0]", fillcolor="#399de5"] ;
344 -> 345 ;
346 [label="node #346\ngini = 0.5\nsamples = 0.0%\nvalue = [0.5, 0.5]", fillcolor="#ffffff"] ;
344 -> 346 ;
347 [label="node #347\natomic_pauling_electronegativity_wa <= 2.0659\ngini = 0.1244\nsamples = 0.0%\nvalue = [0.9333, 0.0667]", fillcolor="#e78a47"] ;
339 -> 347 ;
348 [label="node #348\ngini = 0.0\nsamples = 0.0%\nvalue = [1.0, 0.0]", fillcolor="#e58139"] ;
347 -> 348 ;
349 [label="node #349\ngini = 0.0\nsamples = 0.0%\nvalue = [0.0, 1.0]", fillcolor="#399de5"] ;
347 -> 349 ;
350 [label="node #350\natomic_number_wa <= 51.4167\ngini = 0.254\nsamples = 0.1%\nvalue = [0.1493, 0.8507]", fillcolor="#5caeea"] ;
326 -> 350 ;
351 [label="node #351\natomic_r_covalent_wa <= 1.375\ngini = 0.2449\nsamples = 0.0%\nvalue = [0.8571, 0.1429]", fillcolor="#e9965a"] ;
350 -> 351 ;
352 [label="node #352\ngini = 0.0\nsamples = 0.0%\nvalue = [1.0, 0.0]", fillcolor="#e58139"] ;
351 -> 352 ;
353 [label="node #353\ngini = 0.375\nsamples = 0.0%\nvalue = [0.75, 0.25]", fillcolor="#eeab7b"] ;
351 -> 353 ;
354 [label="node #354\natomic_pauling_electronegativity_wa <= 2.0249\ngini = 0.1244\nsamples = 0.1%\nvalue = [0.0667, 0.9333]", fillcolor="#47a4e7"] ;
350 -> 354 ;
355 [label="node #355\natomic_r_covalent_wad <= 0.65\ngini = 0.0666\nsamples = 0.1%\nvalue = [0.0345, 0.9655]", fillcolor="#40a0e6"] ;
354 -> 355 ;
356 [label="node #356\ngini = 0.0\nsamples = 0.1%\nvalue = [0.0, 1.0]", fillcolor="#399de5"] ;
355 -> 356 ;
357 [label="node #357\natomic_volume_wa <= 15.6174\ngini = 0.3457\nsamples = 0.0%\nvalue = [0.2222, 0.7778]", fillcolor="#72b9ec"] ;
355 -> 357 ;
358 [label="node #358\ngini = 0.0\nsamples = 0.0%\nvalue = [1.0, 0.0]", fillcolor="#e58139"] ;
357 -> 358 ;
359 [label="node #359\ngini = 0.0\nsamples = 0.0%\nvalue = [0.0, 1.0]", fillcolor="#399de5"] ;
357 -> 359 ;
360 [label="node #360\ngini = 0.0\nsamples = 0.0%\nvalue = [1.0, 0.0]", fillcolor="#e58139"] ;
354 -> 360 ;
361 [label="node #361\natomic_ionization_potential_wa <= 9.6221\ngini = 0.3542\nsamples = 3.4%\nvalue = [0.77, 0.23]", fillcolor="#eda774"] ;
275 -> 361 ;
362 [label="node #362\natomic_volume_wa <= 12.8592\ngini = 0.4861\nsamples = 1.1%\nvalue = [0.5834, 0.4166]", fillcolor="#f8dbc6"] ;
361 -> 362 ;
363 [label="node #363\natomic_number_wa <= 16.75\ngini = 0.388\nsamples = 0.3%\nvalue = [0.2634, 0.7366]", fillcolor="#80c0ee"] ;
362 -> 363 ;
364 [label="node #364\ngini = 0.0\nsamples = 0.0%\nvalue = [1.0, 0.0]", fillcolor="#e58139"] ;
363 -> 364 ;
365 [label="node #365\natomic_volume_wa <= 11.3979\ngini = 0.3531\nsamples = 0.3%\nvalue = [0.229, 0.771]", fillcolor="#74baed"] ;
363 -> 365 ;
366 [label="node #366\ngini = 0.0\nsamples = 0.1%\nvalue = [0.0, 1.0]", fillcolor="#399de5"] ;
365 -> 366 ;
367 [label="node #367\natomic_ionization_potential_wad <= 2.604\ngini = 0.4249\nsamples = 0.2%\nvalue = [0.3062, 0.6938]", fillcolor="#90c8f0"] ;
365 -> 367 ;
368 [label="node #368\natomic_r_covalent_wad <= 0.3369\ngini = 0.4628\nsamples = 0.0%\nvalue = [0.6364, 0.3636]", fillcolor="#f4c9aa"] ;
367 -> 368 ;
369 [label="node #369\natomic_number_wa <= 20.3651\ngini = 0.3682\nsamples = 0.0%\nvalue = [0.7568, 0.2432]", fillcolor="#edaa79"] ;
368 -> 369 ;
370 [label="node #370\ngini = 0.4082\nsamples = 0.0%\nvalue = [0.2857, 0.7143]", fillcolor="#88c4ef"] ;
369 -> 370 ;
371 [label="node #371\ngini = 0.2311\nsamples = 0.0%\nvalue = [0.8667, 0.1333]", fillcolor="#e99457"] ;
369 -> 371 ;
372 [label="node #372\ngini = 0.0\nsamples = 0.0%\nvalue = [0.0, 1.0]", fillcolor="#399de5"] ;
368 -> 372 ;
373 [label="node #373\natomic_ionization_potential_wa <= 9.1397\ngini = 0.2965\nsamples = 0.1%\nvalue = [0.181, 0.819]", fillcolor="#65b3eb"] ;
367 -> 373 ;
374 [label="node #374\ngini = 0.0\nsamples = 0.0%\nvalue = [1.0, 0.0]", fillcolor="#e58139"] ;
373 -> 374 ;
375 [label="node #375\nrel_stoich_wa <= 0.3519\ngini = 0.2575\nsamples = 0.1%\nvalue = [0.1518, 0.8482]", fillcolor="#5cafea"] ;
373 -> 375 ;
376 [label="node #376\ngini = 0.4898\nsamples = 0.0%\nvalue = [0.5714, 0.4286]", fillcolor="#f8e0ce"] ;
375 -> 376 ;
377 [label="node #377\ngini = 0.1668\nsamples = 0.1%\nvalue = [0.0918, 0.9082]", fillcolor="#4da7e8"] ;
375 -> 377 ;
378 [label="node #378\nrel_stoich_wa <= 0.4596\ngini = 0.4243\nsamples = 0.8%\nvalue = [0.6946, 0.3054]", fillcolor="#f0b890"] ;
362 -> 378 ;
379 [label="node #379\natomic_pauling_electronegativity_wa <= 2.4297\ngini = 0.3231\nsamples = 0.5%\nvalue = [0.7974, 0.2026]", fillcolor="#eca16b"] ;
378 -> 379 ;
380 [label="node #380\natomic_r_covalent_wad <= 0.618\ngini = 0.4037\nsamples = 0.3%\nvalue = [0.7194, 0.2806]", fillcolor="#efb286"] ;
379 -> 380 ;
381 [label="node #381\natomic_number_wa <= 29.5102\ngini = 0.2731\nsamples = 0.2%\nvalue = [0.8368, 0.1632]", fillcolor="#ea9a60"] ;
380 -> 381 ;
382 [label="node #382\natomic_r_covalent_wad <= 0.5586\ngini = 0.4398\nsamples = 0.1%\nvalue = [0.6735, 0.3265]", fillcolor="#f2be99"] ;
381 -> 382 ;
383 [label="node #383\ngini = 0.3911\nsamples = 0.1%\nvalue = [0.7333, 0.2667]", fillcolor="#eeaf81"] ;
382 -> 383 ;
384 [label="node #384\ngini = 0.0\nsamples = 0.0%\nvalue = [0.0, 1.0]", fillcolor="#399de5"] ;
382 -> 384 ;
385 [label="node #385\natomic_number_wa <= 54.2381\ngini = 0.1901\nsamples = 0.2%\nvalue = [0.8936, 0.1064]", fillcolor="#e89051"] ;
381 -> 385 ;
386 [label="node #386\ngini = 0.1289\nsamples = 0.1%\nvalue = [0.9308, 0.0692]", fillcolor="#e78a48"] ;
385 -> 386 ;
387 [label="node #387\ngini = 0.4959\nsamples = 0.0%\nvalue = [0.4545, 0.5455]", fillcolor="#deeffb"] ;
385 -> 387 ;
388 [label="node #388\natomic_r_covalent_wa <= 1.2295\ngini = 0.4977\nsamples = 0.1%\nvalue = [0.4659, 0.5341]", fillcolor="#e6f2fc"] ;
380 -> 388 ;
389 [label="node #389\natomic_pauling_electronegativity_wad <= 1.4243\ngini = 0.2337\nsamples = 0.0%\nvalue = [0.8649, 0.1351]", fillcolor="#e99558"] ;
388 -> 389 ;
390 [label="node #390\ngini = 0.0713\nsamples = 0.0%\nvalue = [0.963, 0.037]", fillcolor="#e68641"] ;
389 -> 390 ;
391 [label="node #391\ngini = 0.48\nsamples = 0.0%\nvalue = [0.6, 0.4]", fillcolor="#f6d5bd"] ;
389 -> 391 ;
392 [label="node #392\natomic_volume_wa <= 17.49\ngini = 0.2907\nsamples = 0.1%\nvalue = [0.1765, 0.8235]", fillcolor="#63b2eb"] ;
388 -> 392 ;
393 [label="node #393\ngini = 0.2188\nsamples = 0.1%\nvalue = [0.125, 0.875]", fillcolor="#55abe9"] ;
392 -> 393 ;
394 [label="node #394\ngini = 0.0\nsamples = 0.0%\nvalue = [1.0, 0.0]", fillcolor="#e58139"] ;
392 -> 394 ;
395 [label="node #395\ngini = 0.0\nsamples = 0.1%\nvalue = [1.0, 0.0]", fillcolor="#e58139"] ;
379 -> 395 ;
396 [label="node #396\natomic_volume_wa <= 14.7767\ngini = 0.4964\nsamples = 0.3%\nvalue = [0.5423, 0.4577]", fillcolor="#fbebe0"] ;
378 -> 396 ;
397 [label="node #397\natomic_pauling_electronegativity_wad <= 0.735\ngini = 0.3856\nsamples = 0.1%\nvalue = [0.2609, 0.7391]", fillcolor="#7fc0ee"] ;
396 -> 397 ;
398 [label="node #398\natomic_volume_wad <= 7.1\ngini = 0.4775\nsamples = 0.1%\nvalue = [0.6061, 0.3939]", fillcolor="#f6d3ba"] ;
397 -> 398 ;
399 [label="node #399\natomic_pauling_electronegativity_wad <= 0.09\ngini = 0.1244\nsamples = 0.0%\nvalue = [0.9333, 0.0667]", fillcolor="#e78a47"] ;
398 -> 399 ;
400 [label="node #400\ngini = 0.4444\nsamples = 0.0%\nvalue = [0.6667, 0.3333]", fillcolor="#f2c09c"] ;
399 -> 400 ;
401 [label="node #401\ngini = 0.0\nsamples = 0.0%\nvalue = [1.0, 0.0]", fillcolor="#e58139"] ;
399 -> 401 ;
402 [label="node #402\natomic_number_wad <= 67.75\ngini = 0.4444\nsamples = 0.0%\nvalue = [0.3333, 0.6667]", fillcolor="#9ccef2"] ;
398 -> 402 ;
403 [label="node #403\ngini = 0.2449\nsamples = 0.0%\nvalue = [0.1429, 0.8571]", fillcolor="#5aade9"] ;
402 -> 403 ;
404 [label="node #404\ngini = 0.0\nsamples = 0.0%\nvalue = [1.0, 0.0]", fillcolor="#e58139"] ;
402 -> 404 ;
405 [label="node #405\nrel_stoich_wad <= 0.316\ngini = 0.2142\nsamples = 0.1%\nvalue = [0.122, 0.878]", fillcolor="#54abe9"] ;
397 -> 405 ;
406 [label="node #406\natomic_r_covalent_wad <= 0.445\ngini = 0.375\nsamples = 0.0%\nvalue = [0.75, 0.25]", fillcolor="#eeab7b"] ;
405 -> 406 ;
407 [label="node #407\ngini = 0.0\nsamples = 0.0%\nvalue = [0.0, 1.0]", fillcolor="#399de5"] ;
406 -> 407 ;
408 [label="node #408\ngini = 0.0\nsamples = 0.0%\nvalue = [1.0, 0.0]", fillcolor="#e58139"] ;
406 -> 408 ;
409 [label="node #409\natomic_number_wad <= 6.5\ngini = 0.1634\nsamples = 0.1%\nvalue = [0.0897, 0.9103]", fillcolor="#4da7e8"] ;
405 -> 409 ;
410 [label="node #410\ngini = 0.48\nsamples = 0.0%\nvalue = [0.4, 0.6]", fillcolor="#bddef6"] ;
409 -> 410 ;
411 [label="node #411\ngini = 0.0843\nsamples = 0.1%\nvalue = [0.0441, 0.9559]", fillcolor="#42a2e6"] ;
409 -> 411 ;
412 [label="node #412\natomic_volume_wad <= 9.4664\ngini = 0.359\nsamples = 0.2%\nvalue = [0.7655, 0.2345]", fillcolor="#eda876"] ;
396 -> 412 ;
413 [label="node #413\nrel_stoich_wa <= 0.6525\ngini = 0.1634\nsamples = 0.1%\nvalue = [0.9103, 0.0897]", fillcolor="#e88d4d"] ;
412 -> 413 ;
414 [label="node #414\natomic_r_covalent_wa <= 1.5537\ngini = 0.1229\nsamples = 0.1%\nvalue = [0.9342, 0.0658]", fillcolor="#e78a47"] ;
413 -> 414 ;
415 [label="node #415\ngini = 0.0778\nsamples = 0.1%\nvalue = [0.9595, 0.0405]", fillcolor="#e68641"] ;
414 -> 415 ;
416 [label="node #416\ngini = 0.0\nsamples = 0.0%\nvalue = [0.0, 1.0]", fillcolor="#399de5"] ;
414 -> 416 ;
417 [label="node #417\ngini = 0.0\nsamples = 0.0%\nvalue = [0.0, 1.0]", fillcolor="#399de5"] ;
413 -> 417 ;
418 [label="node #418\natomic_number_wad <= 63.1176\ngini = 0.4812\nsamples = 0.1%\nvalue = [0.597, 0.403]", fillcolor="#f7d6bf"] ;
412 -> 418 ;
419 [label="node #419\natomic_ionization_potential_wa <= 9.5998\ngini = 0.4281\nsamples = 0.1%\nvalue = [0.6897, 0.3103]", fillcolor="#f1ba92"] ;
418 -> 419 ;
420 [label="node #420\ngini = 0.3841\nsamples = 0.1%\nvalue = [0.7407, 0.2593]", fillcolor="#eead7e"] ;
419 -> 420 ;
421 [label="node #421\ngini = 0.0\nsamples = 0.0%\nvalue = [0.0, 1.0]", fillcolor="#399de5"] ;
419 -> 421 ;
422 [label="node #422\ngini = 0.0\nsamples = 0.0%\nvalue = [0.0, 1.0]", fillcolor="#399de5"] ;
418 -> 422 ;
423 [label="node #423\natomic_number_wa <= 14.0714\ngini = 0.2542\nsamples = 2.4%\nvalue = [0.8505, 0.1495]", fillcolor="#ea975c"] ;
361 -> 423 ;
424 [label="node #424\nrel_stoich_wa <= 0.622\ngini = 0.0812\nsamples = 0.7%\nvalue = [0.9576, 0.0424]", fillcolor="#e68742"] ;
423 -> 424 ;
425 [label="node #425\natomic_number_wa <= 13.3095\ngini = 0.0045\nsamples = 0.6%\nvalue = [0.9977, 0.0023]", fillcolor="#e58139"] ;
424 -> 425 ;
426 [label="node #426\ngini = 0.0\nsamples = 0.5%\nvalue = [1.0, 0.0]", fillcolor="#e58139"] ;
425 -> 426 ;
427 [label="node #427\natomic_number_wa <= 13.381\ngini = 0.1528\nsamples = 0.0%\nvalue = [0.9167, 0.0833]", fillcolor="#e78c4b"] ;
425 -> 427 ;
428 [label="node #428\ngini = 0.0\nsamples = 0.0%\nvalue = [0.0, 1.0]", fillcolor="#399de5"] ;
427 -> 428 ;
429 [label="node #429\ngini = 0.0\nsamples = 0.0%\nvalue = [1.0, 0.0]", fillcolor="#e58139"] ;
427 -> 429 ;
430 [label="node #430\natomic_r_covalent_wad <= 0.895\ngini = 0.3041\nsamples = 0.1%\nvalue = [0.813, 0.187]", fillcolor="#eb9e67"] ;
424 -> 430 ;
431 [label="node #431\natomic_ionization_potential_wad <= 2.78\ngini = 0.2302\nsamples = 0.1%\nvalue = [0.8673, 0.1327]", fillcolor="#e99457"] ;
430 -> 431 ;
432 [label="node #432\nrel_stoich_wa <= 0.6397\ngini = 0.3232\nsamples = 0.1%\nvalue = [0.7973, 0.2027]", fillcolor="#eca16b"] ;
431 -> 432 ;
433 [label="node #433\ngini = 0.0\nsamples = 0.0%\nvalue = [0.0, 1.0]", fillcolor="#399de5"] ;
432 -> 433 ;
434 [label="node #434\natomic_ionization_potential_wa <= 14.07\ngini = 0.2959\nsamples = 0.1%\nvalue = [0.8194, 0.1806]", fillcolor="#eb9d65"] ;
432 -> 434 ;
435 [label="node #435\ngini = 0.233\nsamples = 0.1%\nvalue = [0.8654, 0.1346]", fillcolor="#e99558"] ;
434 -> 435 ;
436 [label="node #436\ngini = 0.42\nsamples = 0.0%\nvalue = [0.7, 0.3]", fillcolor="#f0b78e"] ;
434 -> 436 ;
437 [label="node #437\ngini = 0.0\nsamples = 0.0%\nvalue = [1.0, 0.0]", fillcolor="#e58139"] ;
431 -> 437 ;
438 [label="node #438\nrel_stoich_wad <= 1.0157\ngini = 0.32\nsamples = 0.0%\nvalue = [0.2, 0.8]", fillcolor="#6ab6ec"] ;
430 -> 438 ;
439 [label="node #439\ngini = 0.0\nsamples = 0.0%\nvalue = [0.0, 1.0]", fillcolor="#399de5"] ;
438 -> 439 ;
440 [label="node #440\ngini = 0.0\nsamples = 0.0%\nvalue = [1.0, 0.0]", fillcolor="#e58139"] ;
438 -> 440 ;
441 [label="node #441\natomic_volume_wa <= 12.0826\ngini = 0.3094\nsamples = 1.7%\nvalue = [0.8087, 0.1913]", fillcolor="#eb9f68"] ;
423 -> 441 ;
442 [label="node #442\natomic_ionization_potential_wa <= 12.3902\ngini = 0.2211\nsamples = 0.1%\nvalue = [0.1266, 0.8734]", fillcolor="#56abe9"] ;
441 -> 442 ;
443 [label="node #443\nrel_stoich_wa <= 0.3819\ngini = 0.126\nsamples = 0.1%\nvalue = [0.0676, 0.9324]", fillcolor="#47a4e7"] ;
442 -> 443 ;
444 [label="node #444\natomic_r_covalent_wa <= 1.1038\ngini = 0.4082\nsamples = 0.0%\nvalue = [0.7143, 0.2857]", fillcolor="#efb388"] ;
443 -> 444 ;
445 [label="node #445\ngini = 0.0\nsamples = 0.0%\nvalue = [1.0, 0.0]", fillcolor="#e58139"] ;
444 -> 445 ;
446 [label="node #446\ngini = 0.0\nsamples = 0.0%\nvalue = [0.0, 1.0]", fillcolor="#399de5"] ;
444 -> 446 ;
447 [label="node #447\ngini = 0.0\nsamples = 0.1%\nvalue = [0.0, 1.0]", fillcolor="#399de5"] ;
443 -> 447 ;
448 [label="node #448\ngini = 0.0\nsamples = 0.0%\nvalue = [1.0, 0.0]", fillcolor="#e58139"] ;
442 -> 448 ;
449 [label="node #449\nrel_stoich_wa <= 0.5563\ngini = 0.2577\nsamples = 1.6%\nvalue = [0.8481, 0.1519]", fillcolor="#ea985c"] ;
441 -> 449 ;
450 [label="node #450\natomic_pauling_electronegativity_wad <= 0.355\ngini = 0.1881\nsamples = 1.1%\nvalue = [0.8949, 0.1051]", fillcolor="#e89050"] ;
449 -> 450 ;
451 [label="node #451\natomic_volume_wad <= 7.775\ngini = 0.4688\nsamples = 0.0%\nvalue = [0.625, 0.375]", fillcolor="#f5cdb0"] ;
450 -> 451 ;
452 [label="node #452\nrel_stoich_wad <= 0.1\ngini = 0.4959\nsamples = 0.0%\nvalue = [0.4545, 0.5455]", fillcolor="#deeffb"] ;
451 -> 452 ;
453 [label="node #453\ngini = 0.355\nsamples = 0.0%\nvalue = [0.7692, 0.2308]", fillcolor="#eda774"] ;
452 -> 453 ;
454 [label="node #454\ngini = 0.0\nsamples = 0.0%\nvalue = [0.0, 1.0]", fillcolor="#399de5"] ;
452 -> 454 ;
455 [label="node #455\ngini = 0.0\nsamples = 0.0%\nvalue = [1.0, 0.0]", fillcolor="#e58139"] ;
451 -> 455 ;
456 [label="node #456\natomic_pauling_electronegativity_wad <= 1.0232\ngini = 0.1729\nsamples = 1.0%\nvalue = [0.9044, 0.0956]", fillcolor="#e88e4e"] ;
450 -> 456 ;
457 [label="node #457\natomic_pauling_electronegativity_wad <= 0.6163\ngini = 0.0764\nsamples = 0.5%\nvalue = [0.9602, 0.0398]", fillcolor="#e68641"] ;
456 -> 457 ;
458 [label="node #458\ngini = 0.2907\nsamples = 0.1%\nvalue = [0.8235, 0.1765]", fillcolor="#eb9c63"] ;
457 -> 458 ;
459 [label="node #459\ngini = 0.0237\nsamples = 0.4%\nvalue = [0.988, 0.012]", fillcolor="#e5833b"] ;
457 -> 459 ;
460 [label="node #460\natomic_volume_wa <= 14.8087\ngini = 0.2405\nsamples = 0.6%\nvalue = [0.8602, 0.1398]", fillcolor="#e99559"] ;
456 -> 460 ;
461 [label="node #461\ngini = 0.4152\nsamples = 0.1%\nvalue = [0.7059, 0.2941]", fillcolor="#f0b58b"] ;
460 -> 461 ;
462 [label="node #462\ngini = 0.168\nsamples = 0.4%\nvalue = [0.9075, 0.0925]", fillcolor="#e88e4d"] ;
460 -> 462 ;
463 [label="node #463\natomic_volume_wa <= 15.2488\ngini = 0.3802\nsamples = 0.5%\nvalue = [0.7447, 0.2553]", fillcolor="#eeac7d"] ;
449 -> 463 ;
464 [label="node #464\natomic_ionization_potential_wa <= 12.5114\ngini = 0.4998\nsamples = 0.1%\nvalue = [0.5106, 0.4894]", fillcolor="#fefaf7"] ;
463 -> 464 ;
465 [label="node #465\natomic_volume_wa <= 14.5331\ngini = 0.4938\nsamples = 0.1%\nvalue = [0.4444, 0.5556]", fillcolor="#d7ebfa"] ;
464 -> 465 ;
466 [label="node #466\ngini = 0.1327\nsamples = 0.0%\nvalue = [0.0714, 0.9286]", fillcolor="#48a5e7"] ;
465 -> 466 ;
467 [label="node #467\ngini = 0.499\nsamples = 0.1%\nvalue = [0.5224, 0.4776]", fillcolor="#fdf4ee"] ;
465 -> 467 ;
468 [label="node #468\natomic_number_wa <= 22.25\ngini = 0.142\nsamples = 0.0%\nvalue = [0.9231, 0.0769]", fillcolor="#e78c49"] ;
464 -> 468 ;
469 [label="node #469\ngini = 0.0\nsamples = 0.0%\nvalue = [1.0, 0.0]", fillcolor="#e58139"] ;
468 -> 469 ;
470 [label="node #470\ngini = 0.0\nsamples = 0.0%\nvalue = [0.0, 1.0]", fillcolor="#399de5"] ;
468 -> 470 ;
471 [label="node #471\natomic_ionization_potential_wad <= 7.7575\ngini = 0.3068\nsamples = 0.4%\nvalue = [0.8108, 0.1892]", fillcolor="#eb9e67"] ;
463 -> 471 ;
472 [label="node #472\natomic_r_covalent_wa <= 1.0695\ngini = 0.2943\nsamples = 0.4%\nvalue = [0.8207, 0.1793]", fillcolor="#eb9d64"] ;
471 -> 472 ;
473 [label="node #473\ngini = 0.1356\nsamples = 0.2%\nvalue = [0.9268, 0.0732]", fillcolor="#e78b49"] ;
472 -> 473 ;
474 [label="node #474\ngini = 0.3676\nsamples = 0.2%\nvalue = [0.7573, 0.2427]", fillcolor="#eda978"] ;
472 -> 474 ;
475 [label="node #475\ngini = 0.0\nsamples = 0.0%\nvalue = [0.0, 1.0]", fillcolor="#399de5"] ;
471 -> 475 ;
476 [label="node #476\natomic_ionization_potential_wa <= 10.9669\ngini = 0.3563\nsamples = 64.9%\nvalue = [0.768, 0.232]", fillcolor="#eda775"] ;
0 -> 476 [labeldistance=2.5, labelangle=-45, headlabel="False"] ;
477 [label="node #477\natomic_volume_wa <= 12.6778\ngini = 0.4304\nsamples = 31.5%\nvalue = [0.6865, 0.3135]", fillcolor="#f1bb93"] ;
476 -> 477 ;
478 [label="node #478\natomic_number_wad <= 33.875\ngini = 0.305\nsamples = 1.1%\nvalue = [0.1878, 0.8122]", fillcolor="#67b4eb"] ;
477 -> 478 ;
479 [label="node #479\natomic_r_covalent_wa <= 1.1219\ngini = 0.4937\nsamples = 0.4%\nvalue = [0.4437, 0.5563]", fillcolor="#d7ebfa"] ;
478 -> 479 ;
480 [label="node #480\nrel_stoich_wa <= 0.502\ngini = 0.4501\nsamples = 0.2%\nvalue = [0.6579, 0.3421]", fillcolor="#f3c3a0"] ;
479 -> 480 ;
481 [label="node #481\natomic_volume_wa <= 12.5323\ngini = 0.3954\nsamples = 0.2%\nvalue = [0.7287, 0.2713]", fillcolor="#efb083"] ;
480 -> 481 ;
482 [label="node #482\natomic_pauling_electronegativity_wad <= 1.565\ngini = 0.3129\nsamples = 0.1%\nvalue = [0.8058, 0.1942]", fillcolor="#eb9f69"] ;
481 -> 482 ;
483 [label="node #483\natomic_pauling_electronegativity_wa <= 1.981\ngini = 0.4444\nsamples = 0.0%\nvalue = [0.3333, 0.6667]", fillcolor="#9ccef2"] ;
482 -> 483 ;
484 [label="node #484\ngini = 0.0\nsamples = 0.0%\nvalue = [1.0, 0.0]", fillcolor="#e58139"] ;
483 -> 484 ;
485 [label="node #485\natomic_ionization_potential_wad <= 5.807\ngini = 0.32\nsamples = 0.0%\nvalue = [0.2, 0.8]", fillcolor="#6ab6ec"] ;
483 -> 485 ;
486 [label="node #486\ngini = 0.5\nsamples = 0.0%\nvalue = [0.5, 0.5]", fillcolor="#ffffff"] ;
485 -> 486 ;
487 [label="node #487\ngini = 0.0\nsamples = 0.0%\nvalue = [0.0, 1.0]", fillcolor="#399de5"] ;
485 -> 487 ;
488 [label="node #488\natomic_ionization_potential_wa <= 10.6834\ngini = 0.2755\nsamples = 0.1%\nvalue = [0.8351, 0.1649]", fillcolor="#ea9a60"] ;
482 -> 488 ;
489 [label="node #489\natomic_ionization_potential_wa <= 10.6034\ngini = 0.3589\nsamples = 0.1%\nvalue = [0.7656, 0.2344]", fillcolor="#eda876"] ;
488 -> 489 ;
490 [label="node #490\ngini = 0.2524\nsamples = 0.1%\nvalue = [0.8519, 0.1481]", fillcolor="#ea975b"] ;
489 -> 490 ;
491 [label="node #491\ngini = 0.42\nsamples = 0.0%\nvalue = [0.3, 0.7]", fillcolor="#8ec7f0"] ;
489 -> 491 ;
492 [label="node #492\natomic_volume_wa <= 12.4302\ngini = 0.0588\nsamples = 0.0%\nvalue = [0.9697, 0.0303]", fillcolor="#e6853f"] ;
488 -> 492 ;
493 [label="node #493\ngini = 0.0\nsamples = 0.0%\nvalue = [1.0, 0.0]", fillcolor="#e58139"] ;
492 -> 493 ;
494 [label="node #494\ngini = 0.32\nsamples = 0.0%\nvalue = [0.8, 0.2]", fillcolor="#eca06a"] ;
492 -> 494 ;
495 [label="node #495\natomic_number_wa <= 14.2167\ngini = 0.4882\nsamples = 0.0%\nvalue = [0.4231, 0.5769]", fillcolor="#cae5f8"] ;
481 -> 495 ;
496 [label="node #496\natomic_pauling_electronegativity_wad <= 2.3054\ngini = 0.1653\nsamples = 0.0%\nvalue = [0.9091, 0.0909]", fillcolor="#e88e4d"] ;
495 -> 496 ;
497 [label="node #497\ngini = 0.0\nsamples = 0.0%\nvalue = [0.0, 1.0]", fillcolor="#399de5"] ;
496 -> 497 ;
498 [label="node #498\ngini = 0.0\nsamples = 0.0%\nvalue = [1.0, 0.0]", fillcolor="#e58139"] ;
496 -> 498 ;
499 [label="node #499\natomic_ionization_potential_wa <= 10.2102\ngini = 0.1244\nsamples = 0.0%\nvalue = [0.0667, 0.9333]", fillcolor="#47a4e7"] ;
495 -> 499 ;
500 [label="node #500\ngini = 0.0\nsamples = 0.0%\nvalue = [1.0, 0.0]", fillcolor="#e58139"] ;
499 -> 500 ;
501 [label="node #501\ngini = 0.0\nsamples = 0.0%\nvalue = [0.0, 1.0]", fillcolor="#399de5"] ;
499 -> 501 ;
502 [label="node #502\natomic_ionization_potential_wa <= 9.9675\ngini = 0.3856\nsamples = 0.0%\nvalue = [0.2609, 0.7391]", fillcolor="#7fc0ee"] ;
480 -> 502 ;
503 [label="node #503\natomic_volume_wad <= 17.9161\ngini = 0.4959\nsamples = 0.0%\nvalue = [0.5455, 0.4545]", fillcolor="#fbeade"] ;
502 -> 503 ;
504 [label="node #504\ngini = 0.0\nsamples = 0.0%\nvalue = [1.0, 0.0]", fillcolor="#e58139"] ;
503 -> 504 ;
505 [label="node #505\nrel_stoich_wad <= 0.6356\ngini = 0.4688\nsamples = 0.0%\nvalue = [0.375, 0.625]", fillcolor="#b0d8f5"] ;
503 -> 505 ;
506 [label="node #506\ngini = 0.5\nsamples = 0.0%\nvalue = [0.5, 0.5]", fillcolor="#ffffff"] ;
505 -> 506 ;
507 [label="node #507\ngini = 0.0\nsamples = 0.0%\nvalue = [0.0, 1.0]", fillcolor="#399de5"] ;
505 -> 507 ;
508 [label="node #508\ngini = 0.0\nsamples = 0.0%\nvalue = [0.0, 1.0]", fillcolor="#399de5"] ;
502 -> 508 ;
509 [label="node #509\nrel_stoich_wa <= 0.3455\ngini = 0.3638\nsamples = 0.2%\nvalue = [0.239, 0.761]", fillcolor="#77bced"] ;
479 -> 509 ;
510 [label="node #510\natomic_number_wad <= 23.7222\ngini = 0.3944\nsamples = 0.0%\nvalue = [0.7297, 0.2703]", fillcolor="#efb082"] ;
509 -> 510 ;
511 [label="node #511\ngini = 0.0\nsamples = 0.0%\nvalue = [0.0, 1.0]", fillcolor="#399de5"] ;
510 -> 511 ;
512 [label="node #512\natomic_number_wa <= 28.6389\ngini = 0.18\nsamples = 0.0%\nvalue = [0.9, 0.1]", fillcolor="#e88f4f"] ;
510 -> 512 ;
513 [label="node #513\natomic_volume_wad <= 17.3731\ngini = 0.0689\nsamples = 0.0%\nvalue = [0.9643, 0.0357]", fillcolor="#e68640"] ;
512 -> 513 ;
514 [label="node #514\ngini = 0.0\nsamples = 0.0%\nvalue = [1.0, 0.0]", fillcolor="#e58139"] ;
513 -> 514 ;
515 [label="node #515\natomic_volume_wad <= 18.0947\ngini = 0.4444\nsamples = 0.0%\nvalue = [0.6667, 0.3333]", fillcolor="#f2c09c"] ;
513 -> 515 ;
516 [label="node #516\ngini = 0.0\nsamples = 0.0%\nvalue = [0.0, 1.0]", fillcolor="#399de5"] ;
515 -> 516 ;
517 [label="node #517\ngini = 0.0\nsamples = 0.0%\nvalue = [1.0, 0.0]", fillcolor="#e58139"] ;
515 -> 517 ;
518 [label="node #518\ngini = 0.0\nsamples = 0.0%\nvalue = [0.0, 1.0]", fillcolor="#399de5"] ;
512 -> 518 ;
519 [label="node #519\natomic_number_wad <= 28.5694\ngini = 0.1641\nsamples = 0.1%\nvalue = [0.0902, 0.9098]", fillcolor="#4da7e8"] ;
509 -> 519 ;
520 [label="node #520\natomic_number_wa <= 7.0805\ngini = 0.1143\nsamples = 0.1%\nvalue = [0.0609, 0.9391]", fillcolor="#46a3e7"] ;
519 -> 520 ;
521 [label="node #521\ngini = 0.0\nsamples = 0.0%\nvalue = [1.0, 0.0]", fillcolor="#e58139"] ;
520 -> 521 ;
522 [label="node #522\natomic_volume_wad <= 5.81\ngini = 0.0997\nsamples = 0.1%\nvalue = [0.0526, 0.9474]", fillcolor="#44a2e6"] ;
520 -> 522 ;
523 [label="node #523\natomic_pauling_electronegativity_wad <= 1.6878\ngini = 0.3967\nsamples = 0.0%\nvalue = [0.2727, 0.7273]", fillcolor="#83c2ef"] ;
522 -> 523 ;
524 [label="node #524\ngini = 0.0\nsamples = 0.0%\nvalue = [1.0, 0.0]", fillcolor="#e58139"] ;
523 -> 524 ;
525 [label="node #525\ngini = 0.0\nsamples = 0.0%\nvalue = [0.0, 1.0]", fillcolor="#399de5"] ;
523 -> 525 ;
526 [label="node #526\natomic_number_wa <= 31.6875\ngini = 0.0566\nsamples = 0.1%\nvalue = [0.0291, 0.9709]", fillcolor="#3fa0e6"] ;
522 -> 526 ;
527 [label="node #527\ngini = 0.0211\nsamples = 0.1%\nvalue = [0.0106, 0.9894]", fillcolor="#3b9ee5"] ;
526 -> 527 ;
528 [label="node #528\ngini = 0.3457\nsamples = 0.0%\nvalue = [0.2222, 0.7778]", fillcolor="#72b9ec"] ;
526 -> 528 ;
529 [label="node #529\nrel_stoich_wad <= 0.8688\ngini = 0.4898\nsamples = 0.0%\nvalue = [0.5714, 0.4286]", fillcolor="#f8e0ce"] ;
519 -> 529 ;
530 [label="node #530\ngini = 0.0\nsamples = 0.0%\nvalue = [1.0, 0.0]", fillcolor="#e58139"] ;
529 -> 530 ;
531 [label="node #531\ngini = 0.0\nsamples = 0.0%\nvalue = [0.0, 1.0]", fillcolor="#399de5"] ;
529 -> 531 ;
532 [label="node #532\natomic_pauling_electronegativity_wa <= 2.1719\ngini = 0.1177\nsamples = 0.8%\nvalue = [0.0628, 0.9372]", fillcolor="#46a4e7"] ;
478 -> 532 ;
533 [label="node #533\natomic_r_covalent_wa <= 0.8385\ngini = 0.0528\nsamples = 0.7%\nvalue = [0.0271, 0.9729]", fillcolor="#3fa0e6"] ;
532 -> 533 ;
534 [label="node #534\natomic_number_wa <= 10.225\ngini = 0.4444\nsamples = 0.0%\nvalue = [0.6667, 0.3333]", fillcolor="#f2c09c"] ;
533 -> 534 ;
535 [label="node #535\ngini = 0.0\nsamples = 0.0%\nvalue = [1.0, 0.0]", fillcolor="#e58139"] ;
534 -> 535 ;
536 [label="node #536\ngini = 0.0\nsamples = 0.0%\nvalue = [0.0, 1.0]", fillcolor="#399de5"] ;
534 -> 536 ;
537 [label="node #537\natomic_pauling_electronegativity_wa <= 2.0645\ngini = 0.0325\nsamples = 0.7%\nvalue = [0.0165, 0.9835]", fillcolor="#3c9fe5"] ;
533 -> 537 ;
538 [label="node #538\natomic_r_covalent_wad <= 0.13\ngini = 0.0088\nsamples = 0.5%\nvalue = [0.0044, 0.9956]", fillcolor="#3a9de5"] ;
537 -> 538 ;
539 [label="node #539\natomic_number_wa <= 42.375\ngini = 0.2778\nsamples = 0.0%\nvalue = [0.1667, 0.8333]", fillcolor="#61b1ea"] ;
538 -> 539 ;
540 [label="node #540\ngini = 0.0\nsamples = 0.0%\nvalue = [0.0, 1.0]", fillcolor="#399de5"] ;
539 -> 540 ;
541 [label="node #541\ngini = 0.0\nsamples = 0.0%\nvalue = [1.0, 0.0]", fillcolor="#e58139"] ;
539 -> 541 ;
542 [label="node #542\natomic_ionization_potential_wa <= 6.8897\ngini = 0.0045\nsamples = 0.5%\nvalue = [0.0022, 0.9978]", fillcolor="#399de5"] ;
538 -> 542 ;
543 [label="node #543\natomic_ionization_potential_wa <= 6.8829\ngini = 0.0644\nsamples = 0.0%\nvalue = [0.0333, 0.9667]", fillcolor="#40a0e6"] ;
542 -> 543 ;
544 [label="node #544\ngini = 0.0\nsamples = 0.0%\nvalue = [0.0, 1.0]", fillcolor="#399de5"] ;
543 -> 544 ;
545 [label="node #545\ngini = 0.0\nsamples = 0.0%\nvalue = [1.0, 0.0]", fillcolor="#e58139"] ;
543 -> 545 ;
546 [label="node #546\ngini = 0.0\nsamples = 0.5%\nvalue = [0.0, 1.0]", fillcolor="#399de5"] ;
542 -> 546 ;
547 [label="node #547\natomic_volume_wa <= 12.3246\ngini = 0.1392\nsamples = 0.1%\nvalue = [0.0753, 0.9247]", fillcolor="#49a5e7"] ;
537 -> 547 ;
548 [label="node #548\natomic_pauling_electronegativity_wa <= 2.0655\ngini = 0.0858\nsamples = 0.1%\nvalue = [0.0449, 0.9551]", fillcolor="#42a2e6"] ;
547 -> 548 ;
549 [label="node #549\natomic_volume_wad <= 11.7667\ngini = 0.4444\nsamples = 0.0%\nvalue = [0.6667, 0.3333]", fillcolor="#f2c09c"] ;
548 -> 549 ;
550 [label="node #550\ngini = 0.0\nsamples = 0.0%\nvalue = [0.0, 1.0]", fillcolor="#399de5"] ;
549 -> 550 ;
551 [label="node #551\ngini = 0.0\nsamples = 0.0%\nvalue = [1.0, 0.0]", fillcolor="#e58139"] ;
549 -> 551 ;
552 [label="node #552\natomic_r_covalent_wa <= 1.1255\ngini = 0.0454\nsamples = 0.1%\nvalue = [0.0233, 0.9767]", fillcolor="#3e9fe6"] ;
548 -> 552 ;
553 [label="node #553\ngini = 0.0\nsamples = 0.0%\nvalue = [1.0, 0.0]", fillcolor="#e58139"] ;
552 -> 553 ;
554 [label="node #554\ngini = 0.0233\nsamples = 0.1%\nvalue = [0.0118, 0.9882]", fillcolor="#3b9ee5"] ;
552 -> 554 ;
555 [label="node #555\natomic_volume_wad <= 12.0056\ngini = 0.375\nsamples = 0.0%\nvalue = [0.75, 0.25]", fillcolor="#eeab7b"] ;
547 -> 555 ;
556 [label="node #556\ngini = 0.0\nsamples = 0.0%\nvalue = [0.0, 1.0]", fillcolor="#399de5"] ;
555 -> 556 ;
557 [label="node #557\ngini = 0.0\nsamples = 0.0%\nvalue = [1.0, 0.0]", fillcolor="#e58139"] ;
555 -> 557 ;
558 [label="node #558\natomic_pauling_electronegativity_wa <= 2.2037\ngini = 0.4181\nsamples = 0.1%\nvalue = [0.2976, 0.7024]", fillcolor="#8dc7f0"] ;
532 -> 558 ;
559 [label="node #559\natomic_volume_wa <= 10.8759\ngini = 0.2778\nsamples = 0.0%\nvalue = [0.8333, 0.1667]", fillcolor="#ea9a61"] ;
558 -> 559 ;
560 [label="node #560\ngini = 0.0\nsamples = 0.0%\nvalue = [0.0, 1.0]", fillcolor="#399de5"] ;
559 -> 560 ;
561 [label="node #561\ngini = 0.0\nsamples = 0.0%\nvalue = [1.0, 0.0]", fillcolor="#e58139"] ;
559 -> 561 ;
562 [label="node #562\natomic_number_wa <= 17.3125\ngini = 0.2571\nsamples = 0.1%\nvalue = [0.1515, 0.8485]", fillcolor="#5caeea"] ;
558 -> 562 ;
563 [label="node #563\natomic_number_wad <= 35.0\ngini = 0.5\nsamples = 0.0%\nvalue = [0.5, 0.5]", fillcolor="#ffffff"] ;
562 -> 563 ;
564 [label="node #564\ngini = 0.0\nsamples = 0.0%\nvalue = [0.0, 1.0]", fillcolor="#399de5"] ;
563 -> 564 ;
565 [label="node #565\natomic_volume_wad <= 44.9654\ngini = 0.32\nsamples = 0.0%\nvalue = [0.8, 0.2]", fillcolor="#eca06a"] ;
563 -> 565 ;
566 [label="node #566\natomic_pauling_electronegativity_wad <= 4.545\ngini = 0.1975\nsamples = 0.0%\nvalue = [0.8889, 0.1111]", fillcolor="#e89152"] ;
565 -> 566 ;
567 [label="node #567\ngini = 0.0\nsamples = 0.0%\nvalue = [1.0, 0.0]", fillcolor="#e58139"] ;
566 -> 567 ;
568 [label="node #568\ngini = 0.5\nsamples = 0.0%\nvalue = [0.5, 0.5]", fillcolor="#ffffff"] ;
566 -> 568 ;
569 [label="node #569\ngini = 0.0\nsamples = 0.0%\nvalue = [0.0, 1.0]", fillcolor="#399de5"] ;
565 -> 569 ;
570 [label="node #570\natomic_pauling_electronegativity_wa <= 2.755\ngini = 0.0768\nsamples = 0.1%\nvalue = [0.04, 0.96]", fillcolor="#41a1e6"] ;
562 -> 570 ;
571 [label="node #571\nrel_stoich_wad <= 1.1299\ngini = 0.04\nsamples = 0.1%\nvalue = [0.0204, 0.9796]", fillcolor="#3d9fe6"] ;
570 -> 571 ;
572 [label="node #572\ngini = 0.0\nsamples = 0.1%\nvalue = [0.0, 1.0]", fillcolor="#399de5"] ;
571 -> 572 ;
573 [label="node #573\nrel_stoich_wa <= 0.3961\ngini = 0.4444\nsamples = 0.0%\nvalue = [0.3333, 0.6667]", fillcolor="#9ccef2"] ;
571 -> 573 ;
574 [label="node #574\ngini = 0.0\nsamples = 0.0%\nvalue = [1.0, 0.0]", fillcolor="#e58139"] ;
573 -> 574 ;
575 [label="node #575\ngini = 0.0\nsamples = 0.0%\nvalue = [0.0, 1.0]", fillcolor="#399de5"] ;
573 -> 575 ;
576 [label="node #576\ngini = 0.0\nsamples = 0.0%\nvalue = [1.0, 0.0]", fillcolor="#e58139"] ;
570 -> 576 ;
577 [label="node #577\natomic_number_wa <= 10.309\ngini = 0.4161\nsamples = 30.4%\nvalue = [0.7048, 0.2952]", fillcolor="#f0b68c"] ;
477 -> 577 ;
578 [label="node #578\natomic_r_covalent_wad <= 1.3521\ngini = 0.1893\nsamples = 3.3%\nvalue = [0.8941, 0.1059]", fillcolor="#e89050"] ;
577 -> 578 ;
579 [label="node #579\natomic_r_covalent_wad <= 1.3206\ngini = 0.2506\nsamples = 2.1%\nvalue = [0.8531, 0.1469]", fillcolor="#e9975b"] ;
578 -> 579 ;
580 [label="node #580\natomic_number_wa <= 9.3905\ngini = 0.238\nsamples = 2.0%\nvalue = [0.862, 0.138]", fillcolor="#e99559"] ;
579 -> 580 ;
581 [label="node #581\natomic_ionization_potential_wad <= 10.5519\ngini = 0.1317\nsamples = 0.7%\nvalue = [0.9291, 0.0709]", fillcolor="#e78b48"] ;
580 -> 581 ;
582 [label="node #582\natomic_pauling_electronegativity_wad <= 2.9313\ngini = 0.3174\nsamples = 0.2%\nvalue = [0.8022, 0.1978]", fillcolor="#eba06a"] ;
581 -> 582 ;
583 [label="node #583\natomic_volume_wa <= 18.4942\ngini = 0.2335\nsamples = 0.2%\nvalue = [0.865, 0.135]", fillcolor="#e99558"] ;
582 -> 583 ;
584 [label="node #584\ngini = 0.2019\nsamples = 0.2%\nvalue = [0.8861, 0.1139]", fillcolor="#e89152"] ;
583 -> 584 ;
585 [label="node #585\ngini = 0.32\nsamples = 0.0%\nvalue = [0.2, 0.8]", fillcolor="#6ab6ec"] ;
583 -> 585 ;
586 [label="node #586\natomic_volume_wa <= 14.7048\ngini = 0.3878\nsamples = 0.0%\nvalue = [0.2632, 0.7368]", fillcolor="#80c0ee"] ;
582 -> 586 ;
587 [label="node #587\ngini = 0.1244\nsamples = 0.0%\nvalue = [0.0667, 0.9333]", fillcolor="#47a4e7"] ;
586 -> 587 ;
588 [label="node #588\ngini = 0.0\nsamples = 0.0%\nvalue = [1.0, 0.0]", fillcolor="#e58139"] ;
586 -> 588 ;
589 [label="node #589\natomic_volume_wad <= 6.2101\ngini = 0.0419\nsamples = 0.5%\nvalue = [0.9786, 0.0214]", fillcolor="#e6843d"] ;
581 -> 589 ;
590 [label="node #590\natomic_volume_wad <= 5.5301\ngini = 0.2873\nsamples = 0.0%\nvalue = [0.8261, 0.1739]", fillcolor="#ea9c63"] ;
589 -> 590 ;
591 [label="node #591\ngini = 0.0\nsamples = 0.0%\nvalue = [1.0, 0.0]", fillcolor="#e58139"] ;
590 -> 591 ;
592 [label="node #592\ngini = 0.0\nsamples = 0.0%\nvalue = [0.0, 1.0]", fillcolor="#399de5"] ;
590 -> 592 ;
593 [label="node #593\natomic_r_covalent_wa <= 0.8753\ngini = 0.0267\nsamples = 0.5%\nvalue = [0.9865, 0.0135]", fillcolor="#e5833c"] ;
589 -> 593 ;
594 [label="node #594\ngini = 0.16\nsamples = 0.1%\nvalue = [0.9123, 0.0877]", fillcolor="#e88d4c"] ;
593 -> 594 ;
595 [label="node #595\ngini = 0.0052\nsamples = 0.4%\nvalue = [0.9974, 0.0026]", fillcolor="#e5813a"] ;
593 -> 595 ;
596 [label="node #596\natomic_volume_wa <= 14.669\ngini = 0.2923\nsamples = 1.3%\nvalue = [0.8222, 0.1778]", fillcolor="#eb9c64"] ;
580 -> 596 ;
597 [label="node #597\natomic_volume_wad <= 18.89\ngini = 0.336\nsamples = 1.0%\nvalue = [0.7864, 0.2136]", fillcolor="#eca36f"] ;
596 -> 597 ;
598 [label="node #598\natomic_r_covalent_wa <= 1.0387\ngini = 0.3753\nsamples = 0.9%\nvalue = [0.7497, 0.2503]", fillcolor="#eeab7b"] ;
597 -> 598 ;
599 [label="node #599\ngini = 0.3646\nsamples = 0.8%\nvalue = [0.7602, 0.2398]", fillcolor="#eda977"] ;
598 -> 599 ;
600 [label="node #600\ngini = 0.3367\nsamples = 0.0%\nvalue = [0.2143, 0.7857]", fillcolor="#6fb8ec"] ;
598 -> 600 ;
601 [label="node #601\natomic_r_covalent_wa <= 0.8728\ngini = 0.0154\nsamples = 0.2%\nvalue = [0.9922, 0.0078]", fillcolor="#e5823b"] ;
597 -> 601 ;
602 [label="node #602\ngini = 0.04\nsamples = 0.1%\nvalue = [0.9796, 0.0204]", fillcolor="#e6843d"] ;
601 -> 602 ;
603 [label="node #603\ngini = 0.0\nsamples = 0.1%\nvalue = [1.0, 0.0]", fillcolor="#e58139"] ;
601 -> 603 ;
604 [label="node #604\natomic_number_wa <= 10.2913\ngini = 0.1005\nsamples = 0.3%\nvalue = [0.9469, 0.0531]", fillcolor="#e68844"] ;
596 -> 604 ;
605 [label="node #605\natomic_number_wa <= 9.5881\ngini = 0.0935\nsamples = 0.3%\nvalue = [0.9508, 0.0492]", fillcolor="#e68843"] ;
604 -> 605 ;
606 [label="node #606\ngini = 0.3299\nsamples = 0.0%\nvalue = [0.7917, 0.2083]", fillcolor="#eca26d"] ;
605 -> 606 ;
607 [label="node #607\ngini = 0.0616\nsamples = 0.2%\nvalue = [0.9682, 0.0318]", fillcolor="#e68540"] ;
605 -> 607 ;
608 [label="node #608\ngini = 0.0\nsamples = 0.0%\nvalue = [0.0, 1.0]", fillcolor="#399de5"] ;
604 -> 608 ;
609 [label="node #609\natomic_number_wad <= 36.0\ngini = 0.4945\nsamples = 0.0%\nvalue = [0.4474, 0.5526]", fillcolor="#d9ecfa"] ;
579 -> 609 ;
610 [label="node #610\ngini = 0.0\nsamples = 0.0%\nvalue = [1.0, 0.0]", fillcolor="#e58139"] ;
609 -> 610 ;
611 [label="node #611\natomic_volume_wad <= 17.6857\ngini = 0.2188\nsamples = 0.0%\nvalue = [0.125, 0.875]", fillcolor="#55abe9"] ;
609 -> 611 ;
612 [label="node #612\ngini = 0.0\nsamples = 0.0%\nvalue = [1.0, 0.0]", fillcolor="#e58139"] ;
611 -> 612 ;
613 [label="node #613\nrel_stoich_wad <= 0.7313\ngini = 0.1588\nsamples = 0.0%\nvalue = [0.087, 0.913]", fillcolor="#4ca6e7"] ;
611 -> 613 ;
614 [label="node #614\ngini = 0.0\nsamples = 0.0%\nvalue = [0.0, 1.0]", fillcolor="#399de5"] ;
613 -> 614 ;
615 [label="node #615\ngini = 0.2311\nsamples = 0.0%\nvalue = [0.1333, 0.8667]", fillcolor="#57ace9"] ;
613 -> 615 ;
616 [label="node #616\natomic_volume_wad <= 10.8566\ngini = 0.0774\nsamples = 1.3%\nvalue = [0.9597, 0.0403]", fillcolor="#e68641"] ;
578 -> 616 ;
617 [label="node #617\nrel_stoich_wad <= 0.9025\ngini = 0.5\nsamples = 0.0%\nvalue = [0.5, 0.5]", fillcolor="#ffffff"] ;
616 -> 617 ;
618 [label="node #618\ngini = 0.0\nsamples = 0.0%\nvalue = [0.0, 1.0]", fillcolor="#399de5"] ;
617 -> 618 ;
619 [label="node #619\ngini = 0.0\nsamples = 0.0%\nvalue = [1.0, 0.0]", fillcolor="#e58139"] ;
617 -> 619 ;
620 [label="node #620\natomic_ionization_potential_wa <= 8.7957\ngini = 0.0666\nsamples = 1.3%\nvalue = [0.9655, 0.0345]", fillcolor="#e68640"] ;
616 -> 620 ;
621 [label="node #621\natomic_r_covalent_wa <= 1.1454\ngini = 0.4082\nsamples = 0.0%\nvalue = [0.7143, 0.2857]", fillcolor="#efb388"] ;
620 -> 621 ;
622 [label="node #622\ngini = 0.0\nsamples = 0.0%\nvalue = [0.0, 1.0]", fillcolor="#399de5"] ;
621 -> 622 ;
623 [label="node #623\ngini = 0.0\nsamples = 0.0%\nvalue = [1.0, 0.0]", fillcolor="#e58139"] ;
621 -> 623 ;
624 [label="node #624\natomic_number_wa <= 9.2053\ngini = 0.0636\nsamples = 1.3%\nvalue = [0.9671, 0.0329]", fillcolor="#e68540"] ;
620 -> 624 ;
625 [label="node #625\natomic_r_covalent_wa <= 1.0694\ngini = 0.0167\nsamples = 0.5%\nvalue = [0.9916, 0.0084]", fillcolor="#e5823b"] ;
624 -> 625 ;
626 [label="node #626\natomic_number_wad <= 50.5\ngini = 0.0127\nsamples = 0.5%\nvalue = [0.9936, 0.0064]", fillcolor="#e5823a"] ;
625 -> 626 ;
627 [label="node #627\ngini = 0.0089\nsamples = 0.5%\nvalue = [0.9955, 0.0045]", fillcolor="#e5823a"] ;
626 -> 627 ;
628 [label="node #628\ngini = 0.095\nsamples = 0.0%\nvalue = [0.95, 0.05]", fillcolor="#e68843"] ;
626 -> 628 ;
629 [label="node #629\natomic_pauling_electronegativity_wad <= 3.9179\ngini = 0.2188\nsamples = 0.0%\nvalue = [0.875, 0.125]", fillcolor="#e99355"] ;
625 -> 629 ;
630 [label="node #630\ngini = 0.0\nsamples = 0.0%\nvalue = [1.0, 0.0]", fillcolor="#e58139"] ;
629 -> 630 ;
631 [label="node #631\ngini = 0.0\nsamples = 0.0%\nvalue = [0.0, 1.0]", fillcolor="#399de5"] ;
629 -> 631 ;
632 [label="node #632\natomic_volume_wad <= 13.0986\ngini = 0.098\nsamples = 0.7%\nvalue = [0.9483, 0.0517]", fillcolor="#e68844"] ;
624 -> 632 ;
633 [label="node #633\natomic_pauling_electronegativity_wad <= 4.85\ngini = 0.32\nsamples = 0.1%\nvalue = [0.8, 0.2]", fillcolor="#eca06a"] ;
632 -> 633 ;
634 [label="node #634\ngini = 0.2408\nsamples = 0.1%\nvalue = [0.86, 0.14]", fillcolor="#e99659"] ;
633 -> 634 ;
635 [label="node #635\ngini = 0.5\nsamples = 0.0%\nvalue = [0.5, 0.5]", fillcolor="#ffffff"] ;
633 -> 635 ;
636 [label="node #636\natomic_number_wa <= 9.2164\ngini = 0.069\nsamples = 0.6%\nvalue = [0.9642, 0.0358]", fillcolor="#e68640"] ;
632 -> 636 ;
637 [label="node #637\ngini = 0.0\nsamples = 0.0%\nvalue = [0.0, 1.0]", fillcolor="#399de5"] ;
636 -> 637 ;
638 [label="node #638\ngini = 0.0658\nsamples = 0.6%\nvalue = [0.9659, 0.0341]", fillcolor="#e68540"] ;
636 -> 638 ;
639 [label="node #639\natomic_volume_wa <= 20.8991\ngini = 0.4346\nsamples = 27.0%\nvalue = [0.6809, 0.3191]", fillcolor="#f1bc96"] ;
577 -> 639 ;
640 [label="node #640\natomic_r_covalent_wa <= 1.4615\ngini = 0.4642\nsamples = 20.2%\nvalue = [0.6337, 0.3663]", fillcolor="#f4caab"] ;
639 -> 640 ;
641 [label="node #641\natomic_r_covalent_wad <= 2.4104\ngini = 0.449\nsamples = 19.1%\nvalue = [0.6597, 0.3403]", fillcolor="#f2c29f"] ;
640 -> 641 ;
642 [label="node #642\natomic_volume_wa <= 15.4335\ngini = 0.4335\nsamples = 16.7%\nvalue = [0.6824, 0.3176]", fillcolor="#f1bc95"] ;
641 -> 642 ;
643 [label="node #643\natomic_r_covalent_wa <= 1.2356\ngini = 0.476\nsamples = 6.8%\nvalue = [0.6096, 0.3904]", fillcolor="#f6d2b8"] ;
642 -> 643 ;
644 [label="node #644\nrel_stoich_wa <= 0.3937\ngini = 0.4562\nsamples = 6.0%\nvalue = [0.6481, 0.3519]", fillcolor="#f3c5a5"] ;
643 -> 644 ;
645 [label="node #645\ngini = 0.4246\nsamples = 3.9%\nvalue = [0.6941, 0.3059]", fillcolor="#f0b990"] ;
644 -> 645 ;
646 [label="node #646\ngini = 0.4926\nsamples = 2.1%\nvalue = [0.5609, 0.4391]", fillcolor="#f9e4d4"] ;
644 -> 646 ;
647 [label="node #647\natomic_volume_wa <= 15.0864\ngini = 0.4205\nsamples = 0.8%\nvalue = [0.3006, 0.6994]", fillcolor="#8ec7f0"] ;
643 -> 647 ;
648 [label="node #648\ngini = 0.3499\nsamples = 0.6%\nvalue = [0.2261, 0.7739]", fillcolor="#73baed"] ;
647 -> 648 ;
649 [label="node #649\ngini = 0.4688\nsamples = 0.1%\nvalue = [0.625, 0.375]", fillcolor="#f5cdb0"] ;
647 -> 649 ;
650 [label="node #650\natomic_volume_wad <= 13.7647\ngini = 0.3917\nsamples = 10.0%\nvalue = [0.7327, 0.2673]", fillcolor="#eeaf81"] ;
642 -> 650 ;
651 [label="node #651\nrel_stoich_wa <= 0.4893\ngini = 0.2981\nsamples = 3.6%\nvalue = [0.8178, 0.1822]", fillcolor="#eb9d65"] ;
650 -> 651 ;
652 [label="node #652\ngini = 0.2748\nsamples = 3.2%\nvalue = [0.8356, 0.1644]", fillcolor="#ea9a60"] ;
651 -> 652 ;
653 [label="node #653\ngini = 0.4532\nsamples = 0.4%\nvalue = [0.6529, 0.3471]", fillcolor="#f3c4a2"] ;
651 -> 653 ;
654 [label="node #654\natomic_number_wa <= 16.918\ngini = 0.431\nsamples = 6.4%\nvalue = [0.6858, 0.3142]", fillcolor="#f1bb94"] ;
650 -> 654 ;
655 [label="node #655\ngini = 0.3168\nsamples = 2.3%\nvalue = [0.8027, 0.1973]", fillcolor="#eba06a"] ;
654 -> 655 ;
656 [label="node #656\ngini = 0.4708\nsamples = 4.1%\nvalue = [0.6208, 0.3792]", fillcolor="#f5ceb2"] ;
654 -> 656 ;
657 [label="node #657\nrel_stoich_wa <= 0.3795\ngini = 0.5\nsamples = 2.4%\nvalue = [0.5039, 0.4961]", fillcolor="#fffdfc"] ;
641 -> 657 ;
658 [label="node #658\natomic_r_covalent_wa <= 1.0605\ngini = 0.4061\nsamples = 0.8%\nvalue = [0.2833, 0.7167]", fillcolor="#87c4ef"] ;
657 -> 658 ;
659 [label="node #659\natomic_r_covalent_wad <= 2.4929\ngini = 0.3047\nsamples = 0.1%\nvalue = [0.8125, 0.1875]", fillcolor="#eb9e67"] ;
658 -> 659 ;
660 [label="node #660\ngini = 0.495\nsamples = 0.0%\nvalue = [0.45, 0.55]", fillcolor="#dbedfa"] ;
659 -> 660 ;
661 [label="node #661\ngini = 0.1244\nsamples = 0.1%\nvalue = [0.9333, 0.0667]", fillcolor="#e78a47"] ;
659 -> 661 ;
662 [label="node #662\natomic_volume_wa <= 19.2319\ngini = 0.3311\nsamples = 0.7%\nvalue = [0.2094, 0.7906]", fillcolor="#6db7ec"] ;
658 -> 662 ;
663 [label="node #663\ngini = 0.2575\nsamples = 0.6%\nvalue = [0.1518, 0.8482]", fillcolor="#5cafea"] ;
662 -> 663 ;
664 [label="node #664\ngini = 0.4903\nsamples = 0.1%\nvalue = [0.5696, 0.4304]", fillcolor="#f9e0cf"] ;
662 -> 664 ;
665 [label="node #665\nrel_stoich_wa <= 0.4332\ngini = 0.4778\nsamples = 1.6%\nvalue = [0.6054, 0.3946]", fillcolor="#f6d3ba"] ;
657 -> 665 ;
666 [label="node #666\natomic_pauling_electronegativity_wad <= 5.998\ngini = 0.4912\nsamples = 1.4%\nvalue = [0.5663, 0.4337]", fillcolor="#f9e1d1"] ;
665 -> 666 ;
667 [label="node #667\ngini = 0.4995\nsamples = 1.2%\nvalue = [0.5164, 0.4836]", fillcolor="#fdf7f2"] ;
666 -> 667 ;
668 [label="node #668\ngini = 0.3167\nsamples = 0.3%\nvalue = [0.8028, 0.1972]", fillcolor="#eba06a"] ;
666 -> 668 ;
669 [label="node #669\natomic_ionization_potential_wa <= 10.5432\ngini = 0.1829\nsamples = 0.2%\nvalue = [0.8982, 0.1018]", fillcolor="#e88f4f"] ;
665 -> 669 ;
670 [label="node #670\ngini = 0.4753\nsamples = 0.0%\nvalue = [0.6111, 0.3889]", fillcolor="#f6d1b7"] ;
669 -> 670 ;
671 [label="node #671\ngini = 0.1252\nsamples = 0.2%\nvalue = [0.9329, 0.0671]", fillcolor="#e78a47"] ;
669 -> 671 ;
672 [label="node #672\natomic_volume_wa <= 17.0031\ngini = 0.3316\nsamples = 1.1%\nvalue = [0.2098, 0.7902]", fillcolor="#6eb7ec"] ;
640 -> 672 ;
673 [label="node #673\natomic_pauling_electronegativity_wad <= 1.5395\ngini = 0.0368\nsamples = 0.5%\nvalue = [0.0187, 0.9813]", fillcolor="#3d9fe5"] ;
672 -> 673 ;
674 [label="node #674\ngini = 0.0\nsamples = 0.0%\nvalue = [1.0, 0.0]", fillcolor="#e58139"] ;
673 -> 674 ;
675 [label="node #675\natomic_volume_wad <= 8.2167\ngini = 0.0278\nsamples = 0.5%\nvalue = [0.0141, 0.9859]", fillcolor="#3c9ee5"] ;
673 -> 675 ;
676 [label="node #676\natomic_volume_wad <= 7.8369\ngini = 0.2934\nsamples = 0.0%\nvalue = [0.1786, 0.8214]", fillcolor="#64b2eb"] ;
675 -> 676 ;
677 [label="node #677\ngini = 0.0\nsamples = 0.0%\nvalue = [0.0, 1.0]", fillcolor="#399de5"] ;
676 -> 677 ;
678 [label="node #678\ngini = 0.5\nsamples = 0.0%\nvalue = [0.5, 0.5]", fillcolor="#ffffff"] ;
676 -> 678 ;
679 [label="node #679\natomic_r_covalent_wad <= 0.3928\ngini = 0.005\nsamples = 0.5%\nvalue = [0.0025, 0.9975]", fillcolor="#399de5"] ;
675 -> 679 ;
680 [label="node #680\ngini = 0.32\nsamples = 0.0%\nvalue = [0.2, 0.8]", fillcolor="#6ab6ec"] ;
679 -> 680 ;
681 [label="node #681\ngini = 0.0\nsamples = 0.4%\nvalue = [0.0, 1.0]", fillcolor="#399de5"] ;
679 -> 681 ;
682 [label="node #682\nrel_stoich_wad <= 0.5485\ngini = 0.4569\nsamples = 0.6%\nvalue = [0.3533, 0.6467]", fillcolor="#a5d3f3"] ;
672 -> 682 ;
683 [label="node #683\natomic_r_covalent_wa <= 1.5365\ngini = 0.3284\nsamples = 0.4%\nvalue = [0.2071, 0.7929]", fillcolor="#6db7ec"] ;
682 -> 683 ;
684 [label="node #684\natomic_number_wad <= 64.125\ngini = 0.4485\nsamples = 0.2%\nvalue = [0.3395, 0.6605]", fillcolor="#9fcff2"] ;
683 -> 684 ;
685 [label="node #685\ngini = 0.4904\nsamples = 0.1%\nvalue = [0.4309, 0.5691]", fillcolor="#cfe7f9"] ;
684 -> 685 ;
686 [label="node #686\ngini = 0.0973\nsamples = 0.0%\nvalue = [0.0513, 0.9487]", fillcolor="#44a2e6"] ;
684 -> 686 ;
687 [label="node #687\nrel_stoich_wa <= 0.3216\ngini = 0.1559\nsamples = 0.2%\nvalue = [0.0852, 0.9148]", fillcolor="#4ba6e7"] ;
683 -> 687 ;
688 [label="node #688\ngini = 0.0\nsamples = 0.0%\nvalue = [1.0, 0.0]", fillcolor="#e58139"] ;
687 -> 688 ;
689 [label="node #689\ngini = 0.1291\nsamples = 0.2%\nvalue = [0.0694, 0.9306]", fillcolor="#48a4e7"] ;
687 -> 689 ;
690 [label="node #690\natomic_pauling_electronegativity_wa <= 1.7669\ngini = 0.491\nsamples = 0.3%\nvalue = [0.5671, 0.4329]", fillcolor="#f9e1d0"] ;
682 -> 690 ;
691 [label="node #691\nrel_stoich_wad <= 0.6382\ngini = 0.2854\nsamples = 0.1%\nvalue = [0.1724, 0.8276]", fillcolor="#62b1ea"] ;
690 -> 691 ;
692 [label="node #692\ngini = 0.18\nsamples = 0.0%\nvalue = [0.9, 0.1]", fillcolor="#e88f4f"] ;
691 -> 692 ;
693 [label="node #693\ngini = 0.0408\nsamples = 0.0%\nvalue = [0.0208, 0.9792]", fillcolor="#3d9fe6"] ;
691 -> 693 ;
694 [label="node #694\natomic_number_wad <= 80.6746\ngini = 0.4205\nsamples = 0.2%\nvalue = [0.6994, 0.3006]", fillcolor="#f0b78e"] ;
690 -> 694 ;
695 [label="node #695\ngini = 0.3587\nsamples = 0.2%\nvalue = [0.7658, 0.2342]", fillcolor="#eda876"] ;
694 -> 695 ;
696 [label="node #696\ngini = 0.0\nsamples = 0.0%\nvalue = [0.0, 1.0]", fillcolor="#399de5"] ;
694 -> 696 ;
697 [label="node #697\natomic_number_wa <= 20.9065\ngini = 0.2904\nsamples = 6.8%\nvalue = [0.8237, 0.1763]", fillcolor="#eb9c63"] ;
639 -> 697 ;
698 [label="node #698\natomic_volume_wad <= 6.89\ngini = 0.1162\nsamples = 1.1%\nvalue = [0.938, 0.062]", fillcolor="#e78946"] ;
697 -> 698 ;
699 [label="node #699\ngini = 0.0\nsamples = 0.0%\nvalue = [0.0, 1.0]", fillcolor="#399de5"] ;
698 -> 699 ;
700 [label="node #700\nrel_stoich_wa <= 0.4397\ngini = 0.1108\nsamples = 1.1%\nvalue = [0.9411, 0.0589]", fillcolor="#e78945"] ;
698 -> 700 ;
701 [label="node #701\natomic_ionization_potential_wad <= 6.4997\ngini = 0.0735\nsamples = 0.9%\nvalue = [0.9618, 0.0382]", fillcolor="#e68641"] ;
700 -> 701 ;
702 [label="node #702\natomic_number_wad <= 11.7429\ngini = 0.4628\nsamples = 0.0%\nvalue = [0.6364, 0.3636]", fillcolor="#f4c9aa"] ;
701 -> 702 ;
703 [label="node #703\ngini = 0.0\nsamples = 0.0%\nvalue = [0.0, 1.0]", fillcolor="#399de5"] ;
702 -> 703 ;
704 [label="node #704\ngini = 0.0\nsamples = 0.0%\nvalue = [1.0, 0.0]", fillcolor="#e58139"] ;
702 -> 704 ;
705 [label="node #705\natomic_number_wad <= 129.2379\ngini = 0.0646\nsamples = 0.9%\nvalue = [0.9666, 0.0334]", fillcolor="#e68540"] ;
701 -> 705 ;
706 [label="node #706\ngini = 0.0622\nsamples = 0.9%\nvalue = [0.9679, 0.0321]", fillcolor="#e68540"] ;
705 -> 706 ;
707 [label="node #707\ngini = 0.0\nsamples = 0.0%\nvalue = [0.0, 1.0]", fillcolor="#399de5"] ;
705 -> 707 ;
708 [label="node #708\natomic_volume_wad <= 43.3524\ngini = 0.2664\nsamples = 0.2%\nvalue = [0.8418, 0.1582]", fillcolor="#ea995e"] ;
700 -> 708 ;
709 [label="node #709\natomic_number_wad <= 23.6667\ngini = 0.375\nsamples = 0.1%\nvalue = [0.75, 0.25]", fillcolor="#eeab7b"] ;
708 -> 709 ;
710 [label="node #710\ngini = 0.1827\nsamples = 0.1%\nvalue = [0.8983, 0.1017]", fillcolor="#e88f4f"] ;
709 -> 710 ;
711 [label="node #711\ngini = 0.4973\nsamples = 0.0%\nvalue = [0.5366, 0.4634]", fillcolor="#fbeee4"] ;
709 -> 711 ;
712 [label="node #712\ngini = 0.0\nsamples = 0.1%\nvalue = [1.0, 0.0]", fillcolor="#e58139"] ;
708 -> 712 ;
713 [label="node #713\natomic_volume_wa <= 24.0282\ngini = 0.3179\nsamples = 5.7%\nvalue = [0.8017, 0.1983]", fillcolor="#eba06a"] ;
697 -> 713 ;
714 [label="node #714\natomic_r_covalent_wa <= 1.5074\ngini = 0.3939\nsamples = 2.2%\nvalue = [0.7303, 0.2697]", fillcolor="#efb082"] ;
713 -> 714 ;
715 [label="node #715\natomic_number_wad <= 93.2527\ngini = 0.355\nsamples = 1.9%\nvalue = [0.7692, 0.2308]", fillcolor="#eda774"] ;
714 -> 715 ;
716 [label="node #716\nrel_stoich_wad <= 0.3758\ngini = 0.2955\nsamples = 1.4%\nvalue = [0.8198, 0.1802]", fillcolor="#eb9d65"] ;
715 -> 716 ;
717 [label="node #717\ngini = 0.4573\nsamples = 0.2%\nvalue = [0.6462, 0.3538]", fillcolor="#f3c6a5"] ;
716 -> 717 ;
718 [label="node #718\ngini = 0.2479\nsamples = 1.2%\nvalue = [0.8551, 0.1449]", fillcolor="#e9965b"] ;
716 -> 718 ;
719 [label="node #719\natomic_volume_wa <= 21.8052\ngini = 0.4662\nsamples = 0.5%\nvalue = [0.6301, 0.3699]", fillcolor="#f4cbad"] ;
715 -> 719 ;
720 [label="node #720\ngini = 0.4036\nsamples = 0.3%\nvalue = [0.7195, 0.2805]", fillcolor="#efb286"] ;
719 -> 720 ;
721 [label="node #721\ngini = 0.5\nsamples = 0.2%\nvalue = [0.5029, 0.4971]", fillcolor="#fffefd"] ;
719 -> 721 ;
722 [label="node #722\natomic_number_wa <= 58.0714\ngini = 0.4992\nsamples = 0.3%\nvalue = [0.5205, 0.4795]", fillcolor="#fdf5ef"] ;
714 -> 722 ;
723 [label="node #723\nrel_stoich_wad <= 0.4547\ngini = 0.4844\nsamples = 0.3%\nvalue = [0.5882, 0.4118]", fillcolor="#f7d9c4"] ;
722 -> 723 ;
724 [label="node #724\ngini = 0.484\nsamples = 0.1%\nvalue = [0.4105, 0.5895]", fillcolor="#c3e1f7"] ;
723 -> 724 ;
725 [label="node #725\ngini = 0.4249\nsamples = 0.2%\nvalue = [0.6938, 0.3062]", fillcolor="#f0b990"] ;
723 -> 725 ;
726 [label="node #726\natomic_pauling_electronegativity_wa <= 2.0788\ngini = 0.1023\nsamples = 0.0%\nvalue = [0.0541, 0.9459]", fillcolor="#44a3e6"] ;
722 -> 726 ;
727 [label="node #727\ngini = 0.0\nsamples = 0.0%\nvalue = [0.0, 1.0]", fillcolor="#399de5"] ;
726 -> 727 ;
728 [label="node #728\ngini = 0.0\nsamples = 0.0%\nvalue = [1.0, 0.0]", fillcolor="#e58139"] ;
726 -> 728 ;
729 [label="node #729\natomic_pauling_electronegativity_wa <= 2.3685\ngini = 0.2585\nsamples = 3.5%\nvalue = [0.8475, 0.1525]", fillcolor="#ea985d"] ;
713 -> 729 ;
730 [label="node #730\natomic_pauling_electronegativity_wa <= 1.2805\ngini = 0.2238\nsamples = 3.0%\nvalue = [0.8717, 0.1283]", fillcolor="#e99456"] ;
729 -> 730 ;
731 [label="node #731\natomic_ionization_potential_wad <= 7.2523\ngini = 0.4996\nsamples = 0.0%\nvalue = [0.5135, 0.4865]", fillcolor="#fef8f5"] ;
730 -> 731 ;
732 [label="node #732\ngini = 0.0\nsamples = 0.0%\nvalue = [1.0, 0.0]", fillcolor="#e58139"] ;
731 -> 732 ;
733 [label="node #733\ngini = 0.2975\nsamples = 0.0%\nvalue = [0.1818, 0.8182]", fillcolor="#65b3eb"] ;
731 -> 733 ;
734 [label="node #734\natomic_number_wa <= 21.1716\ngini = 0.2157\nsamples = 2.9%\nvalue = [0.877, 0.123]", fillcolor="#e99355"] ;
730 -> 734 ;
735 [label="node #735\ngini = 0.2188\nsamples = 0.0%\nvalue = [0.125, 0.875]", fillcolor="#55abe9"] ;
734 -> 735 ;
736 [label="node #736\ngini = 0.212\nsamples = 2.9%\nvalue = [0.8795, 0.1205]", fillcolor="#e99254"] ;
734 -> 736 ;
737 [label="node #737\nrel_stoich_wa <= 0.4004\ngini = 0.42\nsamples = 0.5%\nvalue = [0.7, 0.3]", fillcolor="#f0b78e"] ;
729 -> 737 ;
738 [label="node #738\nrel_stoich_wa <= 0.3061\ngini = 0.0677\nsamples = 0.1%\nvalue = [0.9649, 0.0351]", fillcolor="#e68640"] ;
737 -> 738 ;
739 [label="node #739\ngini = 0.4444\nsamples = 0.0%\nvalue = [0.6667, 0.3333]", fillcolor="#f2c09c"] ;
738 -> 739 ;
740 [label="node #740\ngini = 0.0\nsamples = 0.1%\nvalue = [1.0, 0.0]", fillcolor="#e58139"] ;
738 -> 740 ;
741 [label="node #741\nrel_stoich_wa <= 0.4078\ngini = 0.4506\nsamples = 0.4%\nvalue = [0.6572, 0.3428]", fillcolor="#f3c3a0"] ;
737 -> 741 ;
742 [label="node #742\ngini = 0.2449\nsamples = 0.0%\nvalue = [0.1429, 0.8571]", fillcolor="#5aade9"] ;
741 -> 742 ;
743 [label="node #743\ngini = 0.4363\nsamples = 0.4%\nvalue = [0.6785, 0.3215]", fillcolor="#f1bd97"] ;
741 -> 743 ;
744 [label="node #744\natomic_number_wa <= 11.1127\ngini = 0.2621\nsamples = 33.4%\nvalue = [0.8449, 0.1551]", fillcolor="#ea985d"] ;
476 -> 744 ;
745 [label="node #745\natomic_r_covalent_wa <= 0.8132\ngini = 0.1196\nsamples = 10.3%\nvalue = [0.9361, 0.0639]", fillcolor="#e78a47"] ;
744 -> 745 ;
746 [label="node #746\nrel_stoich_wa <= 0.7574\ngini = 0.0437\nsamples = 4.8%\nvalue = [0.9777, 0.0223]", fillcolor="#e6843e"] ;
745 -> 746 ;
747 [label="node #747\natomic_number_wa <= 10.2707\ngini = 0.0423\nsamples = 4.8%\nvalue = [0.9784, 0.0216]", fillcolor="#e6843d"] ;
746 -> 747 ;
748 [label="node #748\natomic_r_covalent_wad <= 3.569\ngini = 0.0278\nsamples = 4.4%\nvalue = [0.9859, 0.0141]", fillcolor="#e5833c"] ;
747 -> 748 ;
749 [label="node #749\natomic_number_wad <= 95.7021\ngini = 0.0254\nsamples = 4.3%\nvalue = [0.9871, 0.0129]", fillcolor="#e5833c"] ;
748 -> 749 ;
750 [label="node #750\natomic_volume_wad <= 18.0893\ngini = 0.0218\nsamples = 4.2%\nvalue = [0.989, 0.011]", fillcolor="#e5823b"] ;
749 -> 750 ;
751 [label="node #751\natomic_ionization_potential_wad <= 20.234\ngini = 0.0113\nsamples = 2.4%\nvalue = [0.9943, 0.0057]", fillcolor="#e5823a"] ;
750 -> 751 ;
752 [label="node #752\ngini = 0.0104\nsamples = 2.4%\nvalue = [0.9948, 0.0052]", fillcolor="#e5823a"] ;
751 -> 752 ;
753 [label="node #753\ngini = 0.2188\nsamples = 0.0%\nvalue = [0.875, 0.125]", fillcolor="#e99355"] ;
751 -> 753 ;
754 [label="node #754\natomic_volume_wad <= 18.1044\ngini = 0.0361\nsamples = 1.8%\nvalue = [0.9816, 0.0184]", fillcolor="#e5833d"] ;
750 -> 754 ;
755 [label="node #755\ngini = 0.0\nsamples = 0.0%\nvalue = [0.0, 1.0]", fillcolor="#399de5"] ;
754 -> 755 ;
756 [label="node #756\ngini = 0.0324\nsamples = 1.8%\nvalue = [0.9835, 0.0165]", fillcolor="#e5833c"] ;
754 -> 756 ;
757 [label="node #757\natomic_number_wad <= 96.0238\ngini = 0.1472\nsamples = 0.1%\nvalue = [0.92, 0.08]", fillcolor="#e78c4a"] ;
749 -> 757 ;
758 [label="node #758\ngini = 0.0\nsamples = 0.0%\nvalue = [0.0, 1.0]", fillcolor="#399de5"] ;
757 -> 758 ;
759 [label="node #759\natomic_ionization_potential_wa <= 13.7292\ngini = 0.115\nsamples = 0.1%\nvalue = [0.9388, 0.0612]", fillcolor="#e78946"] ;
757 -> 759 ;
760 [label="node #760\ngini = 0.0799\nsamples = 0.1%\nvalue = [0.9583, 0.0417]", fillcolor="#e68642"] ;
759 -> 760 ;
761 [label="node #761\ngini = 0.0\nsamples = 0.0%\nvalue = [0.0, 1.0]", fillcolor="#399de5"] ;
759 -> 761 ;
762 [label="node #762\natomic_r_covalent_wad <= 3.5766\ngini = 0.3512\nsamples = 0.0%\nvalue = [0.7727, 0.2273]", fillcolor="#eda673"] ;
748 -> 762 ;
763 [label="node #763\ngini = 0.32\nsamples = 0.0%\nvalue = [0.2, 0.8]", fillcolor="#6ab6ec"] ;
762 -> 763 ;
764 [label="node #764\natomic_volume_wa <= 15.273\ngini = 0.1107\nsamples = 0.0%\nvalue = [0.9412, 0.0588]", fillcolor="#e78945"] ;
762 -> 764 ;
765 [label="node #765\ngini = 0.0\nsamples = 0.0%\nvalue = [1.0, 0.0]", fillcolor="#e58139"] ;
764 -> 765 ;
766 [label="node #766\natomic_ionization_potential_wa <= 12.9501\ngini = 0.375\nsamples = 0.0%\nvalue = [0.75, 0.25]", fillcolor="#eeab7b"] ;
764 -> 766 ;
767 [label="node #767\ngini = 0.0\nsamples = 0.0%\nvalue = [1.0, 0.0]", fillcolor="#e58139"] ;
