digraph Tree {
node [shape=box, style="filled, rounded", color="black", fontname=helvetica] ;
edge [fontname=helvetica] ;
0 [label="node #0\natomic_pauling_electronegativity_wad <= 1.5384\ngini = 0.4916\nsamples = 100.0%\nvalue = [0.5648, 0.4352]", fillcolor="#f9e2d2"] ;
1 [label="node #1\natomic_ionization_potential_wa <= 9.1687\ngini = 0.3007\nsamples = 35.1%\nvalue = [0.1843, 0.8157]", fillcolor="#66b3eb"] ;
0 -> 1 [labeldistance=2.5, labelangle=45, headlabel="True"] ;
2 [label="node #2\natomic_pauling_electronegativity_wa <= 2.0733\ngini = 0.2023\nsamples = 31.0%\nvalue = [0.1142, 0.8858]", fillcolor="#53aae8"] ;
1 -> 2 ;
3 [label="node #3\natomic_volume_wa <= 16.0958\ngini = 0.1452\nsamples = 27.2%\nvalue = [0.0788, 0.9212]", fillcolor="#4aa5e7"] ;
2 -> 3 ;
4 [label="node #4\nrel_stoich_wa <= 0.9574\ngini = 0.0941\nsamples = 20.4%\nvalue = [0.0495, 0.9505]", fillcolor="#43a2e6"] ;
3 -> 4 ;
5 [label="node #5\natomic_r_covalent_wa <= 1.2351\ngini = 0.0887\nsamples = 20.3%\nvalue = [0.0465, 0.9535]", fillcolor="#43a2e6"] ;
4 -> 5 ;
6 [label="node #6\natomic_volume_wa <= 11.4575\ngini = 0.2142\nsamples = 1.6%\nvalue = [0.122, 0.878]", fillcolor="#55abe9"] ;
5 -> 6 ;
7 [label="node #7\nrel_stoich_wad <= 1.1717\ngini = 0.1396\nsamples = 1.5%\nvalue = [0.0755, 0.9245]", fillcolor="#49a5e7"] ;
6 -> 7 ;
8 [label="node #8\natomic_r_covalent_wad <= 1.4794\ngini = 0.1166\nsamples = 1.4%\nvalue = [0.0621, 0.9379]", fillcolor="#46a3e7"] ;
7 -> 8 ;
9 [label="node #9\natomic_number_wad <= 11.9375\ngini = 0.0872\nsamples = 1.3%\nvalue = [0.0457, 0.9543]", fillcolor="#42a2e6"] ;
8 -> 9 ;
10 [label="node #10\ngini = 0.3107\nsamples = 0.1%\nvalue = [0.1923, 0.8077]", fillcolor="#68b4eb"] ;
9 -> 10 ;
11 [label="node #11\ngini = 0.0594\nsamples = 1.2%\nvalue = [0.0306, 0.9694]", fillcolor="#3fa0e6"] ;
9 -> 11 ;
12 [label="node #12\natomic_ionization_potential_wad <= 2.9609\ngini = 0.3884\nsamples = 0.1%\nvalue = [0.2637, 0.7363]", fillcolor="#80c0ee"] ;
8 -> 12 ;
13 [label="node #13\ngini = 0.4821\nsamples = 0.0%\nvalue = [0.5946, 0.4054]", fillcolor="#f7d7c0"] ;
12 -> 13 ;
14 [label="node #14\ngini = 0.0713\nsamples = 0.1%\nvalue = [0.037, 0.963]", fillcolor="#41a1e6"] ;
12 -> 14 ;
15 [label="node #15\natomic_r_covalent_wa <= 1.2062\ngini = 0.5\nsamples = 0.0%\nvalue = [0.5, 0.5]", fillcolor="#ffffff"] ;
7 -> 15 ;
16 [label="node #16\natomic_number_wad <= 91.0893\ngini = 0.4518\nsamples = 0.0%\nvalue = [0.6552, 0.3448]", fillcolor="#f3c3a1"] ;
15 -> 16 ;
17 [label="node #17\ngini = 0.3299\nsamples = 0.0%\nvalue = [0.7917, 0.2083]", fillcolor="#eca26d"] ;
16 -> 17 ;
18 [label="node #18\ngini = 0.0\nsamples = 0.0%\nvalue = [0.0, 1.0]", fillcolor="#399de5"] ;
16 -> 18 ;
19 [label="node #19\ngini = 0.0\nsamples = 0.0%\nvalue = [0.0, 1.0]", fillcolor="#399de5"] ;
15 -> 19 ;
20 [label="node #20\natomic_number_wa <= 22.7812\ngini = 0.4927\nsamples = 0.1%\nvalue = [0.5606, 0.4394]", fillcolor="#f9e4d4"] ;
6 -> 20 ;
21 [label="node #21\natomic_number_wa <= 19.6042\ngini = 0.478\nsamples = 0.1%\nvalue = [0.3951, 0.6049]", fillcolor="#baddf6"] ;
20 -> 21 ;
22 [label="node #22\natomic_number_wa <= 13.819\ngini = 0.4943\nsamples = 0.1%\nvalue = [0.5536, 0.4464]", fillcolor="#fae7d9"] ;
21 -> 22 ;
23 [label="node #23\ngini = 0.375\nsamples = 0.0%\nvalue = [0.25, 0.75]", fillcolor="#7bbeee"] ;
22 -> 23 ;
24 [label="node #24\ngini = 0.3418\nsamples = 0.0%\nvalue = [0.7812, 0.2188]", fillcolor="#eca470"] ;
22 -> 24 ;
25 [label="node #25\natomic_volume_wa <= 11.7575\ngini = 0.0768\nsamples = 0.0%\nvalue = [0.04, 0.96]", fillcolor="#41a1e6"] ;
21 -> 25 ;
26 [label="node #26\ngini = 0.0\nsamples = 0.0%\nvalue = [1.0, 0.0]", fillcolor="#e58139"] ;
25 -> 26 ;
27 [label="node #27\ngini = 0.0\nsamples = 0.0%\nvalue = [0.0, 1.0]", fillcolor="#399de5"] ;
25 -> 27 ;
28 [label="node #28\natomic_r_covalent_wad <= 0.9879\ngini = 0.2907\nsamples = 0.1%\nvalue = [0.8235, 0.1765]", fillcolor="#eb9c63"] ;
20 -> 28 ;
29 [label="node #29\natomic_ionization_potential_wa <= 7.585\ngini = 0.1271\nsamples = 0.0%\nvalue = [0.9318, 0.0682]", fillcolor="#e78a47"] ;
28 -> 29 ;
30 [label="node #30\ngini = 0.375\nsamples = 0.0%\nvalue = [0.25, 0.75]", fillcolor="#7bbeee"] ;
29 -> 30 ;
31 [label="node #31\ngini = 0.0\nsamples = 0.0%\nvalue = [1.0, 0.0]", fillcolor="#e58139"] ;
29 -> 31 ;
32 [label="node #32\natomic_volume_wa <= 13.1487\ngini = 0.2449\nsamples = 0.0%\nvalue = [0.1429, 0.8571]", fillcolor="#5aade9"] ;
28 -> 32 ;
33 [label="node #33\ngini = 0.0\nsamples = 0.0%\nvalue = [0.0, 1.0]", fillcolor="#399de5"] ;
32 -> 33 ;
34 [label="node #34\ngini = 0.0\nsamples = 0.0%\nvalue = [1.0, 0.0]", fillcolor="#e58139"] ;
32 -> 34 ;
35 [label="node #35\natomic_pauling_electronegativity_wa <= 1.8555\ngini = 0.0768\nsamples = 18.7%\nvalue = [0.04, 0.96]", fillcolor="#41a1e6"] ;
5 -> 35 ;
36 [label="node #36\nrel_stoich_wa <= 0.343\ngini = 0.059\nsamples = 14.3%\nvalue = [0.0304, 0.9696]", fillcolor="#3fa0e6"] ;
35 -> 36 ;
37 [label="node #37\nrel_stoich_wa <= 0.3394\ngini = 0.1179\nsamples = 2.0%\nvalue = [0.0629, 0.9371]", fillcolor="#46a4e7"] ;
36 -> 37 ;
38 [label="node #38\natomic_ionization_potential_wa <= 8.5325\ngini = 0.1035\nsamples = 2.0%\nvalue = [0.0548, 0.9452]", fillcolor="#44a3e7"] ;
37 -> 38 ;
39 [label="node #39\ngini = 0.0948\nsamples = 1.9%\nvalue = [0.0499, 0.9501]", fillcolor="#43a2e6"] ;
38 -> 39 ;
40 [label="node #40\ngini = 0.4592\nsamples = 0.0%\nvalue = [0.6429, 0.3571]", fillcolor="#f3c7a7"] ;
38 -> 40 ;
41 [label="node #41\natomic_number_wad <= 48.45\ngini = 0.4963\nsamples = 0.0%\nvalue = [0.4571, 0.5429]", fillcolor="#e0f0fb"] ;
37 -> 41 ;
42 [label="node #42\ngini = 0.2659\nsamples = 0.0%\nvalue = [0.8421, 0.1579]", fillcolor="#ea995e"] ;
41 -> 42 ;
43 [label="node #43\ngini = 0.0\nsamples = 0.0%\nvalue = [0.0, 1.0]", fillcolor="#399de5"] ;
41 -> 43 ;
44 [label="node #44\natomic_r_covalent_wa <= 1.3761\ngini = 0.0488\nsamples = 12.3%\nvalue = [0.025, 0.975]", fillcolor="#3ea0e6"] ;
36 -> 44 ;
45 [label="node #45\natomic_volume_wa <= 13.543\ngini = 0.0779\nsamples = 3.9%\nvalue = [0.0406, 0.9594]", fillcolor="#41a1e6"] ;
44 -> 45 ;
46 [label="node #46\ngini = 0.0598\nsamples = 3.5%\nvalue = [0.0308, 0.9692]", fillcolor="#3fa0e6"] ;
45 -> 46 ;
47 [label="node #47\ngini = 0.2579\nsamples = 0.3%\nvalue = [0.1521, 0.8479]", fillcolor="#5dafea"] ;
45 -> 47 ;
48 [label="node #48\natomic_ionization_potential_wad <= 0.0125\ngini = 0.0352\nsamples = 8.4%\nvalue = [0.0179, 0.9821]", fillcolor="#3d9fe5"] ;
44 -> 48 ;
49 [label="node #49\ngini = 0.32\nsamples = 0.0%\nvalue = [0.2, 0.8]", fillcolor="#6ab6ec"] ;
48 -> 49 ;
50 [label="node #50\ngini = 0.0344\nsamples = 8.4%\nvalue = [0.0175, 0.9825]", fillcolor="#3d9fe5"] ;
48 -> 50 ;
51 [label="node #51\natomic_volume_wa <= 14.0728\ngini = 0.1324\nsamples = 4.4%\nvalue = [0.0713, 0.9287]", fillcolor="#48a5e7"] ;
35 -> 51 ;
52 [label="node #52\nrel_stoich_wad <= 0.0488\ngini = 0.0903\nsamples = 3.6%\nvalue = [0.0474, 0.9526]", fillcolor="#43a2e6"] ;
51 -> 52 ;
53 [label="node #53\natomic_volume_wad <= 4.9533\ngini = 0.182\nsamples = 0.5%\nvalue = [0.1013, 0.8987]", fillcolor="#4fa8e8"] ;
52 -> 53 ;
54 [label="node #54\ngini = 0.0598\nsamples = 0.2%\nvalue = [0.0309, 0.9691]", fillcolor="#3fa0e6"] ;
53 -> 54 ;
55 [label="node #55\ngini = 0.2553\nsamples = 0.3%\nvalue = [0.1502, 0.8498]", fillcolor="#5caeea"] ;
53 -> 55 ;
56 [label="node #56\natomic_volume_wad <= 33.4136\ngini = 0.0757\nsamples = 3.1%\nvalue = [0.0394, 0.9606]", fillcolor="#41a1e6"] ;
52 -> 56 ;
57 [label="node #57\ngini = 0.0738\nsamples = 3.1%\nvalue = [0.0384, 0.9616]", fillcolor="#41a1e6"] ;
56 -> 57 ;
58 [label="node #58\ngini = 0.5\nsamples = 0.0%\nvalue = [0.5, 0.5]", fillcolor="#ffffff"] ;
56 -> 58 ;
59 [label="node #59\natomic_r_covalent_wa <= 1.3175\ngini = 0.2986\nsamples = 0.8%\nvalue = [0.1826, 0.8174]", fillcolor="#65b3eb"] ;
51 -> 59 ;
60 [label="node #60\natomic_ionization_potential_wad <= 4.8352\ngini = 0.4717\nsamples = 0.1%\nvalue = [0.619, 0.381]", fillcolor="#f5cfb3"] ;
59 -> 60 ;
61 [label="node #61\ngini = 0.2188\nsamples = 0.0%\nvalue = [0.875, 0.125]", fillcolor="#e99355"] ;
60 -> 61 ;
62 [label="node #62\ngini = 0.4012\nsamples = 0.0%\nvalue = [0.2778, 0.7222]", fillcolor="#85c3ef"] ;
60 -> 62 ;
63 [label="node #63\natomic_volume_wa <= 14.129\ngini = 0.259\nsamples = 0.7%\nvalue = [0.1528, 0.8472]", fillcolor="#5dafea"] ;
59 -> 63 ;
64 [label="node #64\ngini = 0.1528\nsamples = 0.0%\nvalue = [0.9167, 0.0833]", fillcolor="#e78c4b"] ;
63 -> 64 ;
65 [label="node #65\ngini = 0.2374\nsamples = 0.7%\nvalue = [0.1376, 0.8624]", fillcolor="#59ade9"] ;
63 -> 65 ;
66 [label="node #66\natomic_number_wa <= 17.5\ngini = 0.4778\nsamples = 0.2%\nvalue = [0.3946, 0.6054]", fillcolor="#baddf6"] ;
4 -> 66 ;
67 [label="node #67\natomic_number_wa <= 12.0033\ngini = 0.2907\nsamples = 0.1%\nvalue = [0.8235, 0.1765]", fillcolor="#eb9c63"] ;
66 -> 67 ;
68 [label="node #68\natomic_r_covalent_wad <= 0.19\ngini = 0.48\nsamples = 0.0%\nvalue = [0.4, 0.6]", fillcolor="#bddef6"] ;
67 -> 68 ;
69 [label="node #69\natomic_r_covalent_wa <= 1.06\ngini = 0.32\nsamples = 0.0%\nvalue = [0.2, 0.8]", fillcolor="#6ab6ec"] ;
68 -> 69 ;
70 [label="node #70\ngini = 0.5\nsamples = 0.0%\nvalue = [0.5, 0.5]", fillcolor="#ffffff"] ;
69 -> 70 ;
71 [label="node #71\ngini = 0.0\nsamples = 0.0%\nvalue = [0.0, 1.0]", fillcolor="#399de5"] ;
69 -> 71 ;
72 [label="node #72\ngini = 0.0\nsamples = 0.0%\nvalue = [1.0, 0.0]", fillcolor="#e58139"] ;
68 -> 72 ;
73 [label="node #73\ngini = 0.0\nsamples = 0.1%\nvalue = [1.0, 0.0]", fillcolor="#e58139"] ;
67 -> 73 ;
74 [label="node #74\natomic_pauling_electronegativity_wa <= 1.97\ngini = 0.0494\nsamples = 0.1%\nvalue = [0.0253, 0.9747]", fillcolor="#3ea0e6"] ;
66 -> 74 ;
75 [label="node #75\ngini = 0.0\nsamples = 0.1%\nvalue = [0.0, 1.0]", fillcolor="#399de5"] ;
74 -> 75 ;
76 [label="node #76\ngini = 0.4444\nsamples = 0.0%\nvalue = [0.6667, 0.3333]", fillcolor="#f2c09c"] ;
74 -> 76 ;
77 [label="node #77\natomic_r_covalent_wa <= 1.4263\ngini = 0.2792\nsamples = 6.8%\nvalue = [0.1677, 0.8323]", fillcolor="#61b1ea"] ;
3 -> 77 ;
78 [label="node #78\natomic_ionization_potential_wa <= 7.4753\ngini = 0.492\nsamples = 0.6%\nvalue = [0.5634, 0.4366]", fillcolor="#f9e3d2"] ;
77 -> 78 ;
79 [label="node #79\natomic_ionization_potential_wad <= 3.9782\ngini = 0.4107\nsamples = 0.2%\nvalue = [0.2887, 0.7113]", fillcolor="#89c5f0"] ;
78 -> 79 ;
80 [label="node #80\natomic_number_wad <= 93.375\ngini = 0.2739\nsamples = 0.1%\nvalue = [0.1638, 0.8362]", fillcolor="#60b0ea"] ;
79 -> 80 ;
81 [label="node #81\natomic_volume_wa <= 17.7463\ngini = 0.1959\nsamples = 0.1%\nvalue = [0.1101, 0.8899]", fillcolor="#51a9e8"] ;
80 -> 81 ;
82 [label="node #82\natomic_number_wad <= 0.5\ngini = 0.0705\nsamples = 0.1%\nvalue = [0.0366, 0.9634]", fillcolor="#41a1e6"] ;
81 -> 82 ;
83 [label="node #83\ngini = 0.4444\nsamples = 0.0%\nvalue = [0.3333, 0.6667]", fillcolor="#9ccef2"] ;
82 -> 83 ;
84 [label="node #84\ngini = 0.0\nsamples = 0.1%\nvalue = [0.0, 1.0]", fillcolor="#399de5"] ;
82 -> 84 ;
85 [label="node #85\natomic_volume_wa <= 18.4064\ngini = 0.4444\nsamples = 0.0%\nvalue = [0.3333, 0.6667]", fillcolor="#9ccef2"] ;
81 -> 85 ;
86 [label="node #86\ngini = 0.4734\nsamples = 0.0%\nvalue = [0.6154, 0.3846]", fillcolor="#f5d0b5"] ;
85 -> 86 ;
87 [label="node #87\ngini = 0.1327\nsamples = 0.0%\nvalue = [0.0714, 0.9286]", fillcolor="#48a5e7"] ;
85 -> 87 ;
88 [label="node #88\ngini = 0.0\nsamples = 0.0%\nvalue = [1.0, 0.0]", fillcolor="#e58139"] ;
80 -> 88 ;
89 [label="node #89\nrel_stoich_wa <= 0.522\ngini = 0.2604\nsamples = 0.0%\nvalue = [0.8462, 0.1538]", fillcolor="#ea985d"] ;
79 -> 89 ;
90 [label="node #90\nrel_stoich_wa <= 0.3249\ngini = 0.0832\nsamples = 0.0%\nvalue = [0.9565, 0.0435]", fillcolor="#e68742"] ;
89 -> 90 ;
91 [label="node #91\ngini = 0.0\nsamples = 0.0%\nvalue = [0.0, 1.0]", fillcolor="#399de5"] ;
90 -> 91 ;
92 [label="node #92\ngini = 0.0\nsamples = 0.0%\nvalue = [1.0, 0.0]", fillcolor="#e58139"] ;
90 -> 92 ;
93 [label="node #93\ngini = 0.0\nsamples = 0.0%\nvalue = [0.0, 1.0]", fillcolor="#399de5"] ;
89 -> 93 ;
94 [label="node #94\natomic_volume_wa <= 18.2952\ngini = 0.4472\nsamples = 0.4%\nvalue = [0.6624, 0.3376]", fillcolor="#f2c19e"] ;
78 -> 94 ;
95 [label="node #95\natomic_volume_wad <= 17.3452\ngini = 0.4877\nsamples = 0.3%\nvalue = [0.5784, 0.4216]", fillcolor="#f8ddc9"] ;
94 -> 95 ;
96 [label="node #96\natomic_number_wad <= 6.2857\ngini = 0.4212\nsamples = 0.2%\nvalue = [0.6985, 0.3015]", fillcolor="#f0b78e"] ;
95 -> 96 ;
97 [label="node #97\natomic_volume_wa <= 16.7337\ngini = 0.2778\nsamples = 0.0%\nvalue = [0.1667, 0.8333]", fillcolor="#61b1ea"] ;
96 -> 97 ;
98 [label="node #98\ngini = 0.0\nsamples = 0.0%\nvalue = [1.0, 0.0]", fillcolor="#e58139"] ;
97 -> 98 ;
99 [label="node #99\ngini = 0.074\nsamples = 0.0%\nvalue = [0.0385, 0.9615]", fillcolor="#41a1e6"] ;
97 -> 99 ;
100 [label="node #100\natomic_pauling_electronegativity_wa <= 1.6905\ngini = 0.3284\nsamples = 0.2%\nvalue = [0.7929, 0.2071]", fillcolor="#eca26d"] ;
96 -> 100 ;
101 [label="node #101\ngini = 0.0\nsamples = 0.0%\nvalue = [0.0, 1.0]", fillcolor="#399de5"] ;
100 -> 101 ;
102 [label="node #102\ngini = 0.2989\nsamples = 0.2%\nvalue = [0.8171, 0.1829]", fillcolor="#eb9d65"] ;
100 -> 102 ;
103 [label="node #103\natomic_number_wad <= 29.7\ngini = 0.4254\nsamples = 0.1%\nvalue = [0.3068, 0.6932]", fillcolor="#91c8f1"] ;
95 -> 103 ;
104 [label="node #104\natomic_number_wad <= 14.8545\ngini = 0.4911\nsamples = 0.0%\nvalue = [0.5667, 0.4333]", fillcolor="#f9e1d0"] ;
103 -> 104 ;
105 [label="node #105\ngini = 0.0\nsamples = 0.0%\nvalue = [0.0, 1.0]", fillcolor="#399de5"] ;
104 -> 105 ;
106 [label="node #106\ngini = 0.4352\nsamples = 0.0%\nvalue = [0.68, 0.32]", fillcolor="#f1bc96"] ;
104 -> 106 ;
107 [label="node #107\natomic_ionization_potential_wa <= 7.5955\ngini = 0.2854\nsamples = 0.1%\nvalue = [0.1724, 0.8276]", fillcolor="#62b1ea"] ;
103 -> 107 ;
108 [label="node #108\ngini = 0.48\nsamples = 0.0%\nvalue = [0.6, 0.4]", fillcolor="#f6d5bd"] ;
107 -> 108 ;
109 [label="node #109\ngini = 0.1528\nsamples = 0.1%\nvalue = [0.0833, 0.9167]", fillcolor="#4ba6e7"] ;
107 -> 109 ;
110 [label="node #110\natomic_volume_wad <= 32.2277\ngini = 0.1991\nsamples = 0.1%\nvalue = [0.8879, 0.1121]", fillcolor="#e89152"] ;
94 -> 110 ;
111 [label="node #111\natomic_pauling_electronegativity_wa <= 2.0194\ngini = 0.1049\nsamples = 0.1%\nvalue = [0.9444, 0.0556]", fillcolor="#e78845"] ;
110 -> 111 ;
112 [label="node #112\natomic_r_covalent_wa <= 1.4159\ngini = 0.0689\nsamples = 0.1%\nvalue = [0.9643, 0.0357]", fillcolor="#e68640"] ;
111 -> 112 ;
113 [label="node #113\ngini = 0.0278\nsamples = 0.1%\nvalue = [0.9859, 0.0141]", fillcolor="#e5833c"] ;
112 -> 113 ;
114 [label="node #114\ngini = 0.2604\nsamples = 0.0%\nvalue = [0.8462, 0.1538]", fillcolor="#ea985d"] ;
112 -> 114 ;
115 [label="node #115\natomic_volume_wad <= 9.3491\ngini = 0.4444\nsamples = 0.0%\nvalue = [0.6667, 0.3333]", fillcolor="#f2c09c"] ;
111 -> 115 ;
116 [label="node #116\ngini = 0.0\nsamples = 0.0%\nvalue = [1.0, 0.0]", fillcolor="#e58139"] ;
115 -> 116 ;
117 [label="node #117\ngini = 0.0\nsamples = 0.0%\nvalue = [0.0, 1.0]", fillcolor="#399de5"] ;
115 -> 117 ;
118 [label="node #118\nrel_stoich_wa <= 0.366\ngini = 0.4844\nsamples = 0.0%\nvalue = [0.5882, 0.4118]", fillcolor="#f7d9c4"] ;
110 -> 118 ;
119 [label="node #119\ngini = 0.0\nsamples = 0.0%\nvalue = [0.0, 1.0]", fillcolor="#399de5"] ;
118 -> 119 ;
120 [label="node #120\nrel_stoich_wad <= 0.818\ngini = 0.2778\nsamples = 0.0%\nvalue = [0.8333, 0.1667]", fillcolor="#ea9a61"] ;
118 -> 120 ;
121 [label="node #121\ngini = 0.0\nsamples = 0.0%\nvalue = [1.0, 0.0]", fillcolor="#e58139"] ;
120 -> 121 ;
122 [label="node #122\ngini = 0.0\nsamples = 0.0%\nvalue = [0.0, 1.0]", fillcolor="#399de5"] ;
120 -> 122 ;
123 [label="node #123\natomic_pauling_electronegativity_wad <= 1.1869\ngini = 0.2217\nsamples = 6.2%\nvalue = [0.127, 0.873]", fillcolor="#56abe9"] ;
77 -> 123 ;
124 [label="node #124\natomic_pauling_electronegativity_wad <= 0.9242\ngini = 0.118\nsamples = 4.6%\nvalue = [0.063, 0.937]", fillcolor="#46a4e7"] ;
123 -> 124 ;
125 [label="node #125\natomic_ionization_potential_wa <= 7.6712\ngini = 0.0568\nsamples = 3.1%\nvalue = [0.0293, 0.9707]", fillcolor="#3fa0e6"] ;
124 -> 125 ;
126 [label="node #126\natomic_r_covalent_wa <= 1.4283\ngini = 0.041\nsamples = 2.9%\nvalue = [0.0209, 0.9791]", fillcolor="#3d9fe6"] ;
125 -> 126 ;
127 [label="node #127\ngini = 0.0\nsamples = 0.0%\nvalue = [1.0, 0.0]", fillcolor="#e58139"] ;
126 -> 127 ;
128 [label="node #128\natomic_volume_wad <= 12.1975\ngini = 0.0402\nsamples = 2.9%\nvalue = [0.0205, 0.9795]", fillcolor="#3d9fe6"] ;
126 -> 128 ;
129 [label="node #129\ngini = 0.0236\nsamples = 2.2%\nvalue = [0.012, 0.988]", fillcolor="#3b9ee5"] ;
128 -> 129 ;
130 [label="node #130\ngini = 0.0894\nsamples = 0.7%\nvalue = [0.0469, 0.9531]", fillcolor="#43a2e6"] ;
128 -> 130 ;
131 [label="node #131\nrel_stoich_wad <= 0.3095\ngini = 0.2311\nsamples = 0.2%\nvalue = [0.1333, 0.8667]", fillcolor="#57ace9"] ;
125 -> 131 ;
132 [label="node #132\natomic_volume_wad <= 6.0417\ngini = 0.4188\nsamples = 0.1%\nvalue = [0.2985, 0.7015]", fillcolor="#8dc7f0"] ;
131 -> 132 ;
133 [label="node #133\ngini = 0.4938\nsamples = 0.0%\nvalue = [0.5556, 0.4444]", fillcolor="#fae6d7"] ;
132 -> 133 ;
134 [label="node #134\ngini = 0.2188\nsamples = 0.0%\nvalue = [0.125, 0.875]", fillcolor="#55abe9"] ;
132 -> 134 ;
135 [label="node #135\natomic_r_covalent_wa <= 1.4305\ngini = 0.0894\nsamples = 0.2%\nvalue = [0.0469, 0.9531]", fillcolor="#43a2e6"] ;
131 -> 135 ;
136 [label="node #136\ngini = 0.0\nsamples = 0.0%\nvalue = [1.0, 0.0]", fillcolor="#e58139"] ;
135 -> 136 ;
137 [label="node #137\ngini = 0.0756\nsamples = 0.2%\nvalue = [0.0394, 0.9606]", fillcolor="#41a1e6"] ;
135 -> 137 ;
138 [label="node #138\natomic_pauling_electronegativity_wa <= 1.7374\ngini = 0.2355\nsamples = 1.4%\nvalue = [0.1364, 0.8636]", fillcolor="#58ace9"] ;
124 -> 138 ;
139 [label="node #139\nrel_stoich_wa <= 0.4574\ngini = 0.1824\nsamples = 1.2%\nvalue = [0.1015, 0.8985]", fillcolor="#4fa8e8"] ;
138 -> 139 ;
140 [label="node #140\natomic_r_covalent_wad <= 0.7305\ngini = 0.069\nsamples = 0.7%\nvalue = [0.0358, 0.9642]", fillcolor="#40a1e6"] ;
139 -> 140 ;
141 [label="node #141\ngini = 0.1963\nsamples = 0.2%\nvalue = [0.1103, 0.8897]", fillcolor="#52a9e8"] ;
140 -> 141 ;
142 [label="node #142\ngini = 0.0191\nsamples = 0.5%\nvalue = [0.0097, 0.9903]", fillcolor="#3b9ee5"] ;
140 -> 142 ;
143 [label="node #143\nrel_stoich_wa <= 0.4616\ngini = 0.3051\nsamples = 0.5%\nvalue = [0.1878, 0.8122]", fillcolor="#67b4eb"] ;
139 -> 143 ;
144 [label="node #144\ngini = 0.0\nsamples = 0.0%\nvalue = [1.0, 0.0]", fillcolor="#e58139"] ;
143 -> 144 ;
145 [label="node #145\ngini = 0.2903\nsamples = 0.5%\nvalue = [0.1762, 0.8238]", fillcolor="#63b2eb"] ;
143 -> 145 ;
146 [label="node #146\natomic_volume_wad <= 12.4462\ngini = 0.4109\nsamples = 0.3%\nvalue = [0.2889, 0.7111]", fillcolor="#89c5f0"] ;
138 -> 146 ;
147 [label="node #147\natomic_volume_wa <= 17.4327\ngini = 0.4932\nsamples = 0.1%\nvalue = [0.5584, 0.4416]", fillcolor="#fae5d6"] ;
146 -> 147 ;
148 [label="node #148\ngini = 0.2449\nsamples = 0.0%\nvalue = [0.1429, 0.8571]", fillcolor="#5aade9"] ;
147 -> 148 ;
149 [label="node #149\ngini = 0.4082\nsamples = 0.1%\nvalue = [0.7143, 0.2857]", fillcolor="#efb388"] ;
147 -> 149 ;
150 [label="node #150\natomic_number_wa <= 44.8636\ngini = 0.2531\nsamples = 0.2%\nvalue = [0.1486, 0.8514]", fillcolor="#5caeea"] ;
146 -> 150 ;
151 [label="node #151\ngini = 0.375\nsamples = 0.0%\nvalue = [0.75, 0.25]", fillcolor="#eeab7b"] ;
150 -> 151 ;
152 [label="node #152\ngini = 0.2024\nsamples = 0.2%\nvalue = [0.1143, 0.8857]", fillcolor="#53aae8"] ;
150 -> 152 ;
153 [label="node #153\natomic_volume_wa <= 20.0964\ngini = 0.4256\nsamples = 1.6%\nvalue = [0.3072, 0.6928]", fillcolor="#91c8f1"] ;
123 -> 153 ;
154 [label="node #154\natomic_r_covalent_wa <= 1.5138\ngini = 0.2699\nsamples = 1.0%\nvalue = [0.1608, 0.8392]", fillcolor="#5fb0ea"] ;
153 -> 154 ;
155 [label="node #155\natomic_ionization_potential_wad <= 4.2931\ngini = 0.4519\nsamples = 0.3%\nvalue = [0.345, 0.655]", fillcolor="#a1d1f3"] ;
154 -> 155 ;
156 [label="node #156\natomic_volume_wad <= 14.7697\ngini = 0.273\nsamples = 0.2%\nvalue = [0.1631, 0.8369]", fillcolor="#60b0ea"] ;
155 -> 156 ;
157 [label="node #157\ngini = 0.4963\nsamples = 0.0%\nvalue = [0.4571, 0.5429]", fillcolor="#e0f0fb"] ;
156 -> 157 ;
158 [label="node #158\ngini = 0.1234\nsamples = 0.1%\nvalue = [0.066, 0.934]", fillcolor="#47a4e7"] ;
156 -> 158 ;
159 [label="node #159\natomic_r_covalent_wa <= 1.459\ngini = 0.4918\nsamples = 0.1%\nvalue = [0.5641, 0.4359]", fillcolor="#f9e2d2"] ;
155 -> 159 ;
160 [label="node #160\ngini = 0.2732\nsamples = 0.1%\nvalue = [0.8367, 0.1633]", fillcolor="#ea9a60"] ;
159 -> 160 ;
161 [label="node #161\ngini = 0.465\nsamples = 0.1%\nvalue = [0.3676, 0.6324]", fillcolor="#acd6f4"] ;
159 -> 161 ;
162 [label="node #162\nrel_stoich_wa <= 0.3435\ngini = 0.1427\nsamples = 0.7%\nvalue = [0.0773, 0.9227]", fillcolor="#4aa5e7"] ;
154 -> 162 ;
163 [label="node #163\natomic_ionization_potential_wad <= 4.558\ngini = 0.419\nsamples = 0.1%\nvalue = [0.2987, 0.7013]", fillcolor="#8dc7f0"] ;
162 -> 163 ;
164 [label="node #164\ngini = 0.3562\nsamples = 0.1%\nvalue = [0.2319, 0.7681]", fillcolor="#75bbed"] ;
163 -> 164 ;
165 [label="node #165\ngini = 0.2188\nsamples = 0.0%\nvalue = [0.875, 0.125]", fillcolor="#e99355"] ;
163 -> 165 ;
166 [label="node #166\natomic_volume_wa <= 16.1162\ngini = 0.0817\nsamples = 0.6%\nvalue = [0.0427, 0.9573]", fillcolor="#42a1e6"] ;
162 -> 166 ;
167 [label="node #167\ngini = 0.0\nsamples = 0.0%\nvalue = [1.0, 0.0]", fillcolor="#e58139"] ;
166 -> 167 ;
168 [label="node #168\ngini = 0.0745\nsamples = 0.6%\nvalue = [0.0388, 0.9612]", fillcolor="#41a1e6"] ;
166 -> 168 ;
169 [label="node #169\natomic_ionization_potential_wad <= 3.6768\ngini = 0.4979\nsamples = 0.6%\nvalue = [0.5326, 0.4674]", fillcolor="#fcf0e7"] ;
153 -> 169 ;
170 [label="node #170\nrel_stoich_wad <= 0.1991\ngini = 0.3831\nsamples = 0.2%\nvalue = [0.2583, 0.7417]", fillcolor="#7ebfee"] ;
169 -> 170 ;
171 [label="node #171\natomic_r_covalent_wa <= 1.6017\ngini = 0.4998\nsamples = 0.1%\nvalue = [0.4889, 0.5111]", fillcolor="#f6fbfe"] ;
170 -> 171 ;
172 [label="node #172\ngini = 0.1723\nsamples = 0.0%\nvalue = [0.0952, 0.9048]", fillcolor="#4ea7e8"] ;
171 -> 172 ;
173 [label="node #173\ngini = 0.2778\nsamples = 0.0%\nvalue = [0.8333, 0.1667]", fillcolor="#ea9a61"] ;
171 -> 173 ;
174 [label="node #174\natomic_ionization_potential_wa <= 5.1633\ngini = 0.2693\nsamples = 0.1%\nvalue = [0.1604, 0.8396]", fillcolor="#5fb0ea"] ;
170 -> 174 ;
175 [label="node #175\ngini = 0.2449\nsamples = 0.0%\nvalue = [0.8571, 0.1429]", fillcolor="#e9965a"] ;
174 -> 175 ;
176 [label="node #176\ngini = 0.1975\nsamples = 0.1%\nvalue = [0.1111, 0.8889]", fillcolor="#52a9e8"] ;
174 -> 176 ;
177 [label="node #177\natomic_number_wa <= 54.1429\ngini = 0.4609\nsamples = 0.4%\nvalue = [0.6399, 0.3601]", fillcolor="#f4c8a8"] ;
169 -> 177 ;
178 [label="node #178\natomic_volume_wad <= 53.9387\ngini = 0.4093\nsamples = 0.4%\nvalue = [0.713, 0.287]", fillcolor="#efb489"] ;
177 -> 178 ;
179 [label="node #179\ngini = 0.3716\nsamples = 0.3%\nvalue = [0.7534, 0.2466]", fillcolor="#eeaa7a"] ;
178 -> 179 ;
180 [label="node #180\ngini = 0.4082\nsamples = 0.0%\nvalue = [0.2857, 0.7143]", fillcolor="#88c4ef"] ;
178 -> 180 ;
181 [label="node #181\natomic_volume_wa <= 24.9848\ngini = 0.3829\nsamples = 0.1%\nvalue = [0.2581, 0.7419]", fillcolor="#7ebfee"] ;
177 -> 181 ;
182 [label="node #182\ngini = 0.0526\nsamples = 0.0%\nvalue = [0.027, 0.973]", fillcolor="#3ea0e6"] ;
181 -> 182 ;
183 [label="node #183\ngini = 0.48\nsamples = 0.0%\nvalue = [0.6, 0.4]", fillcolor="#f6d5bd"] ;
181 -> 183 ;
184 [label="node #184\natomic_volume_wa <= 15.1554\ngini = 0.4666\nsamples = 3.8%\nvalue = [0.3707, 0.6293]", fillcolor="#aed7f4"] ;
2 -> 184 ;
185 [label="node #185\natomic_volume_wa <= 13.1595\ngini = 0.3818\nsamples = 2.8%\nvalue = [0.2569, 0.7431]", fillcolor="#7dbfee"] ;
184 -> 185 ;
186 [label="node #186\natomic_number_wa <= 36.6833\ngini = 0.2471\nsamples = 1.6%\nvalue = [0.1444, 0.8556]", fillcolor="#5aaee9"] ;
185 -> 186 ;
187 [label="node #187\nrel_stoich_wa <= 0.5482\ngini = 0.373\nsamples = 0.7%\nvalue = [0.248, 0.752]", fillcolor="#7abdee"] ;
186 -> 187 ;
188 [label="node #188\nrel_stoich_wa <= 0.408\ngini = 0.3331\nsamples = 0.7%\nvalue = [0.2111, 0.7889]", fillcolor="#6eb7ec"] ;
187 -> 188 ;
189 [label="node #189\natomic_volume_wa <= 11.449\ngini = 0.4334\nsamples = 0.3%\nvalue = [0.3175, 0.6825]", fillcolor="#95cbf1"] ;
188 -> 189 ;
190 [label="node #190\natomic_number_wad <= 15.6765\ngini = 0.1572\nsamples = 0.1%\nvalue = [0.086, 0.914]", fillcolor="#4ca6e7"] ;
189 -> 190 ;
191 [label="node #191\ngini = 0.3457\nsamples = 0.0%\nvalue = [0.7778, 0.2222]", fillcolor="#eca572"] ;
190 -> 191 ;
192 [label="node #192\ngini = 0.0235\nsamples = 0.1%\nvalue = [0.0119, 0.9881]", fillcolor="#3b9ee5"] ;
190 -> 192 ;
193 [label="node #193\natomic_r_covalent_wa <= 1.2533\ngini = 0.4956\nsamples = 0.2%\nvalue = [0.4528, 0.5472]", fillcolor="#ddeefb"] ;
189 -> 193 ;
194 [label="node #194\ngini = 0.4945\nsamples = 0.1%\nvalue = [0.5526, 0.4474]", fillcolor="#fae7d9"] ;
193 -> 194 ;
195 [label="node #195\ngini = 0.32\nsamples = 0.0%\nvalue = [0.2, 0.8]", fillcolor="#6ab6ec"] ;
193 -> 195 ;
196 [label="node #196\natomic_number_wa <= 17.8839\ngini = 0.2169\nsamples = 0.4%\nvalue = [0.1238, 0.8762]", fillcolor="#55abe9"] ;
188 -> 196 ;
197 [label="node #197\nrel_stoich_wa <= 0.4499\ngini = 0.375\nsamples = 0.0%\nvalue = [0.75, 0.25]", fillcolor="#eeab7b"] ;
196 -> 197 ;
198 [label="node #198\ngini = 0.0\nsamples = 0.0%\nvalue = [1.0, 0.0]", fillcolor="#e58139"] ;
197 -> 198 ;
199 [label="node #199\ngini = 0.0\nsamples = 0.0%\nvalue = [0.0, 1.0]", fillcolor="#399de5"] ;
197 -> 199 ;
200 [label="node #200\natomic_number_wa <= 30.5\ngini = 0.1911\nsamples = 0.4%\nvalue = [0.107, 0.893]", fillcolor="#51a9e8"] ;
196 -> 200 ;
201 [label="node #201\ngini = 0.0843\nsamples = 0.2%\nvalue = [0.0441, 0.9559]", fillcolor="#42a2e6"] ;
200 -> 201 ;
202 [label="node #202\ngini = 0.367\nsamples = 0.1%\nvalue = [0.2421, 0.7579]", fillcolor="#78bced"] ;
200 -> 202 ;
203 [label="node #203\natomic_ionization_potential_wa <= 8.9647\ngini = 0.4927\nsamples = 0.1%\nvalue = [0.5606, 0.4394]", fillcolor="#f9e4d4"] ;
187 -> 203 ;
204 [label="node #204\natomic_pauling_electronegativity_wad <= 0.4778\ngini = 0.3848\nsamples = 0.1%\nvalue = [0.74, 0.26]", fillcolor="#eead7f"] ;
203 -> 204 ;
205 [label="node #205\ngini = 0.0\nsamples = 0.0%\nvalue = [0.0, 1.0]", fillcolor="#399de5"] ;
204 -> 205 ;
206 [label="node #206\natomic_ionization_potential_wa <= 8.8885\ngini = 0.1761\nsamples = 0.0%\nvalue = [0.9024, 0.0976]", fillcolor="#e88f4e"] ;
204 -> 206 ;
207 [label="node #207\ngini = 0.1049\nsamples = 0.0%\nvalue = [0.9444, 0.0556]", fillcolor="#e78845"] ;
206 -> 207 ;
208 [label="node #208\ngini = 0.48\nsamples = 0.0%\nvalue = [0.6, 0.4]", fillcolor="#f6d5bd"] ;
206 -> 208 ;
209 [label="node #209\ngini = 0.0\nsamples = 0.0%\nvalue = [0.0, 1.0]", fillcolor="#399de5"] ;
203 -> 209 ;
210 [label="node #210\nrel_stoich_wa <= 0.3385\ngini = 0.0978\nsamples = 0.8%\nvalue = [0.0516, 0.9484]", fillcolor="#44a2e6"] ;
186 -> 210 ;
211 [label="node #211\natomic_volume_wad <= 11.7017\ngini = 0.4861\nsamples = 0.0%\nvalue = [0.4167, 0.5833]", fillcolor="#c6e3f8"] ;
210 -> 211 ;
212 [label="node #212\natomic_volume_wa <= 11.6825\ngini = 0.355\nsamples = 0.0%\nvalue = [0.7692, 0.2308]", fillcolor="#eda774"] ;
211 -> 212 ;
213 [label="node #213\ngini = 0.0\nsamples = 0.0%\nvalue = [0.0, 1.0]", fillcolor="#399de5"] ;
212 -> 213 ;
214 [label="node #214\ngini = 0.0\nsamples = 0.0%\nvalue = [1.0, 0.0]", fillcolor="#e58139"] ;
212 -> 214 ;
215 [label="node #215\ngini = 0.0\nsamples = 0.0%\nvalue = [0.0, 1.0]", fillcolor="#399de5"] ;
211 -> 215 ;
216 [label="node #216\natomic_volume_wad <= 21.7848\ngini = 0.0742\nsamples = 0.8%\nvalue = [0.0386, 0.9614]", fillcolor="#41a1e6"] ;
210 -> 216 ;
217 [label="node #217\natomic_volume_wa <= 10.3575\ngini = 0.069\nsamples = 0.8%\nvalue = [0.0358, 0.9642]", fillcolor="#40a1e6"] ;
216 -> 217 ;
218 [label="node #218\natomic_pauling_electronegativity_wad <= 1.4159\ngini = 0.0112\nsamples = 0.4%\nvalue = [0.0056, 0.9944]", fillcolor="#3a9ee5"] ;
217 -> 218 ;
219 [label="node #219\ngini = 0.0\nsamples = 0.4%\nvalue = [0.0, 1.0]", fillcolor="#399de5"] ;
218 -> 219 ;
220 [label="node #220\ngini = 0.1723\nsamples = 0.0%\nvalue = [0.0952, 0.9048]", fillcolor="#4ea7e8"] ;
218 -> 220 ;
221 [label="node #221\natomic_ionization_potential_wa <= 7.3684\ngini = 0.1299\nsamples = 0.4%\nvalue = [0.0698, 0.9302]", fillcolor="#48a4e7"] ;
217 -> 221 ;
222 [label="node #222\ngini = 0.48\nsamples = 0.0%\nvalue = [0.6, 0.4]", fillcolor="#f6d5bd"] ;
221 -> 222 ;
223 [label="node #223\ngini = 0.1151\nsamples = 0.4%\nvalue = [0.0613, 0.9387]", fillcolor="#46a3e7"] ;
221 -> 223 ;
224 [label="node #224\natomic_r_covalent_wad <= 0.9737\ngini = 0.4444\nsamples = 0.0%\nvalue = [0.6667, 0.3333]", fillcolor="#f2c09c"] ;
216 -> 224 ;
225 [label="node #225\ngini = 0.0\nsamples = 0.0%\nvalue = [0.0, 1.0]", fillcolor="#399de5"] ;
224 -> 225 ;
226 [label="node #226\ngini = 0.0\nsamples = 0.0%\nvalue = [1.0, 0.0]", fillcolor="#e58139"] ;
224 -> 226 ;
227 [label="node #227\natomic_r_covalent_wa <= 1.2705\ngini = 0.479\nsamples = 1.3%\nvalue = [0.3975, 0.6025]", fillcolor="#bcdef6"] ;
185 -> 227 ;
228 [label="node #228\nrel_stoich_wa <= 0.4596\ngini = 0.4533\nsamples = 0.4%\nvalue = [0.6529, 0.3471]", fillcolor="#f3c4a2"] ;
227 -> 228 ;
229 [label="node #229\natomic_volume_wad <= 16.27\ngini = 0.3468\nsamples = 0.3%\nvalue = [0.7768, 0.2232]", fillcolor="#eca572"] ;
228 -> 229 ;
230 [label="node #230\natomic_number_wad <= 12.84\ngini = 0.2953\nsamples = 0.2%\nvalue = [0.8199, 0.1801]", fillcolor="#eb9d64"] ;
229 -> 230 ;
231 [label="node #231\natomic_volume_wad <= 11.1324\ngini = 0.4628\nsamples = 0.0%\nvalue = [0.3636, 0.6364]", fillcolor="#aad5f4"] ;
230 -> 231 ;
232 [label="node #232\ngini = 0.4444\nsamples = 0.0%\nvalue = [0.6667, 0.3333]", fillcolor="#f2c09c"] ;
231 -> 232 ;
233 [label="node #233\ngini = 0.0\nsamples = 0.0%\nvalue = [0.0, 1.0]", fillcolor="#399de5"] ;
231 -> 233 ;
234 [label="node #234\natomic_ionization_potential_wa <= 7.8606\ngini = 0.262\nsamples = 0.2%\nvalue = [0.845, 0.155]", fillcolor="#ea985d"] ;
230 -> 234 ;
235 [label="node #235\ngini = 0.0\nsamples = 0.0%\nvalue = [0.0, 1.0]", fillcolor="#399de5"] ;
234 -> 235 ;
236 [label="node #236\ngini = 0.25\nsamples = 0.2%\nvalue = [0.8535, 0.1465]", fillcolor="#e9975b"] ;
234 -> 236 ;
237 [label="node #237\natomic_ionization_potential_wa <= 9.1611\ngini = 0.142\nsamples = 0.0%\nvalue = [0.0769, 0.9231]", fillcolor="#49a5e7"] ;
229 -> 237 ;
238 [label="node #238\ngini = 0.0\nsamples = 0.0%\nvalue = [0.0, 1.0]", fillcolor="#399de5"] ;
237 -> 238 ;
239 [label="node #239\ngini = 0.0\nsamples = 0.0%\nvalue = [1.0, 0.0]", fillcolor="#e58139"] ;
237 -> 239 ;
240 [label="node #240\natomic_r_covalent_wa <= 1.2111\ngini = 0.4516\nsamples = 0.1%\nvalue = [0.3444, 0.6556]", fillcolor="#a1d0f3"] ;
228 -> 240 ;
241 [label="node #241\nrel_stoich_wa <= 0.5233\ngini = 0.1699\nsamples = 0.0%\nvalue = [0.9062, 0.0938]", fillcolor="#e88e4d"] ;
240 -> 241 ;
242 [label="node #242\natomic_ionization_potential_wad <= 4.5753\ngini = 0.0666\nsamples = 0.0%\nvalue = [0.9655, 0.0345]", fillcolor="#e68640"] ;
241 -> 242 ;
243 [label="node #243\ngini = 0.0\nsamples = 0.0%\nvalue = [1.0, 0.0]", fillcolor="#e58139"] ;
242 -> 243 ;
244 [label="node #244\ngini = 0.375\nsamples = 0.0%\nvalue = [0.75, 0.25]", fillcolor="#eeab7b"] ;
242 -> 244 ;
245 [label="node #245\natomic_r_covalent_wa <= 1.1923\ngini = 0.4444\nsamples = 0.0%\nvalue = [0.3333, 0.6667]", fillcolor="#9ccef2"] ;
241 -> 245 ;
246 [label="node #246\ngini = 0.0\nsamples = 0.0%\nvalue = [1.0, 0.0]", fillcolor="#e58139"] ;
245 -> 246 ;
247 [label="node #247\ngini = 0.0\nsamples = 0.0%\nvalue = [0.0, 1.0]", fillcolor="#399de5"] ;
245 -> 247 ;
248 [label="node #248\natomic_ionization_potential_wad <= 1.861\ngini = 0.0666\nsamples = 0.1%\nvalue = [0.0345, 0.9655]", fillcolor="#40a0e6"] ;
240 -> 248 ;
249 [label="node #249\ngini = 0.48\nsamples = 0.0%\nvalue = [0.4, 0.6]", fillcolor="#bddef6"] ;
248 -> 249 ;
250 [label="node #250\ngini = 0.0\nsamples = 0.1%\nvalue = [0.0, 1.0]", fillcolor="#399de5"] ;
248 -> 250 ;
251 [label="node #251\natomic_pauling_electronegativity_wa <= 2.4183\ngini = 0.4117\nsamples = 0.9%\nvalue = [0.2899, 0.7101]", fillcolor="#8ac5f0"] ;
227 -> 251 ;
252 [label="node #252\nrel_stoich_wa <= 0.4407\ngini = 0.3813\nsamples = 0.9%\nvalue = [0.2564, 0.7436]", fillcolor="#7dbfee"] ;
251 -> 252 ;
253 [label="node #253\natomic_r_covalent_wad <= 0.6233\ngini = 0.4444\nsamples = 0.6%\nvalue = [0.3333, 0.6667]", fillcolor="#9ccef2"] ;
252 -> 253 ;
254 [label="node #254\natomic_ionization_potential_wa <= 8.6164\ngini = 0.5\nsamples = 0.2%\nvalue = [0.5024, 0.4976]", fillcolor="#fffefd"] ;
253 -> 254 ;
255 [label="node #255\ngini = 0.4346\nsamples = 0.1%\nvalue = [0.3191, 0.6809]", fillcolor="#96cbf1"] ;
254 -> 255 ;
256 [label="node #256\ngini = 0.4503\nsamples = 0.1%\nvalue = [0.6577, 0.3423]", fillcolor="#f3c3a0"] ;
254 -> 256 ;
257 [label="node #257\natomic_pauling_electronegativity_wa <= 2.0854\ngini = 0.3302\nsamples = 0.3%\nvalue = [0.2086, 0.7914]", fillcolor="#6db7ec"] ;
253 -> 257 ;
258 [label="node #258\ngini = 0.3367\nsamples = 0.0%\nvalue = [0.7857, 0.2143]", fillcolor="#eca36f"] ;
257 -> 258 ;
259 [label="node #259\ngini = 0.2927\nsamples = 0.3%\nvalue = [0.178, 0.822]", fillcolor="#64b2eb"] ;
257 -> 259 ;
260 [label="node #260\natomic_volume_wad <= 19.364\ngini = 0.1633\nsamples = 0.3%\nvalue = [0.0897, 0.9103]", fillcolor="#4da7e8"] ;
252 -> 260 ;
261 [label="node #261\natomic_r_covalent_wad <= 0.5789\ngini = 0.1444\nsamples = 0.3%\nvalue = [0.0783, 0.9217]", fillcolor="#4aa5e7"] ;
260 -> 261 ;
262 [label="node #262\ngini = 0.2172\nsamples = 0.1%\nvalue = [0.124, 0.876]", fillcolor="#55abe9"] ;
261 -> 262 ;
263 [label="node #263\ngini = 0.0408\nsamples = 0.1%\nvalue = [0.0208, 0.9792]", fillcolor="#3d9fe6"] ;
261 -> 263 ;
264 [label="node #264\natomic_ionization_potential_wa <= 8.2244\ngini = 0.5\nsamples = 0.0%\nvalue = [0.5, 0.5]", fillcolor="#ffffff"] ;
260 -> 264 ;
265 [label="node #265\ngini = 0.0\nsamples = 0.0%\nvalue = [1.0, 0.0]", fillcolor="#e58139"] ;
264 -> 265 ;
266 [label="node #266\ngini = 0.0\nsamples = 0.0%\nvalue = [0.0, 1.0]", fillcolor="#399de5"] ;
264 -> 266 ;
267 [label="node #267\natomic_r_covalent_wa <= 1.2767\ngini = 0.1841\nsamples = 0.1%\nvalue = [0.8974, 0.1026]", fillcolor="#e88f50"] ;
251 -> 267 ;
268 [label="node #268\ngini = 0.0\nsamples = 0.0%\nvalue = [0.0, 1.0]", fillcolor="#399de5"] ;
267 -> 268 ;
269 [label="node #269\ngini = 0.0\nsamples = 0.0%\nvalue = [1.0, 0.0]", fillcolor="#e58139"] ;
267 -> 269 ;
270 [label="node #270\nrel_stoich_wa <= 0.5519\ngini = 0.4164\nsamples = 0.9%\nvalue = [0.7044, 0.2956]", fillcolor="#f0b68c"] ;
184 -> 270 ;
271 [label="node #271\natomic_r_covalent_wad <= 0.7264\ngini = 0.3366\nsamples = 0.8%\nvalue = [0.7858, 0.2142]", fillcolor="#eca36f"] ;
270 -> 271 ;
272 [label="node #272\natomic_ionization_potential_wad <= 2.8274\ngini = 0.2521\nsamples = 0.6%\nvalue = [0.8521, 0.1479]", fillcolor="#ea975b"] ;
271 -> 272 ;
273 [label="node #273\natomic_volume_wa <= 16.005\ngini = 0.4734\nsamples = 0.1%\nvalue = [0.6154, 0.3846]", fillcolor="#f5d0b5"] ;
272 -> 273 ;
274 [label="node #274\nrel_stoich_wad <= 0.1213\ngini = 0.3282\nsamples = 0.0%\nvalue = [0.2069, 0.7931]", fillcolor="#6db7ec"] ;
273 -> 274 ;
275 [label="node #275\natomic_volume_wad <= 13.0533\ngini = 0.48\nsamples = 0.0%\nvalue = [0.6, 0.4]", fillcolor="#f6d5bd"] ;
274 -> 275 ;
276 [label="node #276\ngini = 0.0\nsamples = 0.0%\nvalue = [1.0, 0.0]", fillcolor="#e58139"] ;
275 -> 276 ;
277 [label="node #277\ngini = 0.0\nsamples = 0.0%\nvalue = [0.0, 1.0]", fillcolor="#399de5"] ;
275 -> 277 ;
278 [label="node #278\ngini = 0.0\nsamples = 0.0%\nvalue = [0.0, 1.0]", fillcolor="#399de5"] ;
274 -> 278 ;
279 [label="node #279\natomic_number_wa <= 58.25\ngini = 0.3122\nsamples = 0.1%\nvalue = [0.8065, 0.1935]", fillcolor="#eb9f69"] ;
273 -> 279 ;
280 [label="node #280\natomic_r_covalent_wad <= 0.055\ngini = 0.1446\nsamples = 0.1%\nvalue = [0.9216, 0.0784]", fillcolor="#e78c4a"] ;
279 -> 280 ;
281 [label="node #281\ngini = 0.0\nsamples = 0.0%\nvalue = [0.0, 1.0]", fillcolor="#399de5"] ;
280 -> 281 ;
282 [label="node #282\ngini = 0.0408\nsamples = 0.0%\nvalue = [0.9792, 0.0208]", fillcolor="#e6843d"] ;
280 -> 282 ;
283 [label="node #283\natomic_r_covalent_wad <= 0.1233\ngini = 0.3967\nsamples = 0.0%\nvalue = [0.2727, 0.7273]", fillcolor="#83c2ef"] ;
279 -> 283 ;
284 [label="node #284\ngini = 0.0\nsamples = 0.0%\nvalue = [1.0, 0.0]", fillcolor="#e58139"] ;
283 -> 284 ;
285 [label="node #285\ngini = 0.0\nsamples = 0.0%\nvalue = [0.0, 1.0]", fillcolor="#399de5"] ;
283 -> 285 ;
286 [label="node #286\nrel_stoich_wad <= 0.9508\ngini = 0.168\nsamples = 0.5%\nvalue = [0.9075, 0.0925]", fillcolor="#e88e4d"] ;
272 -> 286 ;
287 [label="node #287\natomic_volume_wad <= 0.745\ngini = 0.1564\nsamples = 0.5%\nvalue = [0.9145, 0.0855]", fillcolor="#e78d4c"] ;
286 -> 287 ;
288 [label="node #288\nrel_stoich_wad <= 0.2154\ngini = 0.4764\nsamples = 0.0%\nvalue = [0.6087, 0.3913]", fillcolor="#f6d2b8"] ;
287 -> 288 ;
289 [label="node #289\ngini = 0.2907\nsamples = 0.0%\nvalue = [0.8235, 0.1765]", fillcolor="#eb9c63"] ;
288 -> 289 ;
290 [label="node #290\ngini = 0.0\nsamples = 0.0%\nvalue = [0.0, 1.0]", fillcolor="#399de5"] ;
288 -> 290 ;
291 [label="node #291\natomic_r_covalent_wa <= 1.5721\ngini = 0.1235\nsamples = 0.4%\nvalue = [0.9339, 0.0661]", fillcolor="#e78a47"] ;
287 -> 291 ;
292 [label="node #292\ngini = 0.1145\nsamples = 0.4%\nvalue = [0.9391, 0.0609]", fillcolor="#e78946"] ;
291 -> 292 ;
293 [label="node #293\ngini = 0.0\nsamples = 0.0%\nvalue = [0.0, 1.0]", fillcolor="#399de5"] ;
291 -> 293 ;
294 [label="node #294\ngini = 0.0\nsamples = 0.0%\nvalue = [0.0, 1.0]", fillcolor="#399de5"] ;
286 -> 294 ;
295 [label="node #295\natomic_number_wa <= 45.6667\ngini = 0.4809\nsamples = 0.2%\nvalue = [0.5976, 0.4024]", fillcolor="#f7d6be"] ;
271 -> 295 ;
296 [label="node #296\nrel_stoich_wa <= 0.4346\ngini = 0.4339\nsamples = 0.1%\nvalue = [0.6818, 0.3182]", fillcolor="#f1bc95"] ;
295 -> 296 ;
297 [label="node #297\natomic_pauling_electronegativity_wa <= 2.2973\ngini = 0.48\nsamples = 0.1%\nvalue = [0.6, 0.4]", fillcolor="#f6d5bd"] ;
296 -> 297 ;
298 [label="node #298\nrel_stoich_wad <= 0.5552\ngini = 0.4997\nsamples = 0.1%\nvalue = [0.4868, 0.5132]", fillcolor="#f5fafe"] ;
297 -> 298 ;
299 [label="node #299\ngini = 0.4617\nsamples = 0.1%\nvalue = [0.3617, 0.6383]", fillcolor="#a9d5f4"] ;
298 -> 299 ;
300 [label="node #300\ngini = 0.4281\nsamples = 0.0%\nvalue = [0.6897, 0.3103]", fillcolor="#f1ba92"] ;
298 -> 300 ;
301 [label="node #301\natomic_number_wa <= 44.0455\ngini = 0.1855\nsamples = 0.0%\nvalue = [0.8966, 0.1034]", fillcolor="#e89050"] ;
297 -> 301 ;
302 [label="node #302\ngini = 0.0\nsamples = 0.0%\nvalue = [1.0, 0.0]", fillcolor="#e58139"] ;
301 -> 302 ;
303 [label="node #303\ngini = 0.2188\nsamples = 0.0%\nvalue = [0.875, 0.125]", fillcolor="#e99355"] ;
301 -> 303 ;
304 [label="node #304\ngini = 0.0\nsamples = 0.0%\nvalue = [1.0, 0.0]", fillcolor="#e58139"] ;
296 -> 304 ;
305 [label="node #305\natomic_volume_wa <= 16.5987\ngini = 0.4178\nsamples = 0.1%\nvalue = [0.2973, 0.7027]", fillcolor="#8dc6f0"] ;
295 -> 305 ;
306 [label="node #306\natomic_volume_wad <= 15.1683\ngini = 0.3599\nsamples = 0.0%\nvalue = [0.2353, 0.7647]", fillcolor="#76bbed"] ;
305 -> 306 ;
307 [label="node #307\ngini = 0.0\nsamples = 0.0%\nvalue = [0.0, 1.0]", fillcolor="#399de5"] ;
306 -> 307 ;
308 [label="node #308\natomic_volume_wa <= 15.6271\ngini = 0.4082\nsamples = 0.0%\nvalue = [0.2857, 0.7143]", fillcolor="#88c4ef"] ;
306 -> 308 ;
309 [label="node #309\ngini = 0.4082\nsamples = 0.0%\nvalue = [0.2857, 0.7143]", fillcolor="#88c4ef"] ;
308 -> 309 ;
310 [label="node #310\ngini = 0.4082\nsamples = 0.0%\nvalue = [0.2857, 0.7143]", fillcolor="#88c4ef"] ;
308 -> 310 ;
311 [label="node #311\ngini = 0.0\nsamples = 0.0%\nvalue = [1.0, 0.0]", fillcolor="#e58139"] ;
305 -> 311 ;
312 [label="node #312\natomic_ionization_potential_wa <= 8.3472\ngini = 0.4714\nsamples = 0.2%\nvalue = [0.3804, 0.6196]", fillcolor="#b3d9f5"] ;
270 -> 312 ;
313 [label="node #313\ngini = 0.0\nsamples = 0.0%\nvalue = [0.0, 1.0]", fillcolor="#399de5"] ;
312 -> 313 ;
314 [label="node #314\natomic_ionization_potential_wa <= 8.3762\ngini = 0.492\nsamples = 0.2%\nvalue = [0.4366, 0.5634]", fillcolor="#d2e9f9"] ;
312 -> 314 ;
315 [label="node #315\natomic_pauling_electronegativity_wad <= 0.745\ngini = 0.3367\nsamples = 0.0%\nvalue = [0.7857, 0.2143]", fillcolor="#eca36f"] ;
314 -> 315 ;
316 [label="node #316\ngini = 0.2188\nsamples = 0.0%\nvalue = [0.875, 0.125]", fillcolor="#e99355"] ;
315 -> 316 ;
317 [label="node #317\ngini = 0.375\nsamples = 0.0%\nvalue = [0.75, 0.25]", fillcolor="#eeab7b"] ;
315 -> 317 ;
318 [label="node #318\natomic_number_wad <= 55.5\ngini = 0.4555\nsamples = 0.1%\nvalue = [0.3509, 0.6491]", fillcolor="#a4d2f3"] ;
314 -> 318 ;
319 [label="node #319\natomic_volume_wa <= 16.0075\ngini = 0.4094\nsamples = 0.1%\nvalue = [0.2871, 0.7129]", fillcolor="#89c4ef"] ;
318 -> 319 ;
320 [label="node #320\natomic_ionization_potential_wa <= 9.1434\ngini = 0.32\nsamples = 0.0%\nvalue = [0.8, 0.2]", fillcolor="#eca06a"] ;
319 -> 320 ;
321 [label="node #321\ngini = 0.142\nsamples = 0.0%\nvalue = [0.9231, 0.0769]", fillcolor="#e78c49"] ;
320 -> 321 ;
322 [label="node #322\ngini = 0.0\nsamples = 0.0%\nvalue = [0.0, 1.0]", fillcolor="#399de5"] ;
320 -> 322 ;
323 [label="node #323\natomic_number_wa <= 29.8333\ngini = 0.3172\nsamples = 0.1%\nvalue = [0.1977, 0.8023]", fillcolor="#6ab5eb"] ;
319 -> 323 ;
324 [label="node #324\ngini = 0.0\nsamples = 0.0%\nvalue = [1.0, 0.0]", fillcolor="#e58139"] ;
323 -> 324 ;
325 [label="node #325\ngini = 0.2934\nsamples = 0.1%\nvalue = [0.1786, 0.8214]", fillcolor="#64b2eb"] ;
323 -> 325 ;
326 [label="node #326\natomic_ionization_potential_wad <= 3.614\ngini = 0.2604\nsamples = 0.0%\nvalue = [0.8462, 0.1538]", fillcolor="#ea985d"] ;
318 -> 326 ;
327 [label="node #327\ngini = 0.0\nsamples = 0.0%\nvalue = [0.0, 1.0]", fillcolor="#399de5"] ;
326 -> 327 ;
328 [label="node #328\ngini = 0.0\nsamples = 0.0%\nvalue = [1.0, 0.0]", fillcolor="#e58139"] ;
326 -> 328 ;
329 [label="node #329\natomic_pauling_electronegativity_wa <= 2.0973\ngini = 0.4083\nsamples = 4.1%\nvalue = [0.7141, 0.2859]", fillcolor="#efb388"] ;
1 -> 329 ;
330 [label="node #330\natomic_r_covalent_wa <= 0.7208\ngini = 0.4888\nsamples = 0.8%\nvalue = [0.4251, 0.5749]", fillcolor="#cbe5f8"] ;
329 -> 330 ;
331 [label="node #331\natomic_number_wa <= 18.625\ngini = 0.2509\nsamples = 0.2%\nvalue = [0.8529, 0.1471]", fillcolor="#e9975b"] ;
330 -> 331 ;
332 [label="node #332\natomic_number_wa <= 5.5186\ngini = 0.1812\nsamples = 0.2%\nvalue = [0.8992, 0.1008]", fillcolor="#e88f4f"] ;
331 -> 332 ;
333 [label="node #333\nrel_stoich_wad <= 0.365\ngini = 0.0253\nsamples = 0.1%\nvalue = [0.9872, 0.0128]", fillcolor="#e5833c"] ;
332 -> 333 ;
334 [label="node #334\natomic_r_covalent_wa <= 0.6017\ngini = 0.1975\nsamples = 0.0%\nvalue = [0.8889, 0.1111]", fillcolor="#e89152"] ;
333 -> 334 ;
335 [label="node #335\ngini = 0.0\nsamples = 0.0%\nvalue = [1.0, 0.0]", fillcolor="#e58139"] ;
334 -> 335 ;
336 [label="node #336\ngini = 0.2449\nsamples = 0.0%\nvalue = [0.8571, 0.1429]", fillcolor="#e9965a"] ;
334 -> 336 ;
337 [label="node #337\ngini = 0.0\nsamples = 0.1%\nvalue = [1.0, 0.0]", fillcolor="#e58139"] ;
333 -> 337 ;
338 [label="node #338\natomic_pauling_electronegativity_wad <= 1.3239\ngini = 0.3599\nsamples = 0.1%\nvalue = [0.7647, 0.2353]", fillcolor="#eda876"] ;
332 -> 338 ;
339 [label="node #339\natomic_r_covalent_wad <= 1.9214\ngini = 0.4851\nsamples = 0.0%\nvalue = [0.5862, 0.4138]", fillcolor="#f7dac5"] ;
338 -> 339 ;
340 [label="node #340\natomic_ionization_potential_wad <= 7.5675\ngini = 0.3628\nsamples = 0.0%\nvalue = [0.7619, 0.2381]", fillcolor="#eda877"] ;
339 -> 340 ;
341 [label="node #341\natomic_volume_wa <= 13.26\ngini = 0.5\nsamples = 0.0%\nvalue = [0.5, 0.5]", fillcolor="#ffffff"] ;
340 -> 341 ;
342 [label="node #342\ngini = 0.0\nsamples = 0.0%\nvalue = [0.0, 1.0]", fillcolor="#399de5"] ;
341 -> 342 ;
343 [label="node #343\ngini = 0.2778\nsamples = 0.0%\nvalue = [0.8333, 0.1667]", fillcolor="#ea9a61"] ;
341 -> 343 ;
344 [label="node #344\ngini = 0.0\nsamples = 0.0%\nvalue = [1.0, 0.0]", fillcolor="#e58139"] ;
340 -> 344 ;
345 [label="node #345\natomic_ionization_potential_wa <= 11.9064\ngini = 0.2188\nsamples = 0.0%\nvalue = [0.125, 0.875]", fillcolor="#55abe9"] ;
339 -> 345 ;
346 [label="node #346\ngini = 0.0\nsamples = 0.0%\nvalue = [0.0, 1.0]", fillcolor="#399de5"] ;
345 -> 346 ;
347 [label="node #347\ngini = 0.0\nsamples = 0.0%\nvalue = [1.0, 0.0]", fillcolor="#e58139"] ;
345 -> 347 ;
348 [label="node #348\ngini = 0.0\nsamples = 0.0%\nvalue = [1.0, 0.0]", fillcolor="#e58139"] ;
338 -> 348 ;
349 [label="node #349\ngini = 0.0\nsamples = 0.0%\nvalue = [0.0, 1.0]", fillcolor="#399de5"] ;
331 -> 349 ;
350 [label="node #350\natomic_volume_wa <= 16.1838\ngini = 0.4367\nsamples = 0.7%\nvalue = [0.3221, 0.6779]", fillcolor="#97ccf1"] ;
330 -> 350 ;
351 [label="node #351\nrel_stoich_wad <= 0.4243\ngini = 0.3797\nsamples = 0.5%\nvalue = [0.2547, 0.7453]", fillcolor="#7dbeee"] ;
350 -> 351 ;
352 [label="node #352\natomic_ionization_potential_wad <= 5.1462\ngini = 0.4748\nsamples = 0.3%\nvalue = [0.3878, 0.6122]", fillcolor="#b6dbf5"] ;
351 -> 352 ;
353 [label="node #353\natomic_pauling_electronegativity_wad <= 0.295\ngini = 0.4981\nsamples = 0.2%\nvalue = [0.5305, 0.4695]", fillcolor="#fcf1e8"] ;
352 -> 353 ;
354 [label="node #354\natomic_volume_wa <= 13.877\ngini = 0.2975\nsamples = 0.0%\nvalue = [0.1818, 0.8182]", fillcolor="#65b3eb"] ;
353 -> 354 ;
355 [label="node #355\ngini = 0.0\nsamples = 0.0%\nvalue = [0.0, 1.0]", fillcolor="#399de5"] ;
354 -> 355 ;
356 [label="node #356\natomic_ionization_potential_wa <= 9.5096\ngini = 0.42\nsamples = 0.0%\nvalue = [0.3, 0.7]", fillcolor="#8ec7f0"] ;
354 -> 356 ;
357 [label="node #357\ngini = 0.0\nsamples = 0.0%\nvalue = [1.0, 0.0]", fillcolor="#e58139"] ;
356 -> 357 ;
358 [label="node #358\ngini = 0.3878\nsamples = 0.0%\nvalue = [0.2632, 0.7368]", fillcolor="#80c0ee"] ;
356 -> 358 ;
359 [label="node #359\natomic_r_covalent_wa <= 1.1581\ngini = 0.472\nsamples = 0.2%\nvalue = [0.6183, 0.3817]", fillcolor="#f5cfb3"] ;
353 -> 359 ;
360 [label="node #360\ngini = 0.0\nsamples = 0.0%\nvalue = [1.0, 0.0]", fillcolor="#e58139"] ;
359 -> 360 ;
361 [label="node #361\natomic_volume_wa <= 10.7663\ngini = 0.4993\nsamples = 0.1%\nvalue = [0.5192, 0.4808]", fillcolor="#fdf6f0"] ;
359 -> 361 ;
362 [label="node #362\ngini = 0.2268\nsamples = 0.0%\nvalue = [0.1304, 0.8696]", fillcolor="#57ace9"] ;
361 -> 362 ;
363 [label="node #363\ngini = 0.4664\nsamples = 0.1%\nvalue = [0.6296, 0.3704]", fillcolor="#f4cbad"] ;
361 -> 363 ;
364 [label="node #364\natomic_volume_wa <= 15.1417\ngini = 0.178\nsamples = 0.1%\nvalue = [0.0988, 0.9012]", fillcolor="#4fa8e8"] ;
352 -> 364 ;
365 [label="node #365\natomic_pauling_electronegativity_wad <= 0.31\ngini = 0.0768\nsamples = 0.1%\nvalue = [0.04, 0.96]", fillcolor="#41a1e6"] ;
364 -> 365 ;
366 [label="node #366\natomic_ionization_potential_wa <= 10.1028\ngini = 0.4898\nsamples = 0.0%\nvalue = [0.4286, 0.5714]", fillcolor="#cee6f8"] ;
365 -> 366 ;
367 [label="node #367\ngini = 0.0\nsamples = 0.0%\nvalue = [0.0, 1.0]", fillcolor="#399de5"] ;
366 -> 367 ;
368 [label="node #368\ngini = 0.48\nsamples = 0.0%\nvalue = [0.6, 0.4]", fillcolor="#f6d5bd"] ;
366 -> 368 ;
369 [label="node #369\ngini = 0.0\nsamples = 0.1%\nvalue = [0.0, 1.0]", fillcolor="#399de5"] ;
365 -> 369 ;
370 [label="node #370\natomic_volume_wa <= 16.0017\ngini = 0.2778\nsamples = 0.0%\nvalue = [0.8333, 0.1667]", fillcolor="#ea9a61"] ;
364 -> 370 ;
371 [label="node #371\ngini = 0.0\nsamples = 0.0%\nvalue = [1.0, 0.0]", fillcolor="#e58139"] ;
370 -> 371 ;
372 [label="node #372\ngini = 0.0\nsamples = 0.0%\nvalue = [0.0, 1.0]", fillcolor="#399de5"] ;
370 -> 372 ;
373 [label="node #373\natomic_number_wa <= 5.4077\ngini = 0.2041\nsamples = 0.3%\nvalue = [0.1154, 0.8846]", fillcolor="#53aae8"] ;
351 -> 373 ;
374 [label="node #374\ngini = 0.0\nsamples = 0.0%\nvalue = [1.0, 0.0]", fillcolor="#e58139"] ;
373 -> 374 ;
375 [label="node #375\nrel_stoich_wad <= 1.374\ngini = 0.1862\nsamples = 0.3%\nvalue = [0.1039, 0.8961]", fillcolor="#50a8e8"] ;
373 -> 375 ;
376 [label="node #376\natomic_volume_wa <= 14.886\ngini = 0.1737\nsamples = 0.2%\nvalue = [0.0961, 0.9039]", fillcolor="#4ea7e8"] ;
375 -> 376 ;
377 [label="node #377\natomic_r_covalent_wa <= 0.7857\ngini = 0.097\nsamples = 0.2%\nvalue = [0.0511, 0.9489]", fillcolor="#44a2e6"] ;
376 -> 377 ;
378 [label="node #378\ngini = 0.3599\nsamples = 0.0%\nvalue = [0.2353, 0.7647]", fillcolor="#76bbed"] ;
377 -> 378 ;
379 [label="node #379\ngini = 0.014\nsamples = 0.2%\nvalue = [0.007, 0.993]", fillcolor="#3a9ee5"] ;
377 -> 379 ;
380 [label="node #380\nrel_stoich_wad <= 0.55\ngini = 0.3702\nsamples = 0.1%\nvalue = [0.2453, 0.7547]", fillcolor="#79bded"] ;
376 -> 380 ;
381 [label="node #381\ngini = 0.0\nsamples = 0.0%\nvalue = [0.0, 1.0]", fillcolor="#399de5"] ;
380 -> 381 ;
382 [label="node #382\ngini = 0.4992\nsamples = 0.0%\nvalue = [0.52, 0.48]", fillcolor="#fdf5f0"] ;
380 -> 382 ;
383 [label="node #383\ngini = 0.0\nsamples = 0.0%\nvalue = [1.0, 0.0]", fillcolor="#e58139"] ;
375 -> 383 ;
384 [label="node #384\natomic_number_wa <= 23.9375\ngini = 0.4218\nsamples = 0.1%\nvalue = [0.6977, 0.3023]", fillcolor="#f0b88f"] ;
350 -> 384 ;
385 [label="node #385\natomic_r_covalent_wad <= 2.39\ngini = 0.16\nsamples = 0.1%\nvalue = [0.9123, 0.0877]", fillcolor="#e88d4c"] ;
384 -> 385 ;
386 [label="node #386\natomic_volume_wad <= 3.845\ngini = 0.0726\nsamples = 0.1%\nvalue = [0.9623, 0.0377]", fillcolor="#e68641"] ;
385 -> 386 ;
387 [label="node #387\natomic_pauling_electronegativity_wa <= 2.0128\ngini = 0.2778\nsamples = 0.0%\nvalue = [0.8333, 0.1667]", fillcolor="#ea9a61"] ;
386 -> 387 ;
388 [label="node #388\ngini = 0.0\nsamples = 0.0%\nvalue = [0.0, 1.0]", fillcolor="#399de5"] ;
387 -> 388 ;
389 [label="node #389\ngini = 0.0\nsamples = 0.0%\nvalue = [1.0, 0.0]", fillcolor="#e58139"] ;
387 -> 389 ;
390 [label="node #390\nrel_stoich_wa <= 0.4313\ngini = 0.0416\nsamples = 0.1%\nvalue = [0.9787, 0.0213]", fillcolor="#e6843d"] ;
386 -> 390 ;
391 [label="node #391\natomic_r_covalent_wad <= 2.1315\ngini = 0.2449\nsamples = 0.0%\nvalue = [0.8571, 0.1429]", fillcolor="#e9965a"] ;
390 -> 391 ;
392 [label="node #392\ngini = 0.0\nsamples = 0.0%\nvalue = [1.0, 0.0]", fillcolor="#e58139"] ;
391 -> 392 ;
393 [label="node #393\ngini = 0.0\nsamples = 0.0%\nvalue = [0.0, 1.0]", fillcolor="#399de5"] ;
391 -> 393 ;
394 [label="node #394\ngini = 0.0\nsamples = 0.1%\nvalue = [1.0, 0.0]", fillcolor="#e58139"] ;
390 -> 394 ;
395 [label="node #395\natomic_r_covalent_wad <= 2.4667\ngini = 0.375\nsamples = 0.0%\nvalue = [0.25, 0.75]", fillcolor="#7bbeee"] ;
385 -> 395 ;
396 [label="node #396\ngini = 0.0\nsamples = 0.0%\nvalue = [0.0, 1.0]", fillcolor="#399de5"] ;
395 -> 396 ;
397 [label="node #397\ngini = 0.0\nsamples = 0.0%\nvalue = [1.0, 0.0]", fillcolor="#e58139"] ;
395 -> 397 ;
398 [label="node #398\natomic_pauling_electronegativity_wad <= 1.2197\ngini = 0.3995\nsamples = 0.0%\nvalue = [0.2759, 0.7241]", fillcolor="#84c2ef"] ;
384 -> 398 ;
399 [label="node #399\natomic_pauling_electronegativity_wa <= 2.0869\ngini = 0.0868\nsamples = 0.0%\nvalue = [0.0455, 0.9545]", fillcolor="#42a2e6"] ;
398 -> 399 ;
400 [label="node #400\ngini = 0.0\nsamples = 0.0%\nvalue = [0.0, 1.0]", fillcolor="#399de5"] ;
399 -> 400 ;
401 [label="node #401\ngini = 0.0\nsamples = 0.0%\nvalue = [1.0, 0.0]", fillcolor="#e58139"] ;
399 -> 401 ;
402 [label="node #402\ngini = 0.0\nsamples = 0.0%\nvalue = [1.0, 0.0]", fillcolor="#e58139"] ;
398 -> 402 ;
403 [label="node #403\natomic_ionization_potential_wa <= 9.5602\ngini = 0.3354\nsamples = 3.3%\nvalue = [0.7869, 0.2131]", fillcolor="#eca36f"] ;
329 -> 403 ;
404 [label="node #404\natomic_volume_wa <= 12.8488\ngini = 0.4694\nsamples = 0.8%\nvalue = [0.6237, 0.3763]", fillcolor="#f5cdb0"] ;
403 -> 404 ;
405 [label="node #405\natomic_number_wa <= 19.4167\ngini = 0.3846\nsamples = 0.2%\nvalue = [0.2597, 0.7403]", fillcolor="#7ebfee"] ;
404 -> 405 ;
406 [label="node #406\natomic_volume_wad <= 8.31\ngini = 0.4592\nsamples = 0.0%\nvalue = [0.6429, 0.3571]", fillcolor="#f3c7a7"] ;
405 -> 406 ;
407 [label="node #407\ngini = 0.0\nsamples = 0.0%\nvalue = [0.0, 1.0]", fillcolor="#399de5"] ;
406 -> 407 ;
408 [label="node #408\ngini = 0.0\nsamples = 0.0%\nvalue = [1.0, 0.0]", fillcolor="#e58139"] ;
406 -> 408 ;
409 [label="node #409\nrel_stoich_wa <= 0.3739\ngini = 0.3448\nsamples = 0.2%\nvalue = [0.2214, 0.7786]", fillcolor="#71b9ec"] ;
405 -> 409 ;
410 [label="node #410\natomic_ionization_potential_wa <= 9.2869\ngini = 0.4938\nsamples = 0.0%\nvalue = [0.5556, 0.4444]", fillcolor="#fae6d7"] ;
409 -> 410 ;
411 [label="node #411\ngini = 0.0\nsamples = 0.0%\nvalue = [1.0, 0.0]", fillcolor="#e58139"] ;
410 -> 411 ;
412 [label="node #412\natomic_r_covalent_wa <= 1.1657\ngini = 0.3967\nsamples = 0.0%\nvalue = [0.2727, 0.7273]", fillcolor="#83c2ef"] ;
410 -> 412 ;
413 [label="node #413\natomic_volume_wa <= 12.0156\ngini = 0.375\nsamples = 0.0%\nvalue = [0.75, 0.25]", fillcolor="#eeab7b"] ;
412 -> 413 ;
414 [label="node #414\ngini = 0.0\nsamples = 0.0%\nvalue = [0.0, 1.0]", fillcolor="#399de5"] ;
413 -> 414 ;
415 [label="node #415\ngini = 0.0\nsamples = 0.0%\nvalue = [1.0, 0.0]", fillcolor="#e58139"] ;
413 -> 415 ;
416 [label="node #416\ngini = 0.0\nsamples = 0.0%\nvalue = [0.0, 1.0]", fillcolor="#399de5"] ;
412 -> 416 ;
417 [label="node #417\natomic_r_covalent_wa <= 1.1747\ngini = 0.285\nsamples = 0.2%\nvalue = [0.1721, 0.8279]", fillcolor="#62b1ea"] ;
409 -> 417 ;
418 [label="node #418\natomic_ionization_potential_wad <= 2.469\ngini = 0.1362\nsamples = 0.1%\nvalue = [0.0735, 0.9265]", fillcolor="#49a5e7"] ;
417 -> 418 ;
419 [label="node #419\ngini = 0.0\nsamples = 0.0%\nvalue = [1.0, 0.0]", fillcolor="#e58139"] ;
418 -> 419 ;
420 [label="node #420\natomic_number_wad <= 17.3083\ngini = 0.1123\nsamples = 0.1%\nvalue = [0.0597, 0.9403]", fillcolor="#46a3e7"] ;
418 -> 420 ;
421 [label="node #421\ngini = 0.2873\nsamples = 0.0%\nvalue = [0.1739, 0.8261]", fillcolor="#63b2ea"] ;
420 -> 421 ;
422 [label="node #422\ngini = 0.0\nsamples = 0.1%\nvalue = [0.0, 1.0]", fillcolor="#399de5"] ;
420 -> 422 ;
423 [label="node #423\natomic_r_covalent_wa <= 1.2103\ngini = 0.417\nsamples = 0.1%\nvalue = [0.2963, 0.7037]", fillcolor="#8cc6f0"] ;
417 -> 423 ;
424 [label="node #424\natomic_volume_wad <= 7.1988\ngini = 0.355\nsamples = 0.0%\nvalue = [0.7692, 0.2308]", fillcolor="#eda774"] ;
423 -> 424 ;
425 [label="node #425\ngini = 0.0\nsamples = 0.0%\nvalue = [0.0, 1.0]", fillcolor="#399de5"] ;
424 -> 425 ;
426 [label="node #426\ngini = 0.1653\nsamples = 0.0%\nvalue = [0.9091, 0.0909]", fillcolor="#e88e4d"] ;
424 -> 426 ;
427 [label="node #427\natomic_ionization_potential_wa <= 9.3959\ngini = 0.2499\nsamples = 0.1%\nvalue = [0.1463, 0.8537]", fillcolor="#5baee9"] ;
423 -> 427 ;
428 [label="node #428\ngini = 0.1139\nsamples = 0.0%\nvalue = [0.0606, 0.9394]", fillcolor="#46a3e7"] ;
427 -> 428 ;
429 [label="node #429\ngini = 0.5\nsamples = 0.0%\nvalue = [0.5, 0.5]", fillcolor="#ffffff"] ;
427 -> 429 ;
430 [label="node #430\natomic_ionization_potential_wad <= 4.9037\ngini = 0.3973\nsamples = 0.6%\nvalue = [0.7266, 0.2734]", fillcolor="#efb084"] ;
404 -> 430 ;
431 [label="node #431\natomic_r_covalent_wad <= 0.738\ngini = 0.4631\nsamples = 0.4%\nvalue = [0.6359, 0.3641]", fillcolor="#f4c9aa"] ;
430 -> 431 ;
432 [label="node #432\natomic_volume_wa <= 15.6971\ngini = 0.3855\nsamples = 0.4%\nvalue = [0.7393, 0.2607]", fillcolor="#eead7f"] ;
431 -> 432 ;
433 [label="node #433\nrel_stoich_wa <= 0.4243\ngini = 0.4455\nsamples = 0.2%\nvalue = [0.665, 0.335]", fillcolor="#f2c09d"] ;
432 -> 433 ;
434 [label="node #434\natomic_number_wad <= 18.0556\ngini = 0.3023\nsamples = 0.1%\nvalue = [0.8144, 0.1856]", fillcolor="#eb9e66"] ;
433 -> 434 ;
435 [label="node #435\ngini = 0.0\nsamples = 0.0%\nvalue = [0.0, 1.0]", fillcolor="#399de5"] ;
434 -> 435 ;
436 [label="node #436\ngini = 0.2427\nsamples = 0.1%\nvalue = [0.8587, 0.1413]", fillcolor="#e9965a"] ;
434 -> 436 ;
437 [label="node #437\natomic_volume_wad <= 9.0236\ngini = 0.4984\nsamples = 0.1%\nvalue = [0.5283, 0.4717]", fillcolor="#fcf2ea"] ;
433 -> 437 ;
438 [label="node #438\ngini = 0.4474\nsamples = 0.1%\nvalue = [0.6622, 0.3378]", fillcolor="#f2c19e"] ;
437 -> 438 ;
439 [label="node #439\ngini = 0.3418\nsamples = 0.0%\nvalue = [0.2188, 0.7812]", fillcolor="#70b8ec"] ;
437 -> 439 ;
440 [label="node #440\natomic_ionization_potential_wad <= 2.7965\ngini = 0.1958\nsamples = 0.1%\nvalue = [0.89, 0.11]", fillcolor="#e89151"] ;
432 -> 440 ;
441 [label="node #441\natomic_volume_wa <= 17.6404\ngini = 0.5\nsamples = 0.0%\nvalue = [0.5, 0.5]", fillcolor="#ffffff"] ;
440 -> 441 ;
442 [label="node #442\ngini = 0.0\nsamples = 0.0%\nvalue = [1.0, 0.0]", fillcolor="#e58139"] ;
441 -> 442 ;
443 [label="node #443\ngini = 0.2778\nsamples = 0.0%\nvalue = [0.1667, 0.8333]", fillcolor="#61b1ea"] ;
441 -> 443 ;
444 [label="node #444\natomic_r_covalent_wa <= 1.4691\ngini = 0.1244\nsamples = 0.1%\nvalue = [0.9333, 0.0667]", fillcolor="#e78a47"] ;
440 -> 444 ;
445 [label="node #445\ngini = 0.05\nsamples = 0.1%\nvalue = [0.9744, 0.0256]", fillcolor="#e6843e"] ;
444 -> 445 ;
446 [label="node #446\ngini = 0.4444\nsamples = 0.0%\nvalue = [0.6667, 0.3333]", fillcolor="#f2c09c"] ;
444 -> 446 ;
447 [label="node #447\natomic_pauling_electronegativity_wad <= 0.6614\ngini = 0.2604\nsamples = 0.1%\nvalue = [0.1538, 0.8462]", fillcolor="#5dafea"] ;
431 -> 447 ;
448 [label="node #448\ngini = 0.0\nsamples = 0.0%\nvalue = [1.0, 0.0]", fillcolor="#e58139"] ;
447 -> 448 ;
449 [label="node #449\natomic_pauling_electronegativity_wad <= 1.5044\ngini = 0.1528\nsamples = 0.1%\nvalue = [0.0833, 0.9167]", fillcolor="#4ba6e7"] ;
447 -> 449 ;
450 [label="node #450\natomic_r_covalent_wa <= 1.1677\ngini = 0.0981\nsamples = 0.1%\nvalue = [0.0517, 0.9483]", fillcolor="#44a2e6"] ;
449 -> 450 ;
451 [label="node #451\ngini = 0.0\nsamples = 0.0%\nvalue = [1.0, 0.0]", fillcolor="#e58139"] ;
450 -> 451 ;
452 [label="node #452\ngini = 0.0677\nsamples = 0.1%\nvalue = [0.0351, 0.9649]", fillcolor="#40a1e6"] ;
450 -> 452 ;
453 [label="node #453\ngini = 0.0\nsamples = 0.0%\nvalue = [1.0, 0.0]", fillcolor="#e58139"] ;
449 -> 453 ;
454 [label="node #454\natomic_number_wa <= 25.6824\ngini = 0.1551\nsamples = 0.2%\nvalue = [0.9153, 0.0847]", fillcolor="#e78d4b"] ;
430 -> 454 ;
455 [label="node #455\natomic_ionization_potential_wad <= 5.6836\ngini = 0.4734\nsamples = 0.0%\nvalue = [0.3846, 0.6154]", fillcolor="#b5daf5"] ;
454 -> 455 ;
456 [label="node #456\ngini = 0.0\nsamples = 0.0%\nvalue = [1.0, 0.0]", fillcolor="#e58139"] ;
455 -> 456 ;
457 [label="node #457\natomic_pauling_electronegativity_wa <= 2.1344\ngini = 0.1975\nsamples = 0.0%\nvalue = [0.1111, 0.8889]", fillcolor="#52a9e8"] ;
455 -> 457 ;
458 [label="node #458\ngini = 0.0\nsamples = 0.0%\nvalue = [1.0, 0.0]", fillcolor="#e58139"] ;
457 -> 458 ;
459 [label="node #459\ngini = 0.0\nsamples = 0.0%\nvalue = [0.0, 1.0]", fillcolor="#399de5"] ;
457 -> 459 ;
460 [label="node #460\natomic_pauling_electronegativity_wad <= 1.444\ngini = 0.0817\nsamples = 0.2%\nvalue = [0.9573, 0.0427]", fillcolor="#e68742"] ;
454 -> 460 ;
461 [label="node #461\natomic_volume_wa <= 22.2839\ngini = 0.026\nsamples = 0.2%\nvalue = [0.9868, 0.0132]", fillcolor="#e5833c"] ;
460 -> 461 ;
462 [label="node #462\natomic_number_wad <= 88.5909\ngini = 0.0132\nsamples = 0.2%\nvalue = [0.9934, 0.0066]", fillcolor="#e5823a"] ;
461 -> 462 ;
463 [label="node #463\ngini = 0.0\nsamples = 0.2%\nvalue = [1.0, 0.0]", fillcolor="#e58139"] ;
462 -> 463 ;
464 [label="node #464\ngini = 0.1172\nsamples = 0.0%\nvalue = [0.9375, 0.0625]", fillcolor="#e78946"] ;
462 -> 464 ;
465 [label="node #465\ngini = 0.0\nsamples = 0.0%\nvalue = [0.0, 1.0]", fillcolor="#399de5"] ;
461 -> 465 ;
466 [label="node #466\natomic_r_covalent_wad <= 0.694\ngini = 0.4861\nsamples = 0.0%\nvalue = [0.5833, 0.4167]", fillcolor="#f8dbc6"] ;
460 -> 466 ;
467 [label="node #467\ngini = 0.0\nsamples = 0.0%\nvalue = [1.0, 0.0]", fillcolor="#e58139"] ;
466 -> 467 ;
468 [label="node #468\natomic_pauling_electronegativity_wad <= 1.4778\ngini = 0.4082\nsamples = 0.0%\nvalue = [0.2857, 0.7143]", fillcolor="#88c4ef"] ;
466 -> 468 ;
469 [label="node #469\ngini = 0.0\nsamples = 0.0%\nvalue = [0.0, 1.0]", fillcolor="#399de5"] ;
468 -> 469 ;
470 [label="node #470\ngini = 0.0\nsamples = 0.0%\nvalue = [1.0, 0.0]", fillcolor="#e58139"] ;
468 -> 470 ;
471 [label="node #471\natomic_number_wa <= 13.3095\ngini = 0.2665\nsamples = 2.5%\nvalue = [0.8417, 0.1583]", fillcolor="#ea995e"] ;
403 -> 471 ;
472 [label="node #472\nrel_stoich_wa <= 0.6103\ngini = 0.0761\nsamples = 0.6%\nvalue = [0.9604, 0.0396]", fillcolor="#e68641"] ;
471 -> 472 ;
473 [label="node #473\ngini = 0.0\nsamples = 0.5%\nvalue = [1.0, 0.0]", fillcolor="#e58139"] ;
472 -> 473 ;
474 [label="node #474\natomic_r_covalent_wad <= 0.8685\ngini = 0.3694\nsamples = 0.1%\nvalue = [0.7556, 0.2444]", fillcolor="#edaa79"] ;
472 -> 474 ;
475 [label="node #475\natomic_number_wad <= 5.5\ngini = 0.2836\nsamples = 0.1%\nvalue = [0.8289, 0.1711]", fillcolor="#ea9b62"] ;
474 -> 475 ;
476 [label="node #476\nrel_stoich_wa <= 0.6525\ngini = 0.4055\nsamples = 0.1%\nvalue = [0.7174, 0.2826]", fillcolor="#efb387"] ;
475 -> 476 ;
477 [label="node #477\ngini = 0.0\nsamples = 0.0%\nvalue = [0.0, 1.0]", fillcolor="#399de5"] ;
476 -> 477 ;
478 [label="node #478\natomic_ionization_potential_wa <= 16.804\ngini = 0.375\nsamples = 0.1%\nvalue = [0.75, 0.25]", fillcolor="#eeab7b"] ;
476 -> 478 ;
479 [label="node #479\ngini = 0.3569\nsamples = 0.1%\nvalue = [0.7674, 0.2326]", fillcolor="#eda775"] ;
478 -> 479 ;
480 [label="node #480\ngini = 0.0\nsamples = 0.0%\nvalue = [0.0, 1.0]", fillcolor="#399de5"] ;
478 -> 480 ;
481 [label="node #481\ngini = 0.0\nsamples = 0.0%\nvalue = [1.0, 0.0]", fillcolor="#e58139"] ;
475 -> 481 ;
482 [label="node #482\natomic_pauling_electronegativity_wa <= 2.1281\ngini = 0.4592\nsamples = 0.0%\nvalue = [0.3571, 0.6429]", fillcolor="#a7d3f3"] ;
474 -> 482 ;
483 [label="node #483\ngini = 0.0\nsamples = 0.0%\nvalue = [1.0, 0.0]", fillcolor="#e58139"] ;
482 -> 483 ;
484 [label="node #484\nrel_stoich_wad <= 0.6571\ngini = 0.2975\nsamples = 0.0%\nvalue = [0.1818, 0.8182]", fillcolor="#65b3eb"] ;
482 -> 484 ;
485 [label="node #485\ngini = 0.5\nsamples = 0.0%\nvalue = [0.5, 0.5]", fillcolor="#ffffff"] ;
484 -> 485 ;
486 [label="node #486\ngini = 0.0\nsamples = 0.0%\nvalue = [0.0, 1.0]", fillcolor="#399de5"] ;
484 -> 486 ;
487 [label="node #487\natomic_volume_wa <= 12.1564\ngini = 0.3217\nsamples = 1.8%\nvalue = [0.7986, 0.2014]", fillcolor="#eca16b"] ;
471 -> 487 ;
488 [label="node #488\natomic_volume_wad <= 12.3721\ngini = 0.2301\nsamples = 0.1%\nvalue = [0.1327, 0.8673]", fillcolor="#57ace9"] ;
487 -> 488 ;
489 [label="node #489\natomic_volume_wad <= 2.33\ngini = 0.1107\nsamples = 0.1%\nvalue = [0.0588, 0.9412]", fillcolor="#45a3e7"] ;
488 -> 489 ;
490 [label="node #490\natomic_ionization_potential_wa <= 12.3278\ngini = 0.4444\nsamples = 0.0%\nvalue = [0.6667, 0.3333]", fillcolor="#f2c09c"] ;
489 -> 490 ;
491 [label="node #491\ngini = 0.0\nsamples = 0.0%\nvalue = [0.0, 1.0]", fillcolor="#399de5"] ;
490 -> 491 ;
492 [label="node #492\ngini = 0.0\nsamples = 0.0%\nvalue = [1.0, 0.0]", fillcolor="#e58139"] ;
490 -> 492 ;
493 [label="node #493\natomic_ionization_potential_wad <= 1.247\ngini = 0.025\nsamples = 0.1%\nvalue = [0.0127, 0.9873]", fillcolor="#3c9ee5"] ;
489 -> 493 ;
494 [label="node #494\ngini = 0.0\nsamples = 0.0%\nvalue = [1.0, 0.0]", fillcolor="#e58139"] ;
493 -> 494 ;
495 [label="node #495\ngini = 0.0\nsamples = 0.1%\nvalue = [0.0, 1.0]", fillcolor="#399de5"] ;
493 -> 495 ;
496 [label="node #496\natomic_volume_wa <= 9.821\ngini = 0.4734\nsamples = 0.0%\nvalue = [0.6154, 0.3846]", fillcolor="#f5d0b5"] ;
488 -> 496 ;
497 [label="node #497\ngini = 0.0\nsamples = 0.0%\nvalue = [0.0, 1.0]", fillcolor="#399de5"] ;
496 -> 497 ;
498 [label="node #498\ngini = 0.0\nsamples = 0.0%\nvalue = [1.0, 0.0]", fillcolor="#e58139"] ;
496 -> 498 ;
499 [label="node #499\natomic_volume_wa <= 17.6228\ngini = 0.2631\nsamples = 1.7%\nvalue = [0.8442, 0.1558]", fillcolor="#ea985e"] ;
487 -> 499 ;
500 [label="node #500\natomic_volume_wad <= 6.8119\ngini = 0.3152\nsamples = 1.2%\nvalue = [0.8039, 0.1961]", fillcolor="#eba069"] ;
499 -> 500 ;
501 [label="node #501\natomic_number_wa <= 23.9167\ngini = 0.1626\nsamples = 0.5%\nvalue = [0.9108, 0.0892]", fillcolor="#e88d4c"] ;
500 -> 501 ;
502 [label="node #502\natomic_volume_wa <= 17.6031\ngini = 0.0622\nsamples = 0.3%\nvalue = [0.9679, 0.0321]", fillcolor="#e68540"] ;
501 -> 502 ;
503 [label="node #503\ngini = 0.0491\nsamples = 0.3%\nvalue = [0.9748, 0.0252]", fillcolor="#e6843e"] ;
502 -> 503 ;
504 [label="node #504\ngini = 0.0\nsamples = 0.0%\nvalue = [0.0, 1.0]", fillcolor="#399de5"] ;
502 -> 504 ;
505 [label="node #505\natomic_pauling_electronegativity_wa <= 2.3795\ngini = 0.3091\nsamples = 0.2%\nvalue = [0.8089, 0.1911]", fillcolor="#eb9f68"] ;
501 -> 505 ;
506 [label="node #506\ngini = 0.4411\nsamples = 0.1%\nvalue = [0.6716, 0.3284]", fillcolor="#f2bf9a"] ;
505 -> 506 ;
507 [label="node #507\ngini = 0.162\nsamples = 0.1%\nvalue = [0.9111, 0.0889]", fillcolor="#e88d4c"] ;
505 -> 507 ;
508 [label="node #508\nrel_stoich_wa <= 0.5007\ngini = 0.4004\nsamples = 0.7%\nvalue = [0.7232, 0.2768]", fillcolor="#efb185"] ;
500 -> 508 ;
509 [label="node #509\natomic_volume_wa <= 14.8087\ngini = 0.2341\nsamples = 0.3%\nvalue = [0.8646, 0.1354]", fillcolor="#e99558"] ;
508 -> 509 ;
510 [label="node #510\ngini = 0.3723\nsamples = 0.1%\nvalue = [0.7527, 0.2473]", fillcolor="#eeaa7a"] ;
509 -> 510 ;
511 [label="node #511\ngini = 0.1107\nsamples = 0.2%\nvalue = [0.9412, 0.0588]", fillcolor="#e78945"] ;
509 -> 511 ;
512 [label="node #512\natomic_number_wa <= 16.6357\ngini = 0.466\nsamples = 0.4%\nvalue = [0.6304, 0.3696]", fillcolor="#f4cbad"] ;
508 -> 512 ;
513 [label="node #513\ngini = 0.0512\nsamples = 0.0%\nvalue = [0.9737, 0.0263]", fillcolor="#e6843e"] ;
512 -> 513 ;
514 [label="node #514\ngini = 0.4844\nsamples = 0.4%\nvalue = [0.5884, 0.4116]", fillcolor="#f7d9c3"] ;
512 -> 514 ;
515 [label="node #515\natomic_r_covalent_wa <= 0.9815\ngini = 0.1087\nsamples = 0.5%\nvalue = [0.9423, 0.0577]", fillcolor="#e78945"] ;
499 -> 515 ;
516 [label="node #516\natomic_number_wa <= 25.6455\ngini = 0.4082\nsamples = 0.1%\nvalue = [0.7143, 0.2857]", fillcolor="#efb388"] ;
515 -> 516 ;
517 [label="node #517\ngini = 0.0\nsamples = 0.0%\nvalue = [1.0, 0.0]", fillcolor="#e58139"] ;
516 -> 517 ;
518 [label="node #518\nrel_stoich_wad <= 0.303\ngini = 0.375\nsamples = 0.0%\nvalue = [0.25, 0.75]", fillcolor="#7bbeee"] ;
516 -> 518 ;
519 [label="node #519\ngini = 0.5\nsamples = 0.0%\nvalue = [0.5, 0.5]", fillcolor="#ffffff"] ;
518 -> 519 ;
520 [label="node #520\ngini = 0.0\nsamples = 0.0%\nvalue = [0.0, 1.0]", fillcolor="#399de5"] ;
518 -> 520 ;
521 [label="node #521\nrel_stoich_wa <= 0.9414\ngini = 0.0621\nsamples = 0.4%\nvalue = [0.9679, 0.0321]", fillcolor="#e68540"] ;
515 -> 521 ;
522 [label="node #522\natomic_pauling_electronegativity_wa <= 3.07\ngini = 0.0523\nsamples = 0.4%\nvalue = [0.9731, 0.0269]", fillcolor="#e6843e"] ;
521 -> 522 ;
523 [label="node #523\ngini = 0.0423\nsamples = 0.4%\nvalue = [0.9784, 0.0216]", fillcolor="#e6843d"] ;
522 -> 523 ;
524 [label="node #524\ngini = 0.0\nsamples = 0.0%\nvalue = [0.0, 1.0]", fillcolor="#399de5"] ;
522 -> 524 ;
525 [label="node #525\ngini = 0.0\nsamples = 0.0%\nvalue = [0.0, 1.0]", fillcolor="#399de5"] ;
521 -> 525 ;
526 [label="node #526\natomic_ionization_potential_wa <= 10.9667\ngini = 0.3533\nsamples = 64.9%\nvalue = [0.7709, 0.2291]", fillcolor="#eda674"] ;
0 -> 526 [labeldistance=2.5, labelangle=-45, headlabel="False"] ;
527 [label="node #527\natomic_volume_wa <= 12.6626\ngini = 0.4317\nsamples = 31.2%\nvalue = [0.6848, 0.3152]", fillcolor="#f1bb94"] ;
526 -> 527 ;
528 [label="node #528\natomic_number_wa <= 19.0159\ngini = 0.3339\nsamples = 1.2%\nvalue = [0.2118, 0.7882]", fillcolor="#6eb7ec"] ;
527 -> 528 ;
529 [label="node #529\natomic_volume_wa <= 10.1981\ngini = 0.4996\nsamples = 0.4%\nvalue = [0.515, 0.485]", fillcolor="#fdf8f3"] ;
528 -> 529 ;
530 [label="node #530\natomic_number_wad <= 20.2625\ngini = 0.2729\nsamples = 0.1%\nvalue = [0.163, 0.837]", fillcolor="#60b0ea"] ;
529 -> 530 ;
531 [label="node #531\natomic_r_covalent_wa <= 0.9708\ngini = 0.4938\nsamples = 0.0%\nvalue = [0.5556, 0.4444]", fillcolor="#fae6d7"] ;
530 -> 531 ;
532 [label="node #532\nrel_stoich_wad <= 1.0617\ngini = 0.3967\nsamples = 0.0%\nvalue = [0.2727, 0.7273]", fillcolor="#83c2ef"] ;
531 -> 532 ;
533 [label="node #533\ngini = 0.0\nsamples = 0.0%\nvalue = [0.0, 1.0]", fillcolor="#399de5"] ;
532 -> 533 ;
534 [label="node #534\ngini = 0.0\nsamples = 0.0%\nvalue = [1.0, 0.0]", fillcolor="#e58139"] ;
532 -> 534 ;
535 [label="node #535\ngini = 0.0\nsamples = 0.0%\nvalue = [1.0, 0.0]", fillcolor="#e58139"] ;
531 -> 535 ;
536 [label="node #536\natomic_volume_wad <= 53.773\ngini = 0.126\nsamples = 0.1%\nvalue = [0.0676, 0.9324]", fillcolor="#47a4e7"] ;
530 -> 536 ;
537 [label="node #537\natomic_r_covalent_wad <= 0.9458\ngini = 0.0799\nsamples = 0.1%\nvalue = [0.0417, 0.9583]", fillcolor="#42a1e6"] ;
536 -> 537 ;
538 [label="node #538\ngini = 0.0\nsamples = 0.0%\nvalue = [1.0, 0.0]", fillcolor="#e58139"] ;
537 -> 538 ;
539 [label="node #539\natomic_volume_wa <= 9.3879\ngini = 0.0548\nsamples = 0.1%\nvalue = [0.0282, 0.9718]", fillcolor="#3fa0e6"] ;
537 -> 539 ;
540 [label="node #540\ngini = 0.0\nsamples = 0.1%\nvalue = [0.0, 1.0]", fillcolor="#399de5"] ;
539 -> 540 ;
541 [label="node #541\natomic_number_wa <= 14.7946\ngini = 0.32\nsamples = 0.0%\nvalue = [0.2, 0.8]", fillcolor="#6ab6ec"] ;
539 -> 541 ;
542 [label="node #542\ngini = 0.0\nsamples = 0.0%\nvalue = [1.0, 0.0]", fillcolor="#e58139"] ;
541 -> 542 ;
543 [label="node #543\ngini = 0.0\nsamples = 0.0%\nvalue = [0.0, 1.0]", fillcolor="#399de5"] ;
541 -> 543 ;
544 [label="node #544\ngini = 0.0\nsamples = 0.0%\nvalue = [1.0, 0.0]", fillcolor="#e58139"] ;
536 -> 544 ;
545 [label="node #545\natomic_r_covalent_wa <= 1.2293\ngini = 0.4557\nsamples = 0.3%\nvalue = [0.6488, 0.3512]", fillcolor="#f3c5a4"] ;
529 -> 545 ;
546 [label="node #546\natomic_r_covalent_wa <= 0.952\ngini = 0.4167\nsamples = 0.2%\nvalue = [0.704, 0.296]", fillcolor="#f0b68c"] ;
545 -> 546 ;
547 [label="node #547\natomic_number_wad <= 48.625\ngini = 0.1653\nsamples = 0.1%\nvalue = [0.9091, 0.0909]", fillcolor="#e88e4d"] ;
546 -> 547 ;
548 [label="node #548\natomic_volume_wa <= 12.655\ngini = 0.04\nsamples = 0.1%\nvalue = [0.9796, 0.0204]", fillcolor="#e6843d"] ;
547 -> 548 ;
549 [label="node #549\ngini = 0.0\nsamples = 0.1%\nvalue = [1.0, 0.0]", fillcolor="#e58139"] ;
548 -> 549 ;
550 [label="node #550\ngini = 0.0\nsamples = 0.0%\nvalue = [0.0, 1.0]", fillcolor="#399de5"] ;
548 -> 550 ;
551 [label="node #551\natomic_number_wa <= 10.3222\ngini = 0.4444\nsamples = 0.0%\nvalue = [0.3333, 0.6667]", fillcolor="#9ccef2"] ;
547 -> 551 ;
552 [label="node #552\ngini = 0.0\nsamples = 0.0%\nvalue = [1.0, 0.0]", fillcolor="#e58139"] ;
551 -> 552 ;
553 [label="node #553\ngini = 0.0\nsamples = 0.0%\nvalue = [0.0, 1.0]", fillcolor="#399de5"] ;
551 -> 553 ;
554 [label="node #554\natomic_number_wad <= 30.375\ngini = 0.4625\nsamples = 0.2%\nvalue = [0.6369, 0.3631]", fillcolor="#f4c9aa"] ;
546 -> 554 ;
555 [label="node #555\natomic_volume_wad <= 9.4481\ngini = 0.385\nsamples = 0.1%\nvalue = [0.7398, 0.2602]", fillcolor="#eead7f"] ;
554 -> 555 ;
556 [label="node #556\natomic_volume_wad <= 6.8909\ngini = 0.48\nsamples = 0.0%\nvalue = [0.4, 0.6]", fillcolor="#bddef6"] ;
555 -> 556 ;
557 [label="node #557\ngini = 0.0\nsamples = 0.0%\nvalue = [1.0, 0.0]", fillcolor="#e58139"] ;
556 -> 557 ;
558 [label="node #558\ngini = 0.2449\nsamples = 0.0%\nvalue = [0.1429, 0.8571]", fillcolor="#5aade9"] ;
556 -> 558 ;
559 [label="node #559\nrel_stoich_wa <= 0.418\ngini = 0.2558\nsamples = 0.1%\nvalue = [0.8495, 0.1505]", fillcolor="#ea975c"] ;
555 -> 559 ;
560 [label="node #560\ngini = 0.0634\nsamples = 0.1%\nvalue = [0.9672, 0.0328]", fillcolor="#e68540"] ;
559 -> 560 ;
561 [label="node #561\ngini = 0.4688\nsamples = 0.0%\nvalue = [0.625, 0.375]", fillcolor="#f5cdb0"] ;
559 -> 561 ;
562 [label="node #562\natomic_ionization_potential_wa <= 9.1048\ngini = 0.4583\nsamples = 0.0%\nvalue = [0.3556, 0.6444]", fillcolor="#a6d3f3"] ;
554 -> 562 ;
563 [label="node #563\ngini = 0.0\nsamples = 0.0%\nvalue = [1.0, 0.0]", fillcolor="#e58139"] ;
562 -> 563 ;
564 [label="node #564\natomic_number_wa <= 15.2833\ngini = 0.3389\nsamples = 0.0%\nvalue = [0.2162, 0.7838]", fillcolor="#70b8ec"] ;
562 -> 564 ;
565 [label="node #565\ngini = 0.375\nsamples = 0.0%\nvalue = [0.75, 0.25]", fillcolor="#eeab7b"] ;
564 -> 565 ;
566 [label="node #566\ngini = 0.1284\nsamples = 0.0%\nvalue = [0.069, 0.931]", fillcolor="#48a4e7"] ;
564 -> 566 ;
567 [label="node #567\ngini = 0.0\nsamples = 0.0%\nvalue = [0.0, 1.0]", fillcolor="#399de5"] ;
545 -> 567 ;
568 [label="node #568\natomic_pauling_electronegativity_wa <= 2.1741\ngini = 0.1183\nsamples = 0.8%\nvalue = [0.0631, 0.9369]", fillcolor="#46a4e7"] ;
528 -> 568 ;
569 [label="node #569\natomic_volume_wa <= 12.6519\ngini = 0.041\nsamples = 0.7%\nvalue = [0.0209, 0.9791]", fillcolor="#3d9fe6"] ;
568 -> 569 ;
570 [label="node #570\natomic_pauling_electronegativity_wa <= 2.091\ngini = 0.0377\nsamples = 0.7%\nvalue = [0.0192, 0.9808]", fillcolor="#3d9fe6"] ;
569 -> 570 ;
571 [label="node #571\natomic_r_covalent_wad <= 0.1188\ngini = 0.0196\nsamples = 0.6%\nvalue = [0.0099, 0.9901]", fillcolor="#3b9ee5"] ;
570 -> 571 ;
572 [label="node #572\natomic_volume_wa <= 10.8512\ngini = 0.2975\nsamples = 0.0%\nvalue = [0.1818, 0.8182]", fillcolor="#65b3eb"] ;
571 -> 572 ;
573 [label="node #573\ngini = 0.0\nsamples = 0.0%\nvalue = [1.0, 0.0]", fillcolor="#e58139"] ;
572 -> 573 ;
574 [label="node #574\ngini = 0.0\nsamples = 0.0%\nvalue = [0.0, 1.0]", fillcolor="#399de5"] ;
572 -> 574 ;
575 [label="node #575\natomic_ionization_potential_wa <= 6.8897\ngini = 0.0121\nsamples = 0.6%\nvalue = [0.0061, 0.9939]", fillcolor="#3a9ee5"] ;
571 -> 575 ;
576 [label="node #576\natomic_ionization_potential_wa <= 6.8834\ngini = 0.1023\nsamples = 0.0%\nvalue = [0.0541, 0.9459]", fillcolor="#44a3e6"] ;
575 -> 576 ;
577 [label="node #577\ngini = 0.0\nsamples = 0.0%\nvalue = [0.0, 1.0]", fillcolor="#399de5"] ;
576 -> 577 ;
578 [label="node #578\ngini = 0.0\nsamples = 0.0%\nvalue = [1.0, 0.0]", fillcolor="#e58139"] ;
576 -> 578 ;
579 [label="node #579\natomic_pauling_electronegativity_wa <= 2.0645\ngini = 0.0044\nsamples = 0.5%\nvalue = [0.0022, 0.9978]", fillcolor="#399de5"] ;
575 -> 579 ;
580 [label="node #580\ngini = 0.0\nsamples = 0.5%\nvalue = [0.0, 1.0]", fillcolor="#399de5"] ;
579 -> 580 ;
581 [label="node #581\ngini = 0.0444\nsamples = 0.0%\nvalue = [0.0227, 0.9773]", fillcolor="#3e9fe6"] ;
579 -> 581 ;
582 [label="node #582\natomic_pauling_electronegativity_wa <= 2.0962\ngini = 0.1609\nsamples = 0.1%\nvalue = [0.0882, 0.9118]", fillcolor="#4ca6e8"] ;
570 -> 582 ;
583 [label="node #583\natomic_r_covalent_wad <= 1.4713\ngini = 0.5\nsamples = 0.0%\nvalue = [0.5, 0.5]", fillcolor="#ffffff"] ;
582 -> 583 ;
584 [label="node #584\natomic_number_wad <= 49.8571\ngini = 0.375\nsamples = 0.0%\nvalue = [0.75, 0.25]", fillcolor="#eeab7b"] ;
583 -> 584 ;
585 [label="node #585\ngini = 0.0\nsamples = 0.0%\nvalue = [1.0, 0.0]", fillcolor="#e58139"] ;
584 -> 585 ;
586 [label="node #586\ngini = 0.5\nsamples = 0.0%\nvalue = [0.5, 0.5]", fillcolor="#ffffff"] ;
584 -> 586 ;
587 [label="node #587\ngini = 0.0\nsamples = 0.0%\nvalue = [0.0, 1.0]", fillcolor="#399de5"] ;
583 -> 587 ;
588 [label="node #588\natomic_ionization_potential_wa <= 8.8785\ngini = 0.0921\nsamples = 0.1%\nvalue = [0.0484, 0.9516]", fillcolor="#43a2e6"] ;
582 -> 588 ;
589 [label="node #589\natomic_ionization_potential_wa <= 8.8442\ngini = 0.2112\nsamples = 0.0%\nvalue = [0.12, 0.88]", fillcolor="#54aae9"] ;
588 -> 589 ;
590 [label="node #590\ngini = 0.0832\nsamples = 0.0%\nvalue = [0.0435, 0.9565]", fillcolor="#42a1e6"] ;
589 -> 590 ;
591 [label="node #591\ngini = 0.0\nsamples = 0.0%\nvalue = [1.0, 0.0]", fillcolor="#e58139"] ;
589 -> 591 ;
592 [label="node #592\ngini = 0.0\nsamples = 0.0%\nvalue = [0.0, 1.0]", fillcolor="#399de5"] ;
588 -> 592 ;
593 [label="node #593\ngini = 0.0\nsamples = 0.0%\nvalue = [1.0, 0.0]", fillcolor="#e58139"] ;
569 -> 593 ;
594 [label="node #594\natomic_ionization_potential_wad <= 5.7647\ngini = 0.4093\nsamples = 0.1%\nvalue = [0.287, 0.713]", fillcolor="#89c4ef"] ;
568 -> 594 ;
595 [label="node #595\natomic_number_wad <= 22.5714\ngini = 0.4753\nsamples = 0.1%\nvalue = [0.6111, 0.3889]", fillcolor="#f6d1b7"] ;
594 -> 595 ;
596 [label="node #596\ngini = 0.0\nsamples = 0.0%\nvalue = [0.0, 1.0]", fillcolor="#399de5"] ;
595 -> 596 ;
597 [label="node #597\natomic_ionization_potential_wad <= 4.7933\ngini = 0.3911\nsamples = 0.0%\nvalue = [0.7333, 0.2667]", fillcolor="#eeaf81"] ;
595 -> 597 ;
598 [label="node #598\ngini = 0.0\nsamples = 0.0%\nvalue = [1.0, 0.0]", fillcolor="#e58139"] ;
597 -> 598 ;
599 [label="node #599\natomic_pauling_electronegativity_wad <= 1.595\ngini = 0.48\nsamples = 0.0%\nvalue = [0.6, 0.4]", fillcolor="#f6d5bd"] ;
597 -> 599 ;
600 [label="node #600\ngini = 0.0\nsamples = 0.0%\nvalue = [0.0, 1.0]", fillcolor="#399de5"] ;
599 -> 600 ;
601 [label="node #601\natomic_ionization_potential_wad <= 4.8274\ngini = 0.4152\nsamples = 0.0%\nvalue = [0.7059, 0.2941]", fillcolor="#f0b58b"] ;
599 -> 601 ;
602 [label="node #602\ngini = 0.0\nsamples = 0.0%\nvalue = [0.0, 1.0]", fillcolor="#399de5"] ;
601 -> 602 ;
603 [label="node #603\ngini = 0.32\nsamples = 0.0%\nvalue = [0.8, 0.2]", fillcolor="#eca06a"] ;
601 -> 603 ;
604 [label="node #604\natomic_pauling_electronegativity_wa <= 2.755\ngini = 0.2188\nsamples = 0.1%\nvalue = [0.125, 0.875]", fillcolor="#55abe9"] ;
594 -> 604 ;
605 [label="node #605\natomic_pauling_electronegativity_wa <= 2.2021\ngini = 0.1362\nsamples = 0.1%\nvalue = [0.0735, 0.9265]", fillcolor="#49a5e7"] ;
604 -> 605 ;
606 [label="node #606\natomic_r_covalent_wa <= 1.1854\ngini = 0.48\nsamples = 0.0%\nvalue = [0.6, 0.4]", fillcolor="#f6d5bd"] ;
605 -> 606 ;
607 [label="node #607\ngini = 0.0\nsamples = 0.0%\nvalue = [0.0, 1.0]", fillcolor="#399de5"] ;
606 -> 607 ;
608 [label="node #608\ngini = 0.0\nsamples = 0.0%\nvalue = [1.0, 0.0]", fillcolor="#e58139"] ;
606 -> 608 ;
609 [label="node #609\nrel_stoich_wa <= 0.5353\ngini = 0.0615\nsamples = 0.1%\nvalue = [0.0317, 0.9683]", fillcolor="#3fa0e6"] ;
605 -> 609 ;
610 [label="node #610\nrel_stoich_wad <= 1.0999\ngini = 0.0317\nsamples = 0.1%\nvalue = [0.0161, 0.9839]", fillcolor="#3c9fe5"] ;
609 -> 610 ;
611 [label="node #611\ngini = 0.0\nsamples = 0.1%\nvalue = [0.0, 1.0]", fillcolor="#399de5"] ;
610 -> 611 ;
612 [label="node #612\ngini = 0.5\nsamples = 0.0%\nvalue = [0.5, 0.5]", fillcolor="#ffffff"] ;
610 -> 612 ;
613 [label="node #613\ngini = 0.0\nsamples = 0.0%\nvalue = [1.0, 0.0]", fillcolor="#e58139"] ;
609 -> 613 ;
614 [label="node #614\ngini = 0.0\nsamples = 0.0%\nvalue = [1.0, 0.0]", fillcolor="#e58139"] ;
604 -> 614 ;
615 [label="node #615\natomic_number_wa <= 10.309\ngini = 0.4171\nsamples = 30.1%\nvalue = [0.7036, 0.2964]", fillcolor="#f0b68c"] ;
527 -> 615 ;
616 [label="node #616\natomic_number_wa <= 9.685\ngini = 0.1778\nsamples = 3.3%\nvalue = [0.9014, 0.0986]", fillcolor="#e88f4f"] ;
615 -> 616 ;
617 [label="node #617\natomic_ionization_potential_wad <= 10.677\ngini = 0.109\nsamples = 1.8%\nvalue = [0.9422, 0.0578]", fillcolor="#e78945"] ;
616 -> 617 ;
618 [label="node #618\natomic_ionization_potential_wad <= 10.0046\ngini = 0.2433\nsamples = 0.3%\nvalue = [0.8583, 0.1417]", fillcolor="#e9965a"] ;
617 -> 618 ;
619 [label="node #619\natomic_r_covalent_wa <= 0.8733\ngini = 0.1204\nsamples = 0.2%\nvalue = [0.9357, 0.0643]", fillcolor="#e78a47"] ;
618 -> 619 ;
620 [label="node #620\ngini = 0.0\nsamples = 0.0%\nvalue = [0.0, 1.0]", fillcolor="#399de5"] ;
619 -> 620 ;
621 [label="node #621\natomic_number_wad <= 3.5\ngini = 0.1107\nsamples = 0.2%\nvalue = [0.9412, 0.0588]", fillcolor="#e78945"] ;
619 -> 621 ;
622 [label="node #622\ngini = 0.5\nsamples = 0.0%\nvalue = [0.5, 0.5]", fillcolor="#ffffff"] ;
621 -> 622 ;
623 [label="node #623\natomic_number_wa <= 7.2892\ngini = 0.0917\nsamples = 0.2%\nvalue = [0.9518, 0.0482]", fillcolor="#e68743"] ;
621 -> 623 ;
624 [label="node #624\ngini = 0.2248\nsamples = 0.1%\nvalue = [0.871, 0.129]", fillcolor="#e99456"] ;
623 -> 624 ;
625 [label="node #625\ngini = 0.0\nsamples = 0.1%\nvalue = [1.0, 0.0]", fillcolor="#e58139"] ;
623 -> 625 ;
626 [label="node #626\natomic_number_wad <= 22.225\ngini = 0.421\nsamples = 0.1%\nvalue = [0.6988, 0.3012]", fillcolor="#f0b78e"] ;
618 -> 626 ;
627 [label="node #627\ngini = 0.0\nsamples = 0.0%\nvalue = [1.0, 0.0]", fillcolor="#e58139"] ;
626 -> 627 ;
628 [label="node #628\natomic_ionization_potential_wad <= 10.2452\ngini = 0.4905\nsamples = 0.1%\nvalue = [0.569, 0.431]", fillcolor="#f9e0cf"] ;
626 -> 628 ;
629 [label="node #629\natomic_ionization_potential_wa <= 9.8664\ngini = 0.1653\nsamples = 0.0%\nvalue = [0.0909, 0.9091]", fillcolor="#4da7e8"] ;
628 -> 629 ;
630 [label="node #630\ngini = 0.0\nsamples = 0.0%\nvalue = [0.0, 1.0]", fillcolor="#399de5"] ;
629 -> 630 ;
631 [label="node #631\ngini = 0.375\nsamples = 0.0%\nvalue = [0.25, 0.75]", fillcolor="#7bbeee"] ;
629 -> 631 ;
632 [label="node #632\natomic_number_wad <= 22.658\ngini = 0.4346\nsamples = 0.1%\nvalue = [0.6809, 0.3191]", fillcolor="#f1bc96"] ;
628 -> 632 ;
633 [label="node #633\ngini = 0.0\nsamples = 0.0%\nvalue = [0.0, 1.0]", fillcolor="#399de5"] ;
632 -> 633 ;
634 [label="node #634\ngini = 0.3807\nsamples = 0.1%\nvalue = [0.7442, 0.2558]", fillcolor="#eeac7d"] ;
632 -> 634 ;
635 [label="node #635\natomic_r_covalent_wa <= 1.2163\ngini = 0.0778\nsamples = 1.5%\nvalue = [0.9594, 0.0406]", fillcolor="#e68641"] ;
617 -> 635 ;
636 [label="node #636\natomic_number_wa <= 9.3295\ngini = 0.0749\nsamples = 1.5%\nvalue = [0.961, 0.039]", fillcolor="#e68641"] ;
635 -> 636 ;
637 [label="node #637\natomic_number_wad <= 71.8684\ngini = 0.0537\nsamples = 1.1%\nvalue = [0.9724, 0.0276]", fillcolor="#e6853f"] ;
636 -> 637 ;
638 [label="node #638\natomic_volume_wa <= 13.2996\ngini = 0.0515\nsamples = 1.1%\nvalue = [0.9735, 0.0265]", fillcolor="#e6843e"] ;
637 -> 638 ;
639 [label="node #639\ngini = 0.1212\nsamples = 0.1%\nvalue = [0.9352, 0.0648]", fillcolor="#e78a47"] ;
638 -> 639 ;
640 [label="node #640\ngini = 0.0412\nsamples = 0.9%\nvalue = [0.979, 0.021]", fillcolor="#e6843d"] ;
638 -> 640 ;
641 [label="node #641\ngini = 0.0\nsamples = 0.0%\nvalue = [0.0, 1.0]", fillcolor="#399de5"] ;
637 -> 641 ;
642 [label="node #642\nrel_stoich_wa <= 0.3207\ngini = 0.1241\nsamples = 0.4%\nvalue = [0.9335, 0.0665]", fillcolor="#e78a47"] ;
636 -> 642 ;
643 [label="node #643\natomic_volume_wad <= 24.3377\ngini = 0.2405\nsamples = 0.1%\nvalue = [0.8602, 0.1398]", fillcolor="#e99559"] ;
642 -> 643 ;
644 [label="node #644\ngini = 0.18\nsamples = 0.1%\nvalue = [0.9, 0.1]", fillcolor="#e88f4f"] ;
643 -> 644 ;
645 [label="node #645\ngini = 0.4734\nsamples = 0.0%\nvalue = [0.6154, 0.3846]", fillcolor="#f5d0b5"] ;
643 -> 645 ;
646 [label="node #646\nrel_stoich_wa <= 0.3575\ngini = 0.0787\nsamples = 0.3%\nvalue = [0.959, 0.041]", fillcolor="#e68641"] ;
642 -> 646 ;
647 [label="node #647\ngini = 0.0\nsamples = 0.2%\nvalue = [1.0, 0.0]", fillcolor="#e58139"] ;
646 -> 647 ;
648 [label="node #648\ngini = 0.2125\nsamples = 0.1%\nvalue = [0.8791, 0.1209]", fillcolor="#e99254"] ;
646 -> 648 ;
649 [label="node #649\ngini = 0.0\nsamples = 0.0%\nvalue = [0.0, 1.0]", fillcolor="#399de5"] ;
635 -> 649 ;
650 [label="node #650\natomic_volume_wa <= 14.6116\ngini = 0.2499\nsamples = 1.5%\nvalue = [0.8537, 0.1463]", fillcolor="#e9975b"] ;
616 -> 650 ;
651 [label="node #651\natomic_volume_wad <= 13.84\ngini = 0.3283\nsamples = 0.9%\nvalue = [0.793, 0.207]", fillcolor="#eca26d"] ;
650 -> 651 ;
652 [label="node #652\natomic_number_wad <= 24.5134\ngini = 0.4592\nsamples = 0.2%\nvalue = [0.6429, 0.3571]", fillcolor="#f3c7a7"] ;
651 -> 652 ;
653 [label="node #653\natomic_r_covalent_wad <= 1.1607\ngini = 0.3516\nsamples = 0.1%\nvalue = [0.7724, 0.2276]", fillcolor="#eda673"] ;
652 -> 653 ;
654 [label="node #654\nrel_stoich_wa <= 0.5233\ngini = 0.2965\nsamples = 0.1%\nvalue = [0.819, 0.181]", fillcolor="#eb9d65"] ;
653 -> 654 ;
655 [label="node #655\ngini = 0.2575\nsamples = 0.1%\nvalue = [0.8482, 0.1518]", fillcolor="#ea985c"] ;
654 -> 655 ;
656 [label="node #656\ngini = 0.0\nsamples = 0.0%\nvalue = [0.0, 1.0]", fillcolor="#399de5"] ;
654 -> 656 ;
657 [label="node #657\ngini = 0.0\nsamples = 0.0%\nvalue = [0.0, 1.0]", fillcolor="#399de5"] ;
653 -> 657 ;
658 [label="node #658\natomic_number_wad <= 25.2792\ngini = 0.4886\nsamples = 0.1%\nvalue = [0.4247, 0.5753]", fillcolor="#cbe5f8"] ;
652 -> 658 ;
659 [label="node #659\ngini = 0.0\nsamples = 0.0%\nvalue = [0.0, 1.0]", fillcolor="#399de5"] ;
658 -> 659 ;
660 [label="node #660\nrel_stoich_wad <= 0.3814\ngini = 0.4999\nsamples = 0.1%\nvalue = [0.5082, 0.4918]", fillcolor="#fefbf9"] ;
658 -> 660 ;
661 [label="node #661\ngini = 0.375\nsamples = 0.0%\nvalue = [0.75, 0.25]", fillcolor="#eeab7b"] ;
660 -> 661 ;
662 [label="node #662\ngini = 0.4759\nsamples = 0.1%\nvalue = [0.3902, 0.6098]", fillcolor="#b8dcf6"] ;
660 -> 662 ;
663 [label="node #663\natomic_number_wa <= 9.8885\ngini = 0.2628\nsamples = 0.7%\nvalue = [0.8444, 0.1556]", fillcolor="#ea985d"] ;
651 -> 663 ;
664 [label="node #664\nrel_stoich_wad <= 0.7095\ngini = 0.3886\nsamples = 0.2%\nvalue = [0.736, 0.264]", fillcolor="#eeae80"] ;
663 -> 664 ;
665 [label="node #665\ngini = 0.0\nsamples = 0.1%\nvalue = [1.0, 0.0]", fillcolor="#e58139"] ;
664 -> 665 ;
666 [label="node #666\natomic_number_wa <= 9.8516\ngini = 0.453\nsamples = 0.2%\nvalue = [0.6533, 0.3467]", fillcolor="#f3c4a2"] ;
664 -> 666 ;
667 [label="node #667\ngini = 0.3777\nsamples = 0.1%\nvalue = [0.7473, 0.2527]", fillcolor="#eeac7c"] ;
666 -> 667 ;
668 [label="node #668\ngini = 0.4999\nsamples = 0.1%\nvalue = [0.5085, 0.4915]", fillcolor="#fefbf8"] ;
666 -> 668 ;
669 [label="node #669\nrel_stoich_wad <= 0.7296\ngini = 0.1779\nsamples = 0.4%\nvalue = [0.9013, 0.0987]", fillcolor="#e88f4f"] ;
663 -> 669 ;
670 [label="node #670\natomic_number_wad <= 32.6667\ngini = 0.2655\nsamples = 0.2%\nvalue = [0.8424, 0.1576]", fillcolor="#ea995e"] ;
669 -> 670 ;
671 [label="node #671\ngini = 0.0\nsamples = 0.0%\nvalue = [1.0, 0.0]", fillcolor="#e58139"] ;
670 -> 671 ;
672 [label="node #672\ngini = 0.3184\nsamples = 0.2%\nvalue = [0.8014, 0.1986]", fillcolor="#eba06a"] ;
670 -> 672 ;
673 [label="node #673\natomic_volume_wa <= 14.5406\ngini = 0.0803\nsamples = 0.2%\nvalue = [0.9581, 0.0419]", fillcolor="#e68742"] ;
669 -> 673 ;
674 [label="node #674\ngini = 0.071\nsamples = 0.2%\nvalue = [0.9632, 0.0368]", fillcolor="#e68641"] ;
673 -> 674 ;
675 [label="node #675\ngini = 0.0\nsamples = 0.0%\nvalue = [0.0, 1.0]", fillcolor="#399de5"] ;
673 -> 675 ;
676 [label="node #676\natomic_number_wa <= 9.7257\ngini = 0.1016\nsamples = 0.6%\nvalue = [0.9463, 0.0537]", fillcolor="#e68844"] ;
650 -> 676 ;
677 [label="node #677\natomic_pauling_electronegativity_wa <= 2.6317\ngini = 0.42\nsamples = 0.0%\nvalue = [0.7, 0.3]", fillcolor="#f0b78e"] ;
676 -> 677 ;
678 [label="node #678\ngini = 0.0\nsamples = 0.0%\nvalue = [1.0, 0.0]", fillcolor="#e58139"] ;
677 -> 678 ;
679 [label="node #679\ngini = 0.0\nsamples = 0.0%\nvalue = [0.0, 1.0]", fillcolor="#399de5"] ;
677 -> 679 ;
680 [label="node #680\natomic_volume_wad <= 11.7624\ngini = 0.0926\nsamples = 0.6%\nvalue = [0.9513, 0.0487]", fillcolor="#e68743"] ;
676 -> 680 ;
681 [label="node #681\natomic_r_covalent_wad <= 1.3566\ngini = 0.2311\nsamples = 0.1%\nvalue = [0.8667, 0.1333]", fillcolor="#e99457"] ;
680 -> 681 ;
682 [label="node #682\natomic_number_wa <= 9.9821\ngini = 0.1123\nsamples = 0.1%\nvalue = [0.9403, 0.0597]", fillcolor="#e78946"] ;
681 -> 682 ;
683 [label="node #683\ngini = 0.0\nsamples = 0.0%\nvalue = [0.0, 1.0]", fillcolor="#399de5"] ;
682 -> 683 ;
684 [label="node #684\ngini = 0.0308\nsamples = 0.1%\nvalue = [0.9844, 0.0156]", fillcolor="#e5833c"] ;
682 -> 684 ;
685 [label="node #685\natomic_volume_wa <= 15.5783\ngini = 0.375\nsamples = 0.0%\nvalue = [0.25, 0.75]", fillcolor="#7bbeee"] ;
681 -> 685 ;
686 [label="node #686\ngini = 0.0\nsamples = 0.0%\nvalue = [0.0, 1.0]", fillcolor="#399de5"] ;
685 -> 686 ;
687 [label="node #687\ngini = 0.0\nsamples = 0.0%\nvalue = [1.0, 0.0]", fillcolor="#e58139"] ;
685 -> 687 ;
688 [label="node #688\natomic_number_wa <= 10.1693\ngini = 0.0647\nsamples = 0.5%\nvalue = [0.9665, 0.0335]", fillcolor="#e68540"] ;
680 -> 688 ;
689 [label="node #689\natomic_r_covalent_wa <= 1.0805\ngini = 0.0276\nsamples = 0.3%\nvalue = [0.986, 0.014]", fillcolor="#e5833c"] ;
688 -> 689 ;
690 [label="node #690\ngini = 0.015\nsamples = 0.3%\nvalue = [0.9925, 0.0075]", fillcolor="#e5823b"] ;
689 -> 690 ;
691 [label="node #691\ngini = 0.1723\nsamples = 0.0%\nvalue = [0.9048, 0.0952]", fillcolor="#e88e4e"] ;
689 -> 691 ;
692 [label="node #692\natomic_r_covalent_wa <= 0.9602\ngini = 0.14\nsamples = 0.2%\nvalue = [0.9242, 0.0758]", fillcolor="#e78b49"] ;
688 -> 692 ;
693 [label="node #693\ngini = 0.0\nsamples = 0.1%\nvalue = [1.0, 0.0]", fillcolor="#e58139"] ;
692 -> 693 ;
694 [label="node #694\ngini = 0.2571\nsamples = 0.1%\nvalue = [0.8485, 0.1515]", fillcolor="#ea985c"] ;
692 -> 694 ;
695 [label="node #695\natomic_volume_wa <= 21.0401\ngini = 0.4354\nsamples = 26.8%\nvalue = [0.6797, 0.3203]", fillcolor="#f1bc96"] ;
615 -> 695 ;
696 [label="node #696\natomic_r_covalent_wa <= 1.5017\ngini = 0.4633\nsamples = 20.3%\nvalue = [0.6355, 0.3645]", fillcolor="#f4c9ab"] ;
695 -> 696 ;
697 [label="node #697\natomic_r_covalent_wad <= 2.2834\ngini = 0.4514\nsamples = 19.5%\nvalue = [0.656, 0.344]", fillcolor="#f3c3a1"] ;
696 -> 697 ;
698 [label="node #698\natomic_volume_wa <= 13.7026\ngini = 0.4357\nsamples = 16.5%\nvalue = [0.6793, 0.3207]", fillcolor="#f1bc96"] ;
697 -> 698 ;
699 [label="node #699\natomic_r_covalent_wa <= 1.2171\ngini = 0.4951\nsamples = 1.2%\nvalue = [0.4503, 0.5497]", fillcolor="#dbedfa"] ;
698 -> 699 ;
700 [label="node #700\natomic_number_wa <= 10.9853\ngini = 0.4978\nsamples = 0.9%\nvalue = [0.5329, 0.4671]", fillcolor="#fcefe7"] ;
699 -> 700 ;
701 [label="node #701\ngini = 0.0384\nsamples = 0.1%\nvalue = [0.9804, 0.0196]", fillcolor="#e6843d"] ;
700 -> 701 ;
702 [label="node #702\ngini = 0.5\nsamples = 0.8%\nvalue = [0.5014, 0.4986]", fillcolor="#fffefe"] ;
700 -> 702 ;
703 [label="node #703\nrel_stoich_wa <= 0.3649\ngini = 0.3027\nsamples = 0.3%\nvalue = [0.186, 0.814]", fillcolor="#66b3eb"] ;
699 -> 703 ;
704 [label="node #704\ngini = 0.4969\nsamples = 0.1%\nvalue = [0.4605, 0.5395]", fillcolor="#e2f1fb"] ;
703 -> 704 ;
705 [label="node #705\ngini = 0.1132\nsamples = 0.2%\nvalue = [0.0602, 0.9398]", fillcolor="#46a3e7"] ;
703 -> 705 ;
706 [label="node #706\natomic_volume_wa <= 15.4335\ngini = 0.4223\nsamples = 15.3%\nvalue = [0.6971, 0.3029]", fillcolor="#f0b88f"] ;
698 -> 706 ;
707 [label="node #707\natomic_r_covalent_wa <= 1.2892\ngini = 0.4608\nsamples = 5.5%\nvalue = [0.64, 0.36]", fillcolor="#f4c8a8"] ;
706 -> 707 ;
708 [label="node #708\ngini = 0.4432\nsamples = 5.1%\nvalue = [0.6686, 0.3314]", fillcolor="#f2bf9b"] ;
707 -> 708 ;
709 [label="node #709\ngini = 0.3453\nsamples = 0.3%\nvalue = [0.2219, 0.7781]", fillcolor="#71b9ec"] ;
707 -> 709 ;
710 [label="node #710\natomic_number_wa <= 16.3246\ngini = 0.3947\nsamples = 9.8%\nvalue = [0.7295, 0.2705]", fillcolor="#efb082"] ;
706 -> 710 ;
711 [label="node #711\ngini = 0.2785\nsamples = 2.5%\nvalue = [0.8328, 0.1672]", fillcolor="#ea9a61"] ;
710 -> 711 ;
712 [label="node #712\ngini = 0.4234\nsamples = 7.4%\nvalue = [0.6957, 0.3043]", fillcolor="#f0b890"] ;
710 -> 712 ;
713 [label="node #713\nrel_stoich_wa <= 0.3818\ngini = 0.4984\nsamples = 3.0%\nvalue = [0.5283, 0.4717]", fillcolor="#fcf1ea"] ;
697 -> 713 ;
714 [label="node #714\natomic_ionization_potential_wa <= 10.6711\ngini = 0.453\nsamples = 0.8%\nvalue = [0.3466, 0.6534]", fillcolor="#a2d1f3"] ;
713 -> 714 ;
715 [label="node #715\natomic_volume_wad <= 59.88\ngini = 0.398\nsamples = 0.7%\nvalue = [0.2742, 0.7258]", fillcolor="#84c2ef"] ;
714 -> 715 ;
716 [label="node #716\ngini = 0.3661\nsamples = 0.7%\nvalue = [0.2413, 0.7587]", fillcolor="#78bced"] ;
715 -> 716 ;
717 [label="node #717\ngini = 0.1244\nsamples = 0.0%\nvalue = [0.9333, 0.0667]", fillcolor="#e78a47"] ;
715 -> 717 ;
718 [label="node #718\natomic_number_wad <= 104.5\ngini = 0.2914\nsamples = 0.1%\nvalue = [0.8229, 0.1771]", fillcolor="#eb9c64"] ;
714 -> 718 ;
719 [label="node #719\ngini = 0.1761\nsamples = 0.1%\nvalue = [0.9024, 0.0976]", fillcolor="#e88f4e"] ;
718 -> 719 ;
720 [label="node #720\ngini = 0.4592\nsamples = 0.0%\nvalue = [0.3571, 0.6429]", fillcolor="#a7d3f3"] ;
718 -> 720 ;
721 [label="node #721\nrel_stoich_wa <= 0.4374\ngini = 0.4801\nsamples = 2.2%\nvalue = [0.5998, 0.4002]", fillcolor="#f6d5bd"] ;
713 -> 721 ;
722 [label="node #722\natomic_ionization_potential_wa <= 10.768\ngini = 0.4924\nsamples = 1.9%\nvalue = [0.5617, 0.4383]", fillcolor="#f9e3d4"] ;
721 -> 722 ;
723 [label="node #723\ngini = 0.4574\nsamples = 1.3%\nvalue = [0.646, 0.354]", fillcolor="#f3c6a6"] ;
722 -> 723 ;
724 [label="node #724\ngini = 0.4777\nsamples = 0.6%\nvalue = [0.3944, 0.6056]", fillcolor="#baddf6"] ;
722 -> 724 ;
725 [label="node #725\nrel_stoich_wad <= 0.9116\ngini = 0.2671\nsamples = 0.3%\nvalue = [0.8413, 0.1587]", fillcolor="#ea995e"] ;
721 -> 725 ;
726 [label="node #726\ngini = 0.3107\nsamples = 0.0%\nvalue = [0.1923, 0.8077]", fillcolor="#68b4eb"] ;
725 -> 726 ;
727 [label="node #727\ngini = 0.154\nsamples = 0.3%\nvalue = [0.9159, 0.0841]", fillcolor="#e78d4b"] ;
725 -> 727 ;
728 [label="node #728\natomic_volume_wa <= 19.3368\ngini = 0.2648\nsamples = 0.8%\nvalue = [0.1571, 0.8429]", fillcolor="#5eafea"] ;
696 -> 728 ;
729 [label="node #729\natomic_ionization_potential_wa <= 8.8177\ngini = 0.115\nsamples = 0.7%\nvalue = [0.0613, 0.9387]", fillcolor="#46a3e7"] ;
728 -> 729 ;
730 [label="node #730\natomic_volume_wa <= 18.1628\ngini = 0.0968\nsamples = 0.7%\nvalue = [0.051, 0.949]", fillcolor="#44a2e6"] ;
729 -> 730 ;
731 [label="node #731\natomic_volume_wad <= 41.07\ngini = 0.0229\nsamples = 0.5%\nvalue = [0.0116, 0.9884]", fillcolor="#3b9ee5"] ;
730 -> 731 ;
732 [label="node #732\ngini = 0.0139\nsamples = 0.5%\nvalue = [0.007, 0.993]", fillcolor="#3a9ee5"] ;
731 -> 732 ;
733 [label="node #733\ngini = 0.0\nsamples = 0.0%\nvalue = [1.0, 0.0]", fillcolor="#e58139"] ;
731 -> 733 ;
734 [label="node #734\natomic_r_covalent_wa <= 1.5223\ngini = 0.3159\nsamples = 0.1%\nvalue = [0.1966, 0.8034]", fillcolor="#69b5eb"] ;
730 -> 734 ;
735 [label="node #735\ngini = 0.4992\nsamples = 0.0%\nvalue = [0.52, 0.48]", fillcolor="#fdf5f0"] ;
734 -> 735 ;
736 [label="node #736\ngini = 0.1938\nsamples = 0.1%\nvalue = [0.1087, 0.8913]", fillcolor="#51a9e8"] ;
734 -> 736 ;
737 [label="node #737\ngini = 0.0\nsamples = 0.0%\nvalue = [1.0, 0.0]", fillcolor="#e58139"] ;
729 -> 737 ;
738 [label="node #738\nrel_stoich_wad <= 0.5485\ngini = 0.4999\nsamples = 0.2%\nvalue = [0.4937, 0.5063]", fillcolor="#fafdfe"] ;
728 -> 738 ;
739 [label="node #739\nrel_stoich_wa <= 0.3302\ngini = 0.4173\nsamples = 0.1%\nvalue = [0.2967, 0.7033]", fillcolor="#8dc6f0"] ;
738 -> 739 ;
740 [label="node #740\ngini = 0.0\nsamples = 0.0%\nvalue = [1.0, 0.0]", fillcolor="#e58139"] ;
739 -> 740 ;
741 [label="node #741\natomic_r_covalent_wad <= 1.0526\ngini = 0.353\nsamples = 0.1%\nvalue = [0.2289, 0.7711]", fillcolor="#74baed"] ;
739 -> 741 ;
742 [label="node #742\ngini = 0.4861\nsamples = 0.0%\nvalue = [0.4167, 0.5833]", fillcolor="#c6e3f8"] ;
741 -> 742 ;
743 [label="node #743\ngini = 0.1557\nsamples = 0.1%\nvalue = [0.0851, 0.9149]", fillcolor="#4ba6e7"] ;
741 -> 743 ;
744 [label="node #744\natomic_ionization_potential_wa <= 7.9085\ngini = 0.3636\nsamples = 0.1%\nvalue = [0.7612, 0.2388]", fillcolor="#eda977"] ;
738 -> 744 ;
745 [label="node #745\natomic_volume_wa <= 20.6256\ngini = 0.4974\nsamples = 0.0%\nvalue = [0.4643, 0.5357]", fillcolor="#e5f2fc"] ;
744 -> 745 ;
746 [label="node #746\ngini = 0.0\nsamples = 0.0%\nvalue = [0.0, 1.0]", fillcolor="#399de5"] ;
745 -> 746 ;
747 [label="node #747\ngini = 0.2311\nsamples = 0.0%\nvalue = [0.8667, 0.1333]", fillcolor="#e99457"] ;
745 -> 747 ;
748 [label="node #748\natomic_pauling_electronegativity_wad <= 3.0223\ngini = 0.05\nsamples = 0.0%\nvalue = [0.9744, 0.0256]", fillcolor="#e6843e"] ;
744 -> 748 ;
749 [label="node #749\ngini = 0.0\nsamples = 0.0%\nvalue = [1.0, 0.0]", fillcolor="#e58139"] ;
748 -> 749 ;
750 [label="node #750\ngini = 0.0\nsamples = 0.0%\nvalue = [0.0, 1.0]", fillcolor="#399de5"] ;
748 -> 750 ;
751 [label="node #751\natomic_number_wad <= 68.6619\ngini = 0.2926\nsamples = 6.4%\nvalue = [0.822, 0.178]", fillcolor="#eb9c64"] ;
695 -> 751 ;
752 [label="node #752\natomic_number_wa <= 54.3095\ngini = 0.2465\nsamples = 4.6%\nvalue = [0.8561, 0.1439]", fillcolor="#e9965a"] ;
751 -> 752 ;
753 [label="node #753\natomic_ionization_potential_wad <= 3.6749\ngini = 0.2298\nsamples = 4.4%\nvalue = [0.8675, 0.1325]", fillcolor="#e99457"] ;
752 -> 753 ;
754 [label="node #754\ngini = 0.0\nsamples = 0.0%\nvalue = [0.0, 1.0]", fillcolor="#399de5"] ;
753 -> 754 ;
755 [label="node #755\natomic_pauling_electronegativity_wad <= 3.209\ngini = 0.2263\nsamples = 4.4%\nvalue = [0.8699, 0.1301]", fillcolor="#e99457"] ;
753 -> 755 ;
756 [label="node #756\natomic_pauling_electronegativity_wa <= 2.2906\ngini = 0.2668\nsamples = 3.0%\nvalue = [0.8414, 0.1586]", fillcolor="#ea995e"] ;
755 -> 756 ;
757 [label="node #757\ngini = 0.2311\nsamples = 2.4%\nvalue = [0.8667, 0.1333]", fillcolor="#e99457"] ;
756 -> 757 ;
758 [label="node #758\ngini = 0.3764\nsamples = 0.6%\nvalue = [0.7486, 0.2514]", fillcolor="#eeab7b"] ;
756 -> 758 ;
759 [label="node #759\natomic_number_wad <= 56.9286\ngini = 0.1251\nsamples = 1.3%\nvalue = [0.933, 0.067]", fillcolor="#e78a47"] ;
755 -> 759 ;
760 [label="node #760\ngini = 0.07\nsamples = 0.9%\nvalue = [0.9637, 0.0363]", fillcolor="#e68640"] ;
759 -> 760 ;
761 [label="node #761\ngini = 0.2192\nsamples = 0.5%\nvalue = [0.8747, 0.1253]", fillcolor="#e99355"] ;
759 -> 761 ;
762 [label="node #762\natomic_volume_wa <= 24.6615\ngini = 0.4867\nsamples = 0.2%\nvalue = [0.5817, 0.4183]", fillcolor="#f8dcc7"] ;
752 -> 762 ;
763 [label="node #763\natomic_volume_wad <= 18.6345\ngini = 0.4297\nsamples = 0.1%\nvalue = [0.3125, 0.6875]", fillcolor="#93caf1"] ;
762 -> 763 ;
764 [label="node #764\natomic_r_covalent_wa <= 1.5421\ngini = 0.0768\nsamples = 0.0%\nvalue = [0.04, 0.96]", fillcolor="#41a1e6"] ;
763 -> 764 ;
765 [label="node #765\ngini = 0.0\nsamples = 0.0%\nvalue = [1.0, 0.0]", fillcolor="#e58139"] ;
764 -> 765 ;
766 [label="node #766\ngini = 0.0\nsamples = 0.0%\nvalue = [0.0, 1.0]", fillcolor="#399de5"] ;
764 -> 766 ;
767 [label="node #767\natomic_volume_wad <= 20.7933\ngini = 0.4997\nsamples = 0.1%\nvalue = [0.4872, 0.5128]", fillcolor="#f5fafe"] ;
